svm_type c_svc
kernel_type rbf
gamma 0.0
nr_class 5
total_sv 339
rho 1.0 1.0 1.0 1.0 -1.0 -1.0 -1.0 1.0 1.0 1.0
label 1 0 2 3 4
nr_sv 45 83 59 69 83
SV
1.0 1.0 1.0 1.0 1:-116.30730514705868 2:-68.12267808823529 3:134.78905185690846 4:-27.641947654923086 5:-115.75805514705871 6:-34.662278088235325 7:120.83625637074182 8:-41.33033926916756 9:-113.41704514705867 10:-1.6806980882353173 11:113.42949738032759 12:-57.15101068699844 13:-106.5626151470587 14:31.035111911764716 15:110.9899505286668 16:-74.2375812503473 17:-97.0559251470587 18:62.92549191176471 19:115.66965954168374 20:-90.95706029401319 21:-79.19969514705872 22:90.73381191176469 23:120.43760349420162 24:-106.88295505247953 25:-53.68058514705871 26:112.01691191176468 27:124.21511090031949 28:-122.39539361984231 29:-25.033485147058684 30:128.56251191176472 31:130.97707756577353 32:-136.98133590264308 33:7.315114852941292 34:134.6358719117647 35:134.83445001464884 36:28.890030068650688 37:38.5634448529413 38:128.6648919117647 39:134.31974422843402 40:15.315473672571926 41:64.62035485294132 42:110.4815119117647 43:127.99201043670446 44:1.6767435433960358 45:86.97673485294132 46:87.2808619117647 47:123.2189160061855 48:-12.900003331059267 49:103.09166485294128 50:59.708781911764675 51:119.13450381622381 52:-27.921372371813632 53:109.68406485294128 54:28.44084191176472 55:113.31140971373634 56:-43.46347324991726 57:113.64836485294131 58:-3.0957580882353 59:113.6905209412295 60:-59.56033940083981 61:118.28247485294128 62:-34.99508808823532 63:123.35071968837488 64:-74.48139382739721 65:118.51188485294131 66:-66.68625808823529 67:135.98574877246347 68:-87.36631831951755 69:-104.6129751470587 70:-84.3959180882353 71:134.41185051577574 72:-19.105344887071134 73:-90.3439551470587 74:-96.0022580882353 75:131.82740151293999 76:-11.260778737545841 77:-71.9218551470587 78:-98.29053808823531 79:121.79401925164194 80:-4.193947335609437 81:-53.711195147058675 82:-95.4665480882353 83:109.5388254821493 84:2.6371122992687717 85:-37.22124514705871 86:-87.04511808823531 87:94.66928579688489 88:8.848029237222107 89:25.903354852941277 90:-90.50696808823531 91:94.1408257089465 92:-132.02872587776213 93:44.02513485294128 94:-101.20263808823532 95:110.36388202142041 96:-124.49001370485799 97:64.34355485294128 98:-105.55648808823531 99:123.62145941799598 100:-116.63497145228624 101:85.00518485294128 102:-103.53545808823532 103:133.96071264898322 104:-108.61315374676872 105:104.06284485294128 106:-95.1000780882353 107:140.97198491642155 108:-100.42330321384682 109:-4.777005147058674 110:-83.3827580882353 111:83.51948350281026 112:28.721104171156227 113:-3.5658251470587174 114:-54.77361808823531 115:54.88956501426528 116:28.275235375355123 117:-3.165205147058714 118:-26.284878088235303 119:26.474767982672848 120:25.133547844202326 121:-1.5212651470586707 122:1.876621911764687 123:2.415772639834053 124:-108.97038577642333 125:-23.670905147058704 126:19.067661911764674 127:30.39551745344059 128:-96.85254166453849 129:-12.137705147058682 130:21.455851911764682 131:24.65111493414671 132:-118.50289643925797 133:-0.7292551470587227 134:23.976241911764703 135:23.987329765544434 136:-146.25784355128815 137:11.815904852941287 138:20.992451911764704 139:24.08938863403376 140:2.626386559842892 141:23.882304852941274 142:17.0375719117647 143:29.336723432199715 144:-22.496041831126185 145:-84.2333851470587 146:-62.4364580882353 147:104.85024783917629 148:-21.45298407106054 149:-72.28885514705871 150:-71.13832808823531 151:101.42159682070603 152:-13.459598587383795 153:-57.408165147058696 154:-70.9369180882353 155:91.25647250145586 156:-6.982718098116884 157:-43.781665147058675 158:-65.0989880882353 159:78.45197545735464 160:-1.9224048456182743 161:-57.12026514705872 162:-62.05486808823531 163:84.34175326561913 164:-10.628947408992524 165:-70.72377514705869 166:-61.999758088235296 167:94.05223215879256 168:-16.760684593927635 169:33.97628485294132 170:-67.00475808823529 171:75.12672985609811 172:-121.11167727926895 173:47.048884852941285 174:-76.1186880882353 175:89.48548620966075 176:-116.27983039938016 177:62.873204852941285 178:-77.60304808823531 179:99.87628828237902 180:-108.98595853246576 181:75.1904948529413 182:-68.1484980882353 183:101.4782159279143 184:-100.1874188155441 185:61.390344852941325 186:-66.5638080882353 187:90.55117331305254 188:-105.31533120588274 189:47.686454852941324 190:-66.5928980882353 191:81.90611730653397 192:-112.39395808589867 193:-37.44531514705869 194:55.76937191176472 195:67.17420985687346 196:-114.12134304526256 197:-24.3793451470587 198:51.05390191176468 199:56.576084790443964 200:-122.47451299233866 201:-11.059465147058688 202:47.26632191176469 203:48.542939305377594 204:-134.83073978242288 205:2.5907448529413273 206:47.5245819117647 207:47.595145180796266 208:28.87967867481072 209:14.915554852941284 210:46.205021911764675 211:48.552835410898034 212:14.109276218956339 213:26.994364852941317 214:48.945921911764685 215:55.89632372174649 216:3.1226460677860004 217:39.1039948529413 218:51.05632191176471 219:64.31073332357985 220:-5.448473979483332 221:27.302064852941328 222:54.64286191176467 223:61.083918531331925 224:5.451196189471332 225:16.035944852941327 226:59.7103019117647 227:61.8261407636015 228:16.9672218021813 229:4.3581148529412985 230:63.39304191176467 231:63.542670135100394 232:28.06724476043499 233:-9.6920251470587 234:60.398881911764704 235:61.17156437138514 236:-138.88363780569497 237:-23.270065147058688 238:55.91735191176468 239:60.56604805311709 240:-125.40531172168106 241:-13.61334514705868 242:53.111361911764675 243:54.82827673942884 244:-133.62361889817072 245:-4.9449551470586925 246:52.377301911764675 247:52.61021133736843 248:-142.60667625255883 249:3.188914852941309 250:55.17444191176469 251:55.266519867040714 252:28.692158282175086 253:11.669264852941296 254:51.98263191176471 255:53.276315213067335 256:19.347764149675612 257:20.59202485294128 258:51.94165191176472 259:55.874562108951544 260:10.374381402456194 261:11.62346485294131 262:52.502511911764714 263:53.77377327501352 264:19.516708144087417 265:3.188754852941315 266:55.466011911764724 267:55.55759745442727 268:28.70967314670159 269:-5.107535147058684 270:53.15024191176468 271:53.39508526594509 272:-142.51094929162946 
1.0 1.0 1.0 1.0 1:-137.96724676470575 2:-53.74583455882359 3:148.0661200688991 4:-36.716348928022256 5:-135.69533676470576 6:-21.02240455882361 7:137.31411403465324 8:-49.19354403584492 9:-130.08834676470576 10:11.3072254411764 11:130.57883178812682 12:-62.96764042744111 13:-120.56031676470576 14:42.60572544117639 15:127.86726640847179 16:-77.46328540675809 17:-105.80398676470577 18:71.66030544117638 19:127.78764803856718 20:-92.10951244124831 21:-85.23069676470578 22:96.89286544117641 23:129.04456224265766 24:-106.66389714129201 25:-58.29792676470578 26:114.84104544117639 27:128.79097011469918 28:-121.08582094333997 29:-26.310746764705755 30:122.2722854411764 31:125.07104853772111 32:-135.85617466884776 33:6.032293235294219 34:123.6007654411764 35:123.7478798982887 36:29.205916004129378 37:37.17081323529425 38:119.55347544117637 39:125.19865353364264 40:14.728814936240497 41:64.93661323529426 42:104.81014544117642 43:123.29610831599977 44:0.21912729730131986 45:87.16706323529422 46:82.50505544117641 47:120.02158591860622 48:-14.573895481698614 49:104.66950323529426 50:56.088735441176425 51:118.75037326641781 52:-29.814695487203508 53:114.69988323529424 54:26.273395441176376 55:117.67053378904406 56:-45.09828406712364 57:121.06398323529424 58:-4.558184558823598 59:121.14976303430356 60:-60.156227031767806 61:125.00925323529418 62:-35.63190455882358 63:129.98825338058444 64:-73.90936086356375 65:123.85405323529426 66:-67.0898145588236 67:140.85762215921596 68:-86.44371634015768 69:-114.57772676470574 70:-82.9064245588236 71:141.42676798857943 72:-22.111163480520993 73:-90.02876676470578 74:-89.2416545588236 75:126.7645524331238 76:-13.251563628141092 77:-64.94594676470575 78:-92.6353745588236 79:113.13394106464044 80:-3.034001019442144 81:-39.64949676470576 82:-91.0248045588236 83:99.28543517891457 84:8.462539111867684 85:-14.569996764705763 86:-89.41624455882359 87:90.59552746536048 88:22.745233141260513 89:13.777883235294212 90:-88.9811945588236 91:90.04156291158334 92:-139.19819742471591 93:36.14336323529426 94:-93.1651245588236 95:99.93039147336279 96:-126.79626189360636 97:57.84665323529424 98:-99.52840455882361 99:115.11793346194693 100:-117.83452540061754 101:80.56926323529422 102:-100.9342745588236 103:129.14772146264957 104:-109.40191026559951 105:102.88592323529423 106:-97.1199845588236 107:141.48429100322406 108:-101.34868640488169 109:1.0227532352942603 110:-67.37576455882359 111:67.38352672624322 112:-147.1303261061734 113:1.3901732352942417 114:-50.072714558823606 115:50.09200859332309 116:-146.4097006800603 117:3.0165332352942187 118:-32.92205455882362 119:33.0599629330372 120:-142.76480510400557 121:3.7525732352942214 122:-15.740994558823616 123:16.182110974380358 124:-134.5912536669863 125:-20.90914676470578 126:13.984105441176382 127:25.154475216508594 128:-91.77473459405303 129:-8.766906764705766 130:15.310975441176424 131:17.643259993021452 132:-118.20499228401147 133:3.3068932352942397 134:15.80242544117641 135:16.144726466979062 136:20.18056511973687 137:13.734713235294237 138:14.945505441176408 139:20.298041298312512 140:-10.582580732328367 141:23.827243235294247 142:13.0503354411764 143:27.1670531217705 144:-29.29019394270526 145:-94.50959676470575 146:-60.97256455882359 147:112.4709629615893 148:-25.17204416704522 149:-74.27045676470578 150:-68.21518455882361 151:100.84350327330164 152:-15.433458569238702 153:-53.181266764705754 154:-69.74699455882359 155:87.70912372545608 156:-5.325096295206151 157:-32.87300676470579 158:-63.62017455882361 159:71.611180584093 160:4.674272463848268 161:-53.36007676470575 162:-59.912224558823596 163:80.2294985894976 164:-9.689459403695878 165:-73.97126676470577 166:-59.406434558823605 167:94.87292961518084 168:-19.23200050505863 169:27.438763235294232 170:-66.2193445588236 171:71.67905776224137 172:-125.4927534547626 173:44.79943323529426 174:-74.2500745588236 175:86.7182955909216 176:-116.89495090333213 177:63.704053235294225 178:-75.2640645588236 179:98.60469467789031 180:-107.75518021630057 181:81.65893323529423 182:-69.1801645588236 183:107.02371954623963 184:-98.27074661588851 185:63.55185323529423 186:-66.7855445588236 187:92.19081847808377 188:-104.421225733422 189:45.444263235294216 190:-65.4707045588236 191:79.69688962831283 192:-113.23486664428266 193:-40.12546676470578 194:52.266115441176396 195:65.89233571816897 196:-110.4860196262723 197:-25.776236764705743 198:46.10840544117639 199:52.82423150485081 200:-118.7932587089378 201:-10.792136764705788 202:42.27252544117641 203:43.628392396729694 204:-133.67835963647457 205:4.540493235294207 206:42.817475441176384 207:43.057546167605686 208:25.946806053672148 209:19.114793235294258 210:42.87480544117642 211:46.94277646291048 212:7.971343921659809 213:33.51083323529423 214:45.28642544117639 215:56.33681099745466 216:-4.500524191743395 217:46.47880323529421 218:51.4661554411764 219:69.3472732418552 220:-10.085019505527065 221:33.52769323529424 222:57.05422544117641 223:66.17621063775545 224:1.5595415150389726 225:19.456833235294255 226:59.09307544117638 227:62.213824224545256 228:13.775487199566385 229:5.4771532352942245 230:59.12423544117638 231:59.377389838780815 232:26.707337046045183 233:-10.179386764705782 234:58.58331544117641 235:59.46111975893025 236:-138.14275217896738 237:-25.60502676470577 238:57.6132854411764 239:63.0468718886811 240:-124.0382400611571 241:-21.513826764705755 242:50.96306544117641 243:55.31797882445995 244:-125.11318110256579 245:-7.96847676470577 246:50.4502354411764 247:51.075658370889236 248:-139.02443691016677 249:5.47681323529423 250:51.31656544117641 251:51.607997169942905 252:25.90810893642032 253:16.470793235294252 254:50.421195441176394 255:53.04322746135572 256:13.909644737265864 257:27.212763235294233 258:51.800045441176394 259:58.51306854548068 260:4.285147534686729 261:16.34751323529423 262:52.20756544117643 263:54.707139189257916 264:14.613337943584412 265:5.496463235294243 266:52.681525441176404 267:52.967482769207166 268:26.04366440792451 269:-8.056856764705742 270:52.25201544117641 271:52.86951918253015 272:-139.23446638704894 
1.0 1.0 1.0 1.0 1:-126.14529455882351 2:-59.2063966176471 3:139.34860149918435 4:-30.85694884942843 5:-121.3761745588235 6:-28.561806617647107 7:124.69142932775236 8:-42.75826940696498 9:-113.3374045588235 10:1.1070633823529192 11:113.3428112473966 12:-56.559639092815075 13:-105.12509455882349 14:30.814733382352927 15:109.54831490911705 16:-72.33714992127676 17:-94.83924455882351 18:60.00050338235292 19:112.2254102893996 20:-88.31968769195284 21:-77.7523445588235 22:85.38588338235292 23:115.48236300569356 24:-103.67902120812337 25:-52.8823645588235 26:103.38264338235291 27:116.12284630534627 28:-118.90931483625788 29:-25.04984455882351 30:116.7728433823529 31:119.42944219923636 32:-133.892533966178 33:4.957545441176478 34:122.68102338235292 35:122.7811498355621 36:31.685934134245215 37:35.38730544117652 38:116.79523338235293 39:122.03846904654864 40:17.143932952003908 41:62.387365441176485 42:101.83945338235293 43:119.42971837824679 44:2.508153118175329 45:86.07648544117649 46:82.0402033823529 47:118.91070732664446 48:-12.37533940842409 49:104.09522544117652 50:57.338513382352915 51:118.84242119945061 52:-27.152817761940085 53:111.09815544117652 54:27.190293382352934 55:114.37706149683268 56:-42.24768985526036 57:116.66869544117651 58:-3.3293066176470916 59:116.71618901634987 60:-57.63457269672534 61:121.43226544117653 62:-33.86985661764709 63:126.06729265545574 64:-71.58483608393232 65:125.76741544117652 66:-64.18582661764708 67:141.19937367192583 68:-83.03764759099963 69:-103.18014455882349 70:-85.0635666176471 71:133.7234182815209 72:-16.497216506684794 73:-82.38584455882352 74:-93.32437661764709 75:124.48641152649178 76:-7.437748650949942 77:-59.944644558823484 78:-94.9962166176471 79:112.32827597248439 80:1.7471978953361003 81:-37.51978455882352 82:-93.4938066176471 83:100.74138230736426 84:12.134028509045933 85:-15.356444558823512 86:-91.36682661764709 87:92.64835344282923 88:24.459206302463002 89:12.836485441176478 90:-94.25807661764708 91:95.12812605186629 92:-138.24491275473918 93:33.705185441176525 94:-100.07723661764709 95:105.60062885536534 96:-127.38690031668344 97:55.38714544117647 98:-101.1617066176471 99:115.33181159557384 100:-117.29881089001645 101:77.25592544117649 102:-100.19692661764708 103:126.52233842051282 104:-108.36630814768512 105:98.0595254411765 106:-94.89699661764709 107:136.4591898583546 108:-100.06101473113031 109:-2.108644558823528 110:-64.0468166176471 111:64.08151918244427 112:32.114304266359426 113:-1.6758145588235038 114:-44.99142661764711 115:45.022625684501 116:31.86686615983686 117:-0.7343345588234911 118:-26.212226617647104 119:26.222510777939817 120:32.395280584102935 121:-0.42779455882350703 122:-7.499686617647114 123:7.511877764412452 124:30.735291524829293 125:-24.49692455882348 126:11.662433382352901 127:27.13137787209688 128:-81.4580659455674 129:-11.6107045588235 130:15.461273382352886 131:19.335445041584602 132:-109.09513712157127 133:1.5848754411765071 134:17.444953382352935 135:17.51679847108231 136:28.808924372092292 137:14.801385441176478 138:15.320883382352918 139:21.302827948277873 140:-10.011957261929965 141:27.273895441176478 142:10.578073382352898 143:29.25339311975057 144:-34.80141240338013 145:-87.54636455882348 146:-59.66639661764708 147:105.94548047368887 148:-21.72398382797312 149:-69.6708645588235 150:-71.59942661764708 151:99.9024887595387 152:-10.217870919787494 153:-48.13694455882347 154:-72.0272066176471 155:86.63188745837454 156:0.24455383473932102 157:-29.716434558823494 158:-61.3622866176471 159:68.17915151888523 160:8.160092134334704 161:-49.02310455882349 162:-58.71817661764709 163:76.49241168826185 164:-5.858102284897335 165:-68.43659455882351 166:-57.8092666176471 167:89.58503659472936 168:-15.81179225067335 169:28.58123544117649 170:-62.2030766176471 171:68.4551660581204 172:-121.32203899446012 173:45.80059544117648 174:-75.65339661764708 175:88.4371582681925 176:-114.80927125540538 177:67.77238544117648 178:-75.9351766176471 179:101.78038748374192 180:-104.25098734939964 181:87.10791544117649 182:-65.82042661764709 183:109.17929058496496 184:-93.07540015975086 185:67.65745544117652 186:-62.756396617647084 187:92.2816156837656 188:-98.84779074016757 189:48.072665441176525 190:-62.827076617647094 191:79.10892945135198 192:-108.57828665733157 193:-48.77417455882352 194:56.75969338235291 195:74.83704227689188 196:-105.32720126266568 197:-34.106184558823486 198:49.16305338235293 199:59.83508705631348 200:-111.24955871698701 201:-18.013924558823476 202:45.86754338235289 203:49.27811901790701 204:-124.5581805124514 205:-1.5991945588235126 206:45.3347133823529 207:45.36291062858575 208:-143.97971322388304 209:15.288605441176514 210:46.78591338235293 211:49.220556146360266 212:15.903748908446715 213:31.954345441176486 214:49.98096338235291 215:59.32265076007763 216:1.407985474458009 217:48.169125441176504 218:54.24185338235293 219:72.54269986787416 220:-7.606470013863067 221:32.44993544117648 222:60.469423382352886 223:68.6261573624137 224:5.780490246944858 225:16.098635441176498 226:64.15875338235293 227:66.1476507416967 228:19.91422221222625 229:-0.5753845588234867 230:63.032343382352906 231:63.03496949837749 232:-145.4769956279095 233:-16.8771845588235 234:63.673783382352894 235:65.87252878746489 236:-131.1547192720599 237:-32.716444558823525 238:59.17602338235292 239:67.61780451862774 240:-117.06326150915744 241:-32.802694558823475 242:53.237593382352884 243:62.5320567346398 244:-114.36042673972759 245:-17.02378455882348 246:52.834783382352896 247:55.50967101114355 248:-128.1406493895585 249:-1.4019345588234842 250:54.76272338235293 251:54.78066531869915 252:-144.53353909666845 253:12.582745441176485 254:53.69311338235292 255:55.14776430216962 256:20.810985503983503 257:26.413605441176514 258:53.60766338235294 259:59.761694468261304 260:7.769577897573484 261:12.868135441176491 262:54.50126338235293 263:55.99979124965616 264:20.71535100267802 265:-0.509024558823512 266:55.94466338235293 267:55.94697906917107 268:-145.4786964056433 269:-16.713184558823514 270:54.07552338235291 271:56.599406067313936 272:-128.82512942739947 
1.0 1.0 1.0 1.0 1:-104.95625632352952 2:-51.394861911764764 3:116.86422708587858 4:-24.909984494361325 5:-102.06622632352949 6:-24.23767191176475 7:104.90461999182064 8:-37.64140592633748 9:-97.5344563235295 10:2.4764780882352397 11:97.5658911405415 12:-52.45447329541394 13:-90.18077632352953 14:28.752488088235253 15:94.65346263913737 16:-68.68392897301146 17:-78.66548632352948 18:53.32619808823526 19:95.03653056095382 20:-85.13277884170859 21:-62.29028632352953 22:74.82823808823522 23:97.36192780372062 24:-101.22452814274469 25:-41.88216632352953 26:92.72988808823524 27:101.74943734885429 28:-116.69331975395946 29:-19.295346323529486 30:107.64681808823522 31:109.36246080930398 32:-130.83783329065716 33:6.947983676470471 34:112.61266808823527 35:112.826803070545 36:35.4694366271554 37:31.049503676470522 38:105.37149808823526 39:109.8509184664112 40:22.581494165586932 41:51.263963676470496 42:90.54302808823522 43:104.04822875575269 44:9.482179057766977 45:68.1594936764705 46:71.64381808823524 47:98.88656758373689 48:-4.572310192644764 49:81.33155367647049 50:50.32016808823525 51:95.63964104834798 52:-19.254750152360995 53:87.82523367647048 54:25.97283808823525 55:91.58526076113081 56:-34.52530196446993 57:92.39419367647048 58:1.1488180882352594 59:92.40133553215016 60:-50.28762800451084 61:94.90126367647048 62:-23.954321911764765 63:97.87777779273203 64:-65.16629673976443 65:96.35243367647047 66:-48.919871911764744 67:108.05991552487032 68:-77.91772830054794 69:-79.62874632352953 70:-76.02076191176477 71:110.09038778522965 72:-7.32788897448237 73:-66.71932632352951 74:-81.27711191176476 75:105.15435048433874 76:-0.38212843146109776 77:-52.6896363235295 78:-80.22537191176477 79:95.98076929409753 80:5.704282437130814 81:-39.098616323529484 82:-76.58485191176476 83:85.98803021794082 84:11.954472135607872 85:-25.685036323529516 86:-72.45243191176476 87:76.87051437885621 88:19.480127211494334 89:11.549253676470471 90:-77.14716191176475 91:78.00685772112291 92:-132.48581060809448 93:26.599743676470496 94:-82.36785191176475 95:86.5563942884195 96:-123.10273857689991 97:41.762103676470474 98:-86.72139191176475 99:96.25317199239808 100:-115.28609913014716 101:57.392183676470495 102:-89.52920191176474 103:106.34538420689103 104:-108.33832996761892 105:72.72559367647051 106:-86.68813191176474 107:113.15407279433919 108:-101.00558009482195 109:-1.0249663235294975 110:-67.15784191176476 111:67.165662999854 112:38.12561684916811 113:-1.351516323529495 114:-46.54097191176476 115:46.56059130707473 116:37.3366392595815 117:-0.5484963235294913 118:-26.11423191176476 119:26.119991511452646 120:37.79675173274933 121:0.15196367647047282 122:-5.675201911764759 123:5.677236096752081 124:-139.46616959219418 125:-18.176396323529502 126:7.3265880882352405 127:19.597455863572886 128:-72.95350333712253 129:-9.069096323529493 130:8.913198088235248 131:12.715880161655216 132:-95.50328434545094 133:0.08589367647050494 134:9.29059808823527 135:9.290995132964955 136:38.470302676634645 137:9.366503676470472 138:7.9215380882352235 139:12.267116890479858 140:-10.777779110594423 141:18.06647367647048 142:4.768908088235236 143:18.68528713872592 144:-36.21322269906693 145:-62.7549063235295 146:-51.15239191176477 147:80.9613825596484 148:-11.816047276430297 149:-51.584116323529486 150:-59.18606191176477 151:78.51057878720977 152:-2.0740559438916293 153:-37.749446323529526 154:-59.046821911764766 155:70.0824362847975 156:6.40865869752448 157:-28.024076323529528 158:-49.697961911764764 159:57.05467791487592 160:9.58187745227766 161:-39.81242632352951 162:-46.50403191176474 163:61.21808779941512 164:-1.567062801968092 165:-51.83543632352951 166:-46.287591911764764 167:69.4942704389416 168:-9.236039599868427 169:22.116783676470504 170:-53.807711911764756 171:58.17578518053077 172:-118.65568514537833 173:31.608213676470484 174:-64.54269191176476 175:71.86680910569497 176:-114.90782165402105 177:46.13990367647051 178:-65.07762191176477 179:79.77460488754916 180:-105.66343552478007 181:58.590453676470474 182:-57.69986191176474 183:82.23208210091335 184:-95.56121753064443 185:47.84587367647049 186:-50.576241911764754 187:69.62171984217369 188:-97.58905814018365 189:34.77183367647052 190:-50.57943191176474 191:61.37881841271445 192:-106.49265066734334 193:-33.22454632352952 194:46.968048088235236 195:57.53145243797637 196:-105.72494093423764 197:-22.14448632352952 198:40.30396808823522 199:45.986825485028525 200:-112.21398344774823 201:-9.907746323529523 202:36.43472808823523 203:37.757818370174014 204:-125.78733351131464 205:2.75021367647048 206:37.378738088235224 207:37.4797776985821 208:34.7919337114721 209:15.81534367647049 210:35.67692808823526 211:39.025226372411794 212:15.09261031508872 213:28.78194367647052 214:37.87739808823525 215:47.57202505391345 216:1.7698443591004178 217:40.97069367647049 218:42.66819808823524 219:59.15380688026816 220:-4.837305402355973 221:29.964713676470524 222:49.87385808823527 223:58.18320880046313 224:8.002130127122498 225:17.66556367647047 226:54.29883808823527 227:57.10022730024656 228:20.97824002758479 229:4.780653676470479 230:56.54450808823523 231:56.74624255855933 232:34.16732181221839 233:-8.526806323529513 234:55.388568088235246 235:56.041055494557334 236:-132.24829195174283 237:-21.667146323529494 238:53.29470808823524 239:57.530784281247584 240:-118.87563081377051 241:-17.82526632352949 242:46.78495808823524 243:50.06568108817339 244:-120.14294841302781 245:-6.92453632352948 246:43.33449808823522 247:43.884256036249965 248:-131.9213045630016 249:4.132003676470504 250:45.26024808823527 251:45.448470946677304 252:33.78368063980223 253:14.258613676470475 254:42.33044808823527 255:44.667380708136584 256:20.38438527423949 257:24.54552367647051 258:43.87152808823524 259:50.27120159046318 260:9.773580088521577 261:13.860583676470469 262:43.287178088235265 263:45.45212389641473 264:21.24489912476055 265:3.616663676470523 266:45.725128088235266 267:45.86793645711809 268:34.47756219320503 269:-7.297136323529514 270:44.271418088235265 271:44.86877152393966 272:-131.64025040439418 
1.0 1.0 1.0 1.0 1:-102.4653794117649 2:-38.83130764705888 3:109.5765688072841 4:-33.24479344598018 5:-98.60198941176489 6:-15.833187647058878 7:99.865119771744 8:-44.87750512058288 9:-90.9823794117649 10:6.002812352941135 11:91.18019039007851 12:-57.77477547392532 13:-82.34383941176489 14:27.48838235294113 15:86.81082336582236 16:-72.46026726334046 17:-72.22598941176489 18:48.273312352941105 19:86.87293152664407 20:-87.75737528117033 21:-57.48996941176489 22:66.20681235294114 23:87.68374185048916 24:-103.03093784214676 25:-40.90416941176488 26:82.2300623529411 27:91.84189800867 28:-117.55260775918097 29:-21.430509411764888 30:94.99705235294113 31:97.38432465954251 32:-131.28737357752226 33:0.9427605882351031 34:98.87925235294114 35:98.88374660885046 36:35.45373205397166 37:23.493920588235085 38:94.60102235294113 39:97.47470305072984 40:22.052906796455588 41:43.0394605882351 42:82.15239235294109 43:92.74379082740697 44:8.350054270335207 45:61.10584058823508 46:67.71793235294115 47:91.21207220621791 48:-6.061778360856721 49:73.01665058823511 50:47.734272352941105 51:87.23526821297206 52:-20.825547351355667 53:82.06869058823509 54:26.474272352941114 55:86.23315529125192 56:-36.1209864769883 57:88.26811058823512 58:4.030242352941116 59:88.36007130056169 60:-51.38574204681942 61:91.68107058823512 62:-18.947047647058866 63:93.61842403472123 64:-65.676513909714 65:92.98362058823511 66:-41.92720764705888 67:101.99923744213216 68:-78.27107071794362 69:-84.09338941176489 70:-64.13256764705889 71:105.7576681653076 72:-16.669586245091544 73:-69.0706094117649 74:-64.4908276470589 75:94.49770333248973 76:-10.963885697508125 77:-54.23792941176487 78:-66.68082764705889 79:85.95397467582498 80:-3.1247739836414326 81:-39.48166941176487 82:-64.64297764705887 83:75.74639779301748 84:4.584874390436681 85:-25.191449411764893 86:-60.269607647058876 87:65.32254380683538 88:13.31608126820558 89:22.5115205882351 90:-65.98739764705888 91:69.72162654030387 92:-125.16298728626046 93:35.85733058823513 94:-70.15335764705887 95:78.78605045355513 96:-116.92716211644509 97:48.99489058823508 98:-74.63733764705887 99:89.28175331384459 100:-110.71752673523359 101:62.75233058823511 102:-76.05415764705887 103:98.60065866746952 104:-104.47393948081432 105:76.45205058823512 106:-74.52965764705888 107:106.76884333987077 108:-98.27051394676658 109:-0.4061194117649052 110:-45.68356764705888 111:45.68537277882295 112:35.49066334953244 113:0.5542905882351192 114:-32.46249764705888 115:32.467229502091946 116:-143.02178120025633 117:0.9259305882351327 118:-19.376937647058867 119:19.39904791561268 120:-141.26419153431672 121:1.6774305882350973 122:-6.341727647058889 123:6.559823391511224 124:-129.18417598139274 125:-17.701899411764884 126:7.4205423529411405 127:19.19431404338366 128:-76.74317268965343 129:-8.456879411764874 130:11.108642352941104 131:13.961401946462592 132:-106.71840629148477 133:1.4222105882350888 134:10.866062352941128 135:10.958740530521402 136:28.543198269125355 137:11.658320588235085 138:10.431802352941133 139:15.644134340668845 140:-12.177992123175834 141:21.30286058823509 142:7.526332352941097 143:22.593307591601274 144:-34.54160965450641 145:-60.89359941176491 146:-45.281007647058885 147:75.88412286409788 148:-17.365188331985912 149:-50.0943194117649 150:-48.447877647058874 151:69.6895808986703 152:-9.957208085552026 153:-38.96953941176491 154:-48.77141764705888 155:62.42816817165906 156:-2.625698484184312 157:-28.27518941176487 158:-45.83812764705888 159:53.85740694147133 160:4.331693289196728 161:-39.14031941176489 162:-42.99099764705889 163:58.139405589878564 164:-6.315686944399246 165:-50.21952941176488 166:-42.37407764705887 167:65.70816989369048 168:-13.843100874554047 169:28.6276505882351 170:-48.89721764705888 171:56.66110016427429 172:-113.65248454271301 173:38.36467058823513 174:-55.48577764705888 175:67.45753827736861 176:-109.33875781294508 177:49.9545805882351 178:-56.21119764705887 179:75.20079030610776 180:-102.37268390366333 181:60.379160588235095 182:-51.09655764705889 183:79.09804824848142 184:-94.23995188574699 185:50.4199105882351 186:-46.01998764705888 187:68.2642413475831 188:-96.38777908273477 189:39.27360058823513 190:-45.557777647058884 191:60.149204544225526 192:-103.23664418496975 193:-36.433519411764905 194:34.63013235294113 195:50.26576771033812 196:-97.5463131614284 197:-24.162679411764884 198:30.25273235294111 199:38.717733549039465 200:-105.38584366724083 201:-11.67869941176491 202:26.926402352941125 203:29.35001130532715 204:-120.55233517508752 205:0.9287405882350868 206:28.733342352941122 207:28.74834815866044 208:34.148687495289465 209:14.262850588235096 210:26.688852352941126 211:30.260927725689594 212:7.8794053249703495 213:27.1838905882351 214:30.409052352941103 215:40.78816461324351 216:-5.794826753056576 217:39.503900588235126 218:35.96859235294113 219:53.425628658324825 220:-11.681908024817375 221:26.669490588235135 222:38.14899235294109 223:46.546829599670055 224:1.0430767463293762 225:14.139200588235099 226:41.442252352941125 227:43.787866736793674 228:17.161468364682847 229:1.2566305882351116 230:41.401752352941116 231:41.420818658369775 232:34.261485871157376 233:-11.425719411764874 234:39.442792352941126 235:41.06435111716258 236:-127.84484679359258 237:-23.81393941176492 238:35.60812235294111 239:42.83739123486904 240:-110.22625352236629 241:-28.135279411764884 242:33.40687235294109 243:43.67623001111453 244:-103.895905170638 245:-13.287639411764872 246:33.94063235294112 247:36.448976469231624 248:-122.61982982943356 249:1.5421305882351248 250:34.44518235294112 251:34.479686107598724 252:33.436546876480804 253:15.54808058823511 254:34.28756235294111 255:37.6481040968211 256:11.607549951034002 257:29.400730588235092 258:34.706512352941104 259:45.48565662741208 260:-4.268746464430421 261:15.348090588235095 262:34.5902723529411 263:37.84244741233463 264:12.072603520616653 265:1.5401505882351216 266:34.6523223529411 267:34.686532087924014 268:33.45511744660837 269:-13.4386094117649 270:34.130642352941095 271:36.681016484638924 272:-122.5084410609677 
1.0 1.0 1.0 1.0 1:-104.25565382352937 2:-58.8972380882353 3:119.74191416790475 4:-25.536553862986704 5:-104.25613382352938 6:-32.1689980882353 7:109.10630539904902 8:-37.85200446635244 9:-99.57491382352939 10:-5.62010808823527 11:99.73338998493308 12:-51.76959602660204 13:-95.51700382352936 14:20.966761911764706 15:97.79111986519405 16:-67.38053644931773 17:-84.90387382352935 18:45.2187919117647 19:96.19463047489329 20:-83.03923320872384 21:-65.86726382352936 22:64.05320191176469 23:91.87659723100172 24:-99.2000387554342 25:-45.04313382352939 26:81.1071419117647 27:92.77527889335346 28:-115.9542438906114 29:-21.31695382352939 30:93.2139519117647 31:95.62036054796732 32:-132.1186268782515 33:5.0837761764706215 34:95.8505219117647 35:95.98524538162172 36:31.96395761078159 37:29.51766617647064 38:89.97267191176468 39:94.69094099990562 40:16.836697772782884 41:50.54124617647062 42:76.33822191176472 43:91.5529447353849 44:1.4926525140851368 45:67.61865617647061 46:58.077371911764715 47:89.13620920416788 48:-14.340860791896795 49:84.3437161764706 50:39.59168191176468 51:93.17383610788697 52:-29.8542266749873 53:91.27812617647061 54:15.511351911764677 55:92.58670723391288 56:-45.35557218177023 57:93.02757617647063 58:-9.452958088235278 59:93.50662193602643 60:-60.802171116711804 61:96.37283617647063 62:-34.38745808823529 63:102.32409699805312 64:-74.63725980499326 65:97.5236961764706 66:-59.27006808823529 67:114.12191852183608 68:-86.28916008163911 69:-84.00043382352936 70:-65.1700880882353 71:106.31657097541043 72:-17.19460363294656 73:-67.10489382352938 74:-69.42504808823529 75:96.55518669196871 76:-9.0264241609082 77:-49.996083823529375 78:-70.5845580882353 79:86.49733081546991 80:-0.31050453509424614 81:-32.81711382352938 82:-68.4891080882353 83:75.94551261548283 84:9.398209643862174 85:-18.69231382352939 86:-59.1491180882353 87:62.03241706312363 88:17.46241356700709 89:17.121936176470626 90:-60.05185808823529 91:62.44506672492779 92:-129.08613305285292 93:30.752196176470648 94:-68.31276808823529 95:74.91549808653183 96:-120.764268590846 97:46.51786617647065 98:-70.4844480882353 99:84.45098753664854 100:-111.57624743958525 101:62.58307617647063 102:-69.6544780882353 103:93.63966969962236 104:-103.0609757705114 105:78.2212361764706 106:-66.3712780882353 107:102.58512730430789 108:-95.31484304292337 109:-0.030923823529406036 110:-46.20762808823531 111:46.20763843590727 112:34.96165558840758 113:0.7952061764706286 114:-28.600358088235282 115:28.61141093407283 116:-143.4073548220146 117:0.7889961764706186 118:-11.214808088235316 119:11.242527981839027 120:-140.97569678531568 121:1.169786176470609 122:6.158291911764707 123:6.268409604450585 124:24.244630635526477 125:-20.30773382352936 126:14.512801911764711 127:24.96047820810811 128:-90.55127185169066 129:-10.202523823529361 130:17.397461911764708 131:20.168370616908742 132:-114.61104213011778 133:0.26882617647061124 134:17.898671911764723 135:17.900690593330506 136:34.139520105658335 137:11.931506176470634 138:17.251651911764725 139:20.975708172165543 140:0.3316733918966719 141:22.84206617647061 142:13.385451911764676 143:26.475088481295533 144:-24.629695206672643 145:-62.932773823529374 146:-45.606188088235285 147:77.72038608410922 148:-19.069868620264238 149:-50.51105382352938 150:-51.93191808823531 151:72.44508730539748 152:-9.205369539562376 153:-36.846573823529354 154:-52.31623808823531 155:63.98952078456067 156:-0.15721768668409908 157:-25.614203823529408 158:-44.703818088235295 159:51.52202237082063 160:5.188337068577944 161:-38.14936382352937 162:-44.1145680882353 163:58.322114825780794 164:-5.852570383578566 165:-50.62133382352937 166:-44.76514808823529 167:67.57542394565375 168:-13.513224288607347 169:22.23265617647064 170:-45.71907808823531 171:50.83822481066108 172:-119.06688388852629 173:33.88299617647061 174:-52.955998088235305 175:62.86807745919946 176:-112.3875446577043 177:47.79264617647061 178:-52.75911808823531 179:71.18750992974589 180:-102.82766611249633 181:60.76479617647061 182:-48.01236808823529 183:77.44383735203346 184:-93.3134838370749 185:48.11042617647064 186:-45.57270808823529 187:66.26827920941615 188:-98.44833342738167 189:35.14517617647061 190:-45.9828480882353 191:57.875778411878684 192:-107.60893868924364 193:-33.43860382352938 194:37.46354191176471 195:50.216104968839474 196:-103.24905150922339 197:-21.8158238235294 198:35.6561119117647 199:41.80057996922484 200:-113.54005123545831 201:-10.134893823529353 202:36.68019191176472 203:38.054599610271865 204:-129.55429658097518 205:1.4726761764705998 206:37.16123191176473 207:37.19040107770694 208:32.73059193260569 209:13.36585617647063 210:35.07882191176469 211:37.53891125282406 212:14.141982672494436 213:25.371066176470606 214:33.58669191176472 215:42.092242426683 216:-2.067050617859273 217:37.28869617647064 218:34.155631911764715 219:50.567321995861086 220:-12.510995954723782 221:25.543526176470607 222:38.17012191176468 223:45.92853074383087 224:1.2094783942371805 225:13.706356176470592 226:42.01673191176468 227:44.19581383096568 228:16.933059798184942 229:1.4778661764706271 230:42.58300191176471 231:42.608639267793016 232:33.01231667922855 233:-10.395963823529371 234:42.26608191176473 235:43.525828469911254 236:-131.1815680448258 237:-22.281693823529395 238:41.02414191176473 239:46.68462379887107 240:-116.49201628283643 241:-24.77454382352937 242:38.5166119117647 243:45.7963690135525 244:-112.25018251512434 245:-16.110493823529396 246:38.3766619117647 247:41.621102709177116 248:-122.22737244737137 249:1.1731461764705955 250:39.570481911764716 251:39.58786822601927 252:33.301849291421064 253:19.409836176470606 254:36.97115191176471 255:41.75653019684718 256:7.300549761194198 257:28.34926617647062 258:36.971111911764694 259:46.58909753082378 260:-2.4808126087596634 261:19.109636176470644 262:36.97108191176471 263:41.61777375741633 264:7.666433271450231 265:1.1733061764706463 266:39.57041191176472 267:39.58780299853069 268:33.30161482143191 269:-16.155653823529406 270:38.65655191176472 271:41.896708178240935 272:-122.31858627770737 
1.0 1.0 1.0 1.0 1:-94.64988661764704 2:-47.739996617646995 3:106.00805777763493 4:-31.234301432236485 5:-96.32030661764705 6:-23.387396617647 7:99.11897793797446 8:-44.35220851817371 9:-91.77265661764704 10:0.32173338235298843 11:91.7732205767558 12:-58.200864724821585 13:-85.72251661764705 14:24.004353382352974 15:89.01999121864512 16:-73.64351624090932 17:-76.90765661764704 18:46.458483382352995 19:89.85086713330193 20:-89.13539246744946 21:-63.33426661764702 22:66.70522338235298 23:91.98269486422328 24:-104.48492085437287 25:-44.71495661764703 26:82.25588338235298 27:93.62402307276326 28:-119.47114298584022 29:-23.018566617647025 30:92.84475338235302 31:95.65564614679579 32:-134.0756882331698 33:0.9210533823529659 34:96.00487338235303 35:96.00929149043222 36:31.45033152316239 37:25.569593382352934 38:93.095053382353 39:96.5427007598297 40:16.64180057766339 41:47.65767338235298 42:81.640823382353 43:94.53294597529262 44:1.7258362264059528 45:66.36435338235293 46:65.48763338235301 47:93.23549498919012 48:-13.38096972796356 49:80.15814338235293 50:44.74996338235297 51:91.80352484097646 52:-28.826645581101225 53:89.07490338235294 54:21.449763382353012 55:91.62112617586865 56:-44.46061417766806 57:94.84461338235297 58:-2.711286617647005 59:94.88335872412527 60:-59.637446552432216 61:97.54036338235295 62:-27.435286617646995 63:101.3253050355828 64:-73.70975886024303 65:97.67695338235296 66:-52.30200661764701 67:110.79840756207079 68:-86.1672250749585 69:-78.19415661764705 70:-61.106316617646996 71:99.23864196834435 72:-19.993473143735706 73:-65.61217661764704 74:-67.209396617647 75:93.92582559772093 76:-12.311033954114215 77:-51.59815661764702 78:-69.064226617647 79:86.21042375857418 80:-4.763553873213098 81:-37.58558661764704 82:-68.77621661764701 83:78.37629931063441 84:3.343790559725335 85:-24.728816617647055 86:-63.67790661764701 87:68.31098127325497 88:10.776709021494042 89:19.745693382352954 90:-64.18946661764699 91:67.15787393752063 92:-130.90127617126024 93:32.67171338235295 94:-71.059156617647 95:78.21025888302573 96:-123.30788487310534 97:47.106963382352944 98:-74.201956617647 99:87.89195847740287 100:-115.59065968980099 101:61.69505338235297 102:-73.467606617647 103:95.93627485980844 104:-107.9778514813807 105:75.01205338235297 106:-67.78849661764698 107:101.10434425047082 108:-100.10416493294771 109:-2.1868466176470633 110:-49.33218661764701 111:49.380633193666775 112:29.461796957810847 113:-2.020166617647021 114:-34.080256617646995 115:34.14007856299876 116:28.607662334200313 117:-2.198586617647038 118:-18.812976617646996 119:18.941010330270906 120:25.33433978996736 121:-1.8491766176470605 122:-3.7815466176469954 123:4.2094594646688375 124:5.941362859269503 125:-26.01407661764705 126:5.988673382352999 127:26.69450114067154 128:-70.96413469913801 129:-13.65704661764704 130:7.381833382353022 131:15.524380387036576 132:-86.3918701486716 133:-1.335126617647063 134:8.043823382353025 135:8.153873784382423 136:-138.57587300711654 137:11.822893382352959 138:7.139703382352991 139:13.811450768057211 140:-26.872726071540395 141:24.629563382352956 142:5.216743382353002 143:25.17597672231736 144:-46.041030937933485 145:-63.02988661764704 146:-44.14068661764699 147:76.94911839722897 148:-22.995922660966016 149:-51.74661661764702 150:-46.998786617647 151:69.90420784834672 152:-15.752748709381358 153:-40.19010661764702 154:-47.006476617646996 155:61.845400103348254 156:-8.530139111418904 157:-29.356076617647034 158:-43.370316617647006 159:52.371400572221766 160:-2.092901863942757 161:-40.65740661764704 162:-42.87026661764699 163:59.08370733747864 164:-11.48244439127582 165:-51.82916661764705 166:-43.514106617647 167:67.6737762136248 168:-17.98425791705722 169:27.967493382352984 170:-47.227206617647 171:54.887063421154885 172:-117.36639439193539 173:39.00633338235298 174:-51.202956617647004 175:64.36797969739229 176:-110.69990562728042 177:50.675613382352935 178:-51.52971661764701 179:72.27260536588338 180:-103.47879471194715 181:62.158543382352946 182:-49.53964661764701 183:79.484974066909 184:-96.55444379908396 185:50.793363382352936 186:-47.41494661764699 187:69.48483954393265 188:-101.02977242987785 189:39.37407338235295 190:-46.607476617646995 191:61.01290462995043 192:-107.80882093977739 193:-28.732876617647037 194:39.52057338235301 195:48.86157917213561 196:-111.9815016775355 197:-22.696996617647017 198:30.27177338235299 199:37.83561707140528 200:-111.13838081993521 201:-11.369166617647068 202:27.828083382352986 203:30.06094100847495 204:-125.77752454794108 205:6.833823529746041E-4 206:29.411183382352988 207:29.41118339029234 208:31.99866870625017 209:11.523453382352955 210:26.35442338235299 211:28.7636160743321 212:8.38267938683417 213:22.88724338235295 214:30.654773382353028 215:38.25625492343021 216:-4.745485954346137 217:33.51604338235296 218:36.32658338235302 219:49.426165380725344 220:-10.69560152596695 221:22.757573382352973 222:41.176703382353026 223:47.04708330695394 224:3.071413816980794 225:11.831623382352973 226:45.270353382352994 227:46.79094150821247 228:17.35309955594957 229:0.4637433823529591 230:47.369123382352996 231:47.37139335017768 232:31.439092643850074 233:-9.792296617647025 234:46.44190338235302 235:47.463032591942486 236:-136.09355932053563 237:-19.88036661764704 238:44.391253382353 239:48.63961712131708 240:-123.87505402382496 241:-21.612776617647057 242:39.02078338235299 243:44.60643057785308 244:-119.01886996663174 245:-14.492666617647046 246:38.893033382352996 247:41.5054867622473 248:-127.56315453214926 249:-0.3070866176470304 250:39.403793382353 251:39.40498997728465 252:-147.55348433672776 253:16.58209338235298 254:37.12596338235301 255:40.660828545528815 256:7.932353492039439 257:25.049073382352958 258:37.29011338235301 259:44.922250983040094 260:-1.8906386107631334 261:16.577503382352972 262:37.45426338235302 263:40.95894852051984 264:8.125503520609684 265:-0.05008661764702538 266:39.403743382353014 267:39.40377521522013 268:-147.92717061859238 269:-14.491726617647032 270:39.14853338235298 271:41.74467398782538 272:-127.68681260177968 
1.0 1.0 1.0 1.0 1:-84.72644970588232 2:-45.092751617647195 3:95.9787868657144 4:-37.97738839002549 5:-82.82251970588231 6:-21.977151617647195 7:85.68876801341186 8:-51.13891021599224 9:-79.38791970588233 10:0.6689483823527667 11:79.39073804396752 12:-66.48278141145184 13:-74.66055970588235 14:23.0577583823528 15:78.13999870242246 16:-83.16249387138063 17:-67.89585970588234 18:45.04011838235277 19:81.4767453271006 20:-99.55912645675406 21:-57.11181970588234 22:65.29759838235282 23:86.7498490178528 24:-114.82579483993655 25:-41.7470797058823 26:82.20769838235282 27:92.20045735945773 28:-129.0774258047386 29:-22.608249705882315 30:94.69121838235282 31:97.35275955769286 32:-142.5715920893599 33:-0.48015970588232904 34:100.2831083823528 35:100.28425788811457 36:-155.72566751418088 37:23.32460029411766 38:98.39051838235281 39:101.11741238000732 40:10.663568578201236 41:44.45130029411769 42:87.37299838235282 43:98.03039806182802 44:-2.9648659987107777 45:62.60854029411769 46:71.8621983823528 47:95.3100460292869 48:-17.063374051046935 49:78.71441029411767 50:54.44251838235277 51:95.70760782593784 52:-31.330477444083932 53:87.72776029411767 54:32.47777838235277 55:93.54659809354582 56:-45.684895360162955 57:92.64405029411768 58:9.001318382352792 59:93.08030826936215 60:-60.45054691884572 61:96.94863029411766 62:-14.465491617647217 63:98.02187186360874 64:-74.4863694104404 65:100.78103029411767 66:-37.996201617647216 67:107.7057445288447 68:-86.65731561805941 69:-71.10681970588234 70:-63.44792161764721 71:95.29857588801609 72:-24.257778462983424 73:-56.47662970588232 74:-70.90441161764721 75:90.64791939024356 76:-14.53794758422056 77:-39.80687970588235 78:-70.3984616176472 79:80.87354987911644 80:-5.4860315477593105 81:-23.287899705882353 82:-68.02997161764719 83:71.90551655477567 84:5.102989524092052 85:-8.670419705882352 86:-60.384451617647215 87:61.003755417516146 88:15.828922829959012 89:9.53715029411768 90:-61.070571617647204 91:61.81077538292789 92:-147.12403593414368 93:25.78912029411765 94:-67.36849161764721 95:72.13592994050519 96:-135.05281158874226 97:43.24037029411767 98:-68.5680316176472 99:81.06358358160018 100:-123.763650310807 101:60.52504029411767 102:-70.14108161764722 103:92.64476149841401 104:-115.20894994564543 105:73.83758029411769 106:-60.2041516176472 107:95.2708147109645 108:-105.19239898293873 109:-0.5709197058823179 110:-51.154511617647216 111:51.157697447701544 112:23.360566048407463 113:-1.0584697058823167 114:-38.82976161764719 115:38.84418547738616 116:22.438547398508646 117:-1.2752197058823072 118:-26.48582161764722 119:26.516503013408446 120:21.243493970980552 121:-2.2062397058822967 122:-14.33599161764721 123:14.504762986724831 124:15.2510949029368 125:-20.255219705882325 126:7.219478382352804 127:21.50336702581303 128:-85.61736768012281 129:-11.252389705882308 130:8.441808382352804 131:14.066996938131757 132:-102.87809624461929 133:-2.261319705882329 134:8.874848382352809 135:9.158411468260311 136:-141.70515763823238 137:6.119150294117674 138:8.044358382352812 139:10.10721040177409 140:-13.259376887711454 141:14.283410294117687 142:6.574178382352784 143:15.723728280312585 144:-41.284958113330376 145:-56.52621970588234 146:-47.605821617647194 147:73.902149942535 148:-25.89624917384714 149:-45.020469705882306 150:-53.054131617647215 151:69.58148873257096 152:-16.317140888450467 153:-32.4952097058823 154:-53.78480161764722 155:62.83902878688478 156:-7.139148338171154 157:-22.079419705882344 158:-47.2867116176472 159:52.18748767816895 160:-1.0291182260063039 161:-33.50183970588233 162:-44.80259161764721 163:55.94323443756453 164:-12.787878232412027 165:-45.18775970588234 166:-44.9944516176472 167:63.76859966793499 168:-21.122814915223735 169:23.218960294117664 170:-45.02316161764722 171:50.657725957533806 172:-128.7193235196219 173:34.475170294117675 174:-49.81551161764722 175:60.58153649864254 176:-121.31455992067868 177:46.73411029411767 178:-49.75338161764719 179:68.26035487289813 180:-112.79230561940687 181:58.06454029411765 182:-45.33394161764721 183:73.66584759683049 184:-103.9809700369837 185:46.74289029411767 186:-41.75209161764721 187:62.674835041636335 188:-107.77214334669972 189:34.71508029411768 190:-42.23448161764722 191:54.67072559732876 192:-116.58114215380668 193:-40.468809705882336 194:35.6552683823528 195:53.93535688607728 196:-107.38184252612075 197:-29.732939705882302 198:27.845058382352818 199:40.73567208074846 200:-109.12204491150311 201:-16.555769705882312 202:25.719038382352778 203:30.586965293522436 204:-123.22994726077044 205:-3.3225097058823394 206:26.09693838235279 207:26.307589469162707 208:-148.74446949859413 209:8.700400294117685 210:25.990008382352812 211:27.407617572358465 212:5.491544471234761 213:20.348550294117672 214:28.827298382352808 215:35.28564341339743 216:-11.217419297930576 217:30.336210294117677 218:35.28772838235278 219:46.53503442993931 220:-16.685042040108506 221:19.864120294117697 222:40.15120838235282 223:44.79623655645972 224:-2.3231128397078393 225:8.382490294117702 226:41.277208382352796 227:42.11975872878611 228:12.520598370478822 229:-3.0441197058823377 230:41.41119838235278 231:41.52293361801787 232:-151.7957732960686 233:-15.809749705882325 234:41.2889583823528 235:44.21228641522974 236:-135.04790576940843 237:-28.518679705882334 238:39.85000838235277 239:49.003451513544334 240:-120.41057566713039 241:-29.203909705882324 242:33.65371838235279 243:44.55828882562747 244:-115.04931969082376 245:-16.27534970588232 246:32.01936838235281 247:35.918337373179995 248:-129.0559047134056 249:-3.3137397058823126 250:32.32384838235282 251:32.49326153348836 252:-150.1466645818045 253:8.862770294117695 254:32.21140838235277 255:33.40843497174032 256:8.616087541917139 257:20.705560294117674 258:33.9880983823528 259:39.798380101981984 260:-7.349786220382299 261:8.65191029411767 262:32.92990838235278 263:34.04753174324986 264:9.278985041326862 265:-3.3145697058823202 266:33.06375838235277 267:33.229482251484995 268:-150.2753487401112 269:-16.294799705882326 270:32.757828382352784 271:36.58682574072942 272:-129.55276745927446 
1.0 1.0 1.0 1.0 1:-93.07723632352949 2:-34.90085147058821 3:99.40543926263902 4:-39.44563436416698 5:-90.1692963235295 6:-11.231911470588216 7:90.86615340578471 8:-52.899542034605105 9:-85.8281463235295 10:12.2345585294118 11:86.69576185571468 12:-68.11269611905622 13:-78.29611632352947 14:34.90398852941178 15:85.72380210075244 16:-84.02705632196395 17:-69.75868632352947 18:57.28437852941181 19:90.26502280000551 20:-99.39212639846066 21:-55.96480632352947 22:76.53603852941177 23:94.81468631285856 24:-113.82492134692905 25:-36.93558632352949 26:90.80420852941182 27:98.02878058874244 28:-127.86543870302266 29:-14.761376323529475 30:98.93885852941179 31:100.0339740191692 32:-141.51423835961822 33:8.91133367647052 34:99.4365585294118 35:99.83506918947137 36:24.878931204430174 37:32.077243676470516 38:97.59702852941177 39:102.73329323861122 40:11.805842035856017 41:51.795543676470515 42:85.3684985294118 43:99.85268592234938 44:-1.2464028345216462 45:68.96021367647052 46:69.43816852941177 47:97.86301813771871 48:-14.802131451483021 49:80.90511367647053 50:49.43632852941181 51:94.81343785281999 52:-28.57336598736981 53:87.37580367647053 54:26.90754852941177 55:91.42509084475536 56:-42.88368257951558 57:91.24845367647049 58:3.7021685294117788 59:91.32352572129017 60:-57.67664714092953 61:94.69620367647053 62:-19.267391470588223 63:96.63644946300793 64:-71.50071525802088 65:96.44899367647054 66:-42.616961470588194 67:105.44483764599124 68:-83.83872242218908 69:-75.5279263235295 70:-59.06598147058821 71:95.88147799140546 72:-21.97311297507359 73:-62.1043963235295 74:-66.48520147058821 75:90.9793276370777 76:-13.048795466744217 77:-46.802296323529475 78:-68.6716814705882 79:83.10387943503834 80:-4.275880249079236 81:-31.335886323529508 82:-70.0296814705882 83:76.72088410956438 84:5.893117465036724 85:-16.356206323529477 86:-66.9133814705882 87:68.8834240229558 88:16.26405330312795 89:6.824293676470518 90:-67.38995147058822 91:67.7346037368711 92:-144.21761205944102 93:22.57836367647053 94:-72.70783147058822 95:76.13285272116383 96:-132.74857554852395 97:38.81469367647054 98:-75.05606147058819 99:84.49847814413556 100:-122.65458530414189 101:55.10290367647053 102:-72.9280314705882 103:91.40474696509744 104:-112.9260642836706 105:70.03407367647054 106:-66.28547147058819 107:96.42891269634572 108:-103.42484089195095 109:-4.097866323529502 110:-49.6960514705882 111:49.86471738787726 112:25.286135363075047 113:-3.2189663235294574 114:-36.33567147058821 115:36.4779764434725 116:24.937400326949586 117:-2.6907163235295 118:-23.11987147058818 119:23.275919125788036 120:23.361716926553015 121:-1.9373363235295074 122:-9.91512147058819 123:10.102618759855572 124:18.944150339221892 125:-21.64991632352951 126:2.4493785294117743 127:21.788031852284707 128:-66.4547521345931 129:-11.257166323529475 130:5.764458529411797 131:12.64724380143415 132:-87.11562955429659 133:-0.5149863235295129 134:6.401328529411785 135:6.422010421580121 136:-145.40046547032165 137:9.293813676470506 138:5.170078529411796 139:10.635068624754382 140:-30.913142118006398 141:18.369593676470515 142:1.2990385294118028 143:18.415468306277795 144:-55.95496084644568 145:-62.82273632352948 146:-43.99445147058822 147:76.69555371319548 148:-24.996635536304176 149:-52.882316323529494 150:-50.89603147058821 151:73.39581322662036 152:-16.096489274801634 153:-40.58948632352951 154:-51.6879014705882 155:65.72020662202169 156:-8.141846011514538 157:-28.904466323529505 158:-48.33774147058821 159:56.32055951360458 160:-0.8781113312468136 161:-40.028356323529465 162:-45.46855147058821 163:60.57770615331164 164:-11.359159924089305 165:-51.506066323529495 166:-44.66673147058822 167:68.1761818261294 168:-19.067745019177494 169:22.81176367647049 170:-49.627711470588196 171:54.61946821270865 172:-125.31375524133436 173:34.08200367647049 174:-54.26860147058821 175:64.08325896969096 176:-117.87017810979144 177:46.25917367647054 178:-53.7759214705882 179:70.93490592959671 180:-109.29719286026791 181:56.847743676470486 182:-48.05881147058821 183:74.4400115601229 184:-100.21101901152764 185:45.398123676470505 186:-47.65049147058821 187:65.81458022910054 188:-106.38665117612591 189:34.06298367647054 190:-47.86748147058822 191:58.75017139788279 192:-114.56396079728879 193:-25.399146323529465 194:35.95503852941181 195:44.021374690206436 196:-114.76207728095173 197:-17.885576323529506 198:30.428038529411822 199:35.29531653310634 200:-119.55302227798923 201:-8.87200632352949 202:28.1872785294118 203:29.550552737628898 204:-132.5284928399579 205:0.44561367647048655 206:28.724488529411815 207:28.727944806842142 208:29.111220552285587 209:9.91151367647052 210:28.4917185294118 211:30.166473577766588 212:10.818568934087239 213:19.151733676470542 214:30.205508529411816 215:35.76536940022884 216:-2.3766473664055 217:27.063813676470488 218:35.16294852941178 219:44.37209663737756 220:-7.584345177006746 221:18.674953676470523 222:37.875388529411794 223:42.22912444122206 224:3.753797748831218 225:10.11644367647051 226:39.760718529411804 227:41.02751723702412 228:15.724949058542578 229:1.4018936764705359 230:40.22175852941177 231:40.24618199380454 232:28.003814550346007 233:-7.669766323529473 234:39.55158852941179 235:40.28837885367746 236:-139.0255242554873 237:-16.623126323529505 238:37.91056852941182 239:41.394921608710035 240:-126.32338310841159 241:-22.53959632352951 242:35.9727385294118 243:42.45081058982376 244:-117.92979595221321 245:-11.246286323529489 246:32.19940852941181 247:34.10690349056573 248:-130.7472253909056 249:0.5837036764705203 250:31.428908529411785 251:31.43432839002701 252:28.936014188901794 253:10.128733676470517 254:31.541378529411816 255:33.1277799652272 256:12.196863107668591 257:19.329803676470533 258:33.45500852941177 259:38.637791161942836 260:-0.01867968397058206 261:10.006643676470503 262:32.483138529411804 263:33.989516124664156 264:12.878208228506523 265:0.7026436764705295 266:32.49438852941182 267:32.501984463051706 268:28.76125552482597 269:-11.162076323529504 270:33.194908529411805 271:35.02133492784526 272:-131.4143344703368 
1.0 1.0 1.0 1.0 1:-101.67341617647045 2:-42.321727352941195 3:110.12997849418866 4:-35.40039912860456 5:-100.18795617647044 6:-17.037397352941184 7:101.62627352894707 8:-48.34892838225376 9:-96.44171617647044 10:7.882162647058806 11:96.76328387904975 12:-62.67238786977582 13:-91.04811617647044 14:32.28707264705878 15:96.60338772217314 16:-77.52529502423633 17:-79.27496617647046 18:54.50958264705878 19:96.2071455903202 20:-92.51247032568446 21:-62.820566176470436 22:73.75746264705879 23:96.88439931621899 24:-107.57836233253724 25:-44.18223617647044 26:90.7166826470588 27:100.90384781583205 28:-122.03227825743728 29:-22.136106176470435 30:102.63543264705879 31:104.99542481129792 32:-135.82904744353567 33:2.410673823529521 34:106.11507264705881 35:106.1424514092925 36:30.698604459314154 37:25.970923823529574 38:102.0923126470588 39:105.343861643061 40:17.7274484739102 41:46.85843382352954 42:90.95922264705882 43:102.31956315852466 44:4.744346831723242 45:62.40657382352953 46:72.70600264705882 47:95.81619527671596 48:-8.640859059730566 49:77.59890382352955 50:54.22300264705882 51:94.66638205126642 52:-23.05569364335495 53:89.48225382352956 54:33.618942647058816 55:95.58926223193063 56:-37.40854249086879 57:92.81044382352957 58:10.152082647058819 59:93.36403624947484 60:-51.75751199593534 61:95.30169382352955 62:-13.796507352941205 63:96.29515284152951 64:-66.2372923749766 65:97.06144382352954 66:-37.3855873529412 67:104.01252818210207 68:-79.06540958157389 69:-78.77419617647047 70:-68.9782573529412 71:104.7061314856854 72:-16.793139972956915 73:-62.39006617647044 74:-75.3420573529412 75:97.82098938202496 76:-7.627843648374707 77:-45.45570617647047 78:-79.05710735294119 79:91.19346164619525 80:2.102258602538747 81:-28.205466176470452 82:-77.6159673529412 83:82.5819999174448 84:12.028970403745092 85:-12.258876176470437 86:-70.9741573529412 87:72.02507241974904 88:22.200383721004414 89:12.919523823529573 90:-70.1879873529412 91:71.3671329428567 92:-137.57029558348574 93:28.19843382352957 94:-77.95464735294121 95:82.89800186989672 96:-128.1134881791687 97:44.76449382352956 98:-80.2502673529412 99:91.8910513461205 100:-118.84673468210221 101:60.964923823529546 102:-75.08843735294118 103:96.72122497629636 104:-108.92656872564976 105:77.17343382352954 106:-70.45162735294119 107:104.49483568479536 108:-100.39295407438422 109:1.567993823529548 110:-51.54664735294119 111:51.570490185367696 112:-146.25766100095288 113:1.8889338235295554 114:-36.58886735294121 115:36.63759387788451 116:-145.04467653179307 117:1.8580338235295244 118:-21.6723873529412 119:21.75188872868987 120:-143.0998561394768 121:1.9589938235295676 122:-6.816947352941213 123:7.092843436408223 124:-131.96687723338027 125:-21.28243617647047 126:9.116602647058812 127:23.15285151833136 128:-81.18848810636491 129:-10.176136176470436 130:13.207082647058826 131:16.67275560692691 132:-110.3855334174153 133:1.297403823529521 134:15.022332647058818 135:15.078253706586787 136:27.063898093696707 137:12.154963823529556 138:13.855622647058794 139:18.431533427498668 140:-9.259135641257949 141:22.281503823529533 142:10.10337264705879 143:24.465149733514753 144:-33.60845799957468 145:-56.19267617647046 146:-52.47318735294121 147:76.88336781678167 148:-14.96039341104074 149:-46.95149617647047 150:-58.30171735294121 151:74.85675146245238 152:-6.8451629006736425 153:-36.05773617647043 154:-58.34263735294121 155:68.58588536622354 156:0.28252324416306607 157:-26.933856176470442 158:-52.5909973529412 159:59.08676341712976 160:4.881282448102759 161:-36.74389617647046 162:-51.238867352941185 163:63.05184718816366 164:-3.644679674573986 165:-46.543466176470474 166:-51.261467352941196 167:69.23895059066759 168:-10.238256199083004 169:23.993243823529554 170:-51.47228735294121 171:56.78971838739025 172:-123.00793498059242 173:34.33155382352953 174:-57.813067352941204 175:67.2384290766346 176:-117.29658088324643 177:46.31833382352954 178:-57.29761735294119 179:73.67771035063446 180:-109.04856675405492 181:56.71757382352956 182:-51.07752735294119 183:76.32690862938169 184:-100.00490602260888 185:45.783033823529536 186:-49.418667352941185 187:67.3668380512779 188:-105.18699119544986 189:34.77800382352956 190:-49.602557352941204 191:60.57989143190385 192:-112.96442429787653 193:-37.48049617647047 194:36.505942647058816 195:52.3208509313903 196:-102.24534041608887 197:-24.787226176470426 198:33.437192647058794 199:41.622739381737276 200:-111.45019957438407 201:-11.705506176470465 202:33.44414264705881 203:35.43345244601782 204:-128.7098679311643 205:1.359713823529546 206:33.54743264705883 207:33.57497667744307 208:29.6790103191548 209:13.326763823529575 210:33.20939264705879 211:35.783605100585646 212:10.134654374355065 213:25.259443823529523 214:33.235962647058784 215:41.74528374979299 216:-5.234956599837524 217:36.77387382352953 218:35.70419264705879 219:51.25531356422626 220:-13.845549150135987 221:25.11578382352957 222:39.083422647058796 223:46.45768529402749 224:-0.7256056928208494 225:13.185373823529574 226:40.85388264705881 227:42.92893907617415 228:14.11279043565321 229:1.275113823529523 230:40.9353426470588 231:40.955197385619655 232:30.215844300239766 233:-11.889136176470458 234:40.74633264705881 235:42.445437719588064 236:-131.73358914995686 237:-24.789686176470468 238:39.33376264705879 239:46.493799852271145 240:-115.779254843151 241:-27.21474617647044 242:35.9987226470588 243:45.12815575302825 244:-110.91101128446681 245:-12.947416176470426 246:34.45017264705882 247:36.80285289293328 248:-127.40226231786879 249:1.3249738235295467 250:34.955702647058786 251:34.98080478180328 252:29.82927886762299 253:13.232703823529562 254:34.347032647058825 255:36.80792173078207 256:10.930080526850304 257:25.064303823529542 258:35.105742647058776 259:43.13504947209078 260:-3.5255432256475245 261:13.220843823529549 262:35.021752647058804 263:37.434127075142676 264:11.318289020031173 265:1.4990538235295503 266:35.96655264705879 267:35.99777870479636 268:29.613344383237234 269:-12.944366176470453 270:35.11445264705878 271:37.424342351110006 272:-127.76441998275237 
1.0 1.0 1.0 1.0 1:-98.56551720588232 2:-57.15092573529407 3:113.93590081473083 4:-29.893694223071588 5:-96.12602720588231 6:-30.167275735294083 7:100.74858625149679 8:-42.576553739184305 9:-93.38634720588232 10:-3.429935735294066 11:93.44931408847178 12:-57.89656034881768 13:-87.91408720588231 14:22.78122426470594 15:90.8177896022707 16:-74.52754390824106 17:-79.06597720588232 18:48.367874264705904 19:92.68700023416176 20:-91.45582144571512 21:-67.39384720588231 22:72.6658742647059 23:99.10731518845547 24:-107.15566871130879 25:-49.834677205882315 26:92.74691426470594 27:105.2876306022659 28:-121.75001795809263 29:-27.0410272058823 30:106.97568426470593 31:110.34044669227744 32:-135.81408626080602 33:-0.7391372058823436 34:109.54699426470592 35:109.549487795428 36:-149.6134188799219 37:25.272982794117695 38:105.91947426470591 39:108.89287712161648 40:16.579831022427598 41:48.28409279411767 42:93.54435426470593 43:105.27060288490692 44:2.698911178548336 45:67.78460279411769 46:76.01599426470591 47:101.84882797562331 48:-11.72386693103234 49:78.58035279411769 50:52.34411426470592 51:94.418102837351 52:-26.33153650834879 53:86.09875279411767 54:26.953754264705935 55:90.21917812563323 56:-42.61694370386783 57:90.56020279411769 58:1.1366442647059216 59:90.56733566963429 60:-59.28090377790045 61:94.80642279411768 62:-24.925145735294052 63:98.02816275409145 64:-74.73004634813348 65:98.14587279411768 66:-50.80264573529408 67:110.51480063876025 68:-87.36716222354141 69:-77.61065720588232 70:-70.49499573529408 71:104.84731057899437 72:-17.750631755072725 73:-61.65315720588234 74:-74.67896573529407 75:96.84038267554743 76:-9.542260578091003 77:-45.25992720588232 78:-74.27083573529407 79:86.97481274197031 80:-1.3577246569298467 81:-29.544717205882307 82:-69.32860573529408 83:75.36143501802104 84:6.918489438834044 85:-13.766677205882331 86:-71.47844573529409 87:72.79209851367345 88:19.098378332453393 89:22.11194279411768 90:-68.89245573529408 91:72.35404944693687 92:-132.20528152850096 93:36.786232794117666 94:-70.23850573529407 95:79.28855283778331 96:-122.3574591818317 97:51.12053279411765 98:-74.16399573529407 99:90.07556348188544 100:-115.42187585647828 101:65.82579279411766 102:-74.76661573529407 103:99.6146667187279 104:-108.63876344591063 105:79.95139279411768 106:-70.77630573529407 107:106.77785661482025 108:-101.51659310552373 109:-1.1874872058823485 110:-53.93636573529409 111:53.94943627690229 112:28.73875419350773 113:-1.2915472058822957 114:-38.19024573529407 115:38.21207876453686 116:28.063065311993128 117:-1.5913972058823447 118:-22.477385735294092 119:22.53365071532113 120:25.95022081368667 121:-1.889917205882341 122:-6.91696573529407 123:7.170509188915551 124:14.718115877973972 125:-24.910707205882318 126:8.44902426470594 127:26.30454988253528 128:-78.73551786314063 129:-13.455077205882333 130:10.190824264705896 131:16.878744082732364 132:-97.14014943955732 133:-2.008547205882337 134:11.034734264705946 135:11.216043071018104 136:-139.683936124584 137:9.372972794117686 138:10.92257426470593 139:14.392888784649404 140:-10.633835502630625 141:20.538822794117664 142:8.670464264705913 143:22.29394967998514 144:-37.112959856539476 145:-58.224007205882344 146:-50.77603573529407 147:77.25439029662003 148:-18.90894379812226 149:-46.95897720588232 150:-55.93070573529408 151:73.03005808754799 152:-10.016553152358327 153:-34.61545720588231 154:-55.60187573529407 155:65.49655306086996 156:-1.9047068126888291 157:-24.215837205882337 158:-49.349345735294065 159:54.970580277848455 160:3.862707180725984 161:-35.70017720588231 162:-49.22794573529407 163:60.810305819395914 164:-5.949676403255786 165:-47.00873720588231 166:-49.495115735294064 167:68.26117384972117 168:-13.524126423848983 169:24.667652794117657 170:-48.82526573529407 171:54.702830534563944 172:-123.19603944271559 173:36.37939279411768 174:-54.22686573529407 175:65.29941184683298 176:-116.14336811929994 177:49.2695127941177 178:-53.95015573529409 179:73.06233088830533 180:-107.59638009031838 181:60.63772279411768 182:-48.02876573529409 183:77.35435193776765 184:-98.38136607206721 185:48.34648279411766 186:-48.17146573529408 187:68.24860811510024 188:-104.89610504599955 189:36.4608627941177 190:-48.092835735294074 191:60.351597864128294 192:-112.83295997583585 193:-42.14073720588232 194:39.24493426470593 195:57.5847774823896 196:-102.96220491244264 197:-29.536737205882332 198:31.120024264705933 199:42.905416383077316 200:-106.49521784303494 201:-15.6062072058823 202:25.830924264705914 203:30.179303367074354 204:-118.86098889539706 205:-1.179617205882323 206:27.921914264705947 207:27.9468208023382 208:-147.5808635581825 209:14.131682794117694 210:26.554104264705927 211:30.080307709437342 212:1.978783866387083 213:28.877362794117687 214:31.118984264705944 215:42.45342463936341 216:-12.860274133719088 217:42.34484279411765 218:38.33720426470592 219:57.1211601956081 220:-17.843658690394015 221:28.5733227941177 222:45.67585426470595 223:53.87688222519472 224:-2.028752609766414 225:14.610992794117692 226:52.037864264705945 227:54.05016584305472 228:14.316523085222514 229:-0.48219720588230075 230:53.57957426470591 231:53.58174402287123 232:-149.48437218265065 233:-15.185057205882345 234:52.1434742647059 235:54.30955597995592 236:-133.76355131950024 237:-28.609277205882336 238:46.07117426470592 239:54.23139165070282 240:-118.1605465156011 241:-33.30785720588233 242:36.6708742647059 243:49.539543508043316 244:-107.75138668127988 245:-16.970877205882346 246:34.933724264705916 247:38.83781358598395 248:-124.08942037733291 249:-0.9134472058823349 250:38.58235426470594 251:38.593165799208634 252:-148.64376097717195 253:15.548142794117666 254:35.08571426470593 255:38.376452282758784 256:6.099598242176242 257:32.111212794117705 258:35.80767426470595 259:48.09698039748851 260:-11.884770798141197 261:15.433652794117677 262:35.28223426470595 263:38.51017648984443 264:6.373790986564131 265:-0.8001672058823033 266:39.19570426470591 267:39.2038709869785 268:-148.8304882557691 269:-16.941977205882324 270:35.30216426470594 271:39.157035043742994 272:-124.36303289771159 
1.0 1.0 1.0 1.0 1:-99.99632426470589 2:-56.06135294117658 3:114.639173758569 4:-26.7235217587532 5:-97.02796426470587 6:-30.430242941176573 7:101.6878829301312 8:-38.58735301802102 9:-91.42175426470587 10:-5.170182941176563 11:91.56783247670276 12:-52.76319424054717 13:-85.64926426470589 14:20.152457058823416 15:87.98816962861056 16:-69.24032278071617 17:-78.07266426470588 18:44.56382705882345 19:89.89591529940728 20:-85.71769704862336 21:-64.68149426470589 22:66.75302705882342 23:92.9497838718907 24:-101.90296109925194 25:-44.46262426470588 26:82.33111705882345 27:93.56996202124965 28:-117.62889494911825 29:-21.17716426470588 30:93.69162705882343 31:96.05515742126495 32:-133.2634312702801 33:4.041865735294095 34:96.66304705882345 35:96.7475133805436 36:31.605630797722696 37:28.742055735294116 38:92.13438705882345 39:96.51347598442327 40:16.674273118064974 41:49.675435735294116 42:77.86388705882342 43:92.36034767908004 44:1.463026154513777 45:70.37654573529414 46:63.34857705882342 47:94.6884386026596 48:-14.008431119330794 49:83.82693573529411 50:42.06803705882345 51:93.79059066213237 52:-29.350492640493904 53:90.7326257352941 54:17.52245705882342 55:92.40912224558387 56:-45.069492809561574 57:94.35013573529415 58:-7.425292941176565 59:94.64186752453016 60:-60.499864941979695 61:96.09115573529414 62:-32.80968294117656 63:101.5380987868351 64:-74.85212748736942 65:96.55185573529411 66:-58.11486294117657 67:112.69249371897307 68:-87.04386611975005 69:-78.51905426470589 70:-65.47612294117656 71:102.23680627852131 72:-16.17566746601281 73:-66.84135426470587 74:-69.30537294117656 75:96.28603927078672 76:-9.96315936048434 77:-54.58379426470589 78:-69.31756294117656 79:88.22876587845776 80:-4.218500185099302 81:-42.397094264705885 82:-68.83330294117658 83:80.84266940101709 84:2.3694773871639967 85:-30.137664264705904 86:-69.00633294117657 87:75.30041695316595 88:10.407294210799364 89:23.180365735294117 90:-69.29091294117657 91:73.06544991884816 92:-127.50301134042049 93:35.37142573529411 94:-72.57138294117658 95:80.73254226482851 96:-120.01531068771519 97:47.845325735294125 98:-74.25084294117656 99:88.33098477992684 100:-113.20331348909687 101:60.426025735294104 102:-73.95101294117657 103:95.49898900610671 104:-106.74743822154875 105:72.7286857352941 106:-71.65635294117658 107:102.09845564754463 108:-100.57447797720474 109:-4.368794264705855 110:-50.468152941176584 111:50.65689315997693 112:29.052503251756093 113:-4.122914264705855 114:-35.03957294117657 115:35.28129949327474 116:27.28917683026758 117:-3.3213542647058603 118:-19.583062941176593 119:19.86272258049646 120:24.374040782717543 121:-2.310074264705861 122:-4.272342941176589 123:4.856887616105375 124:5.599719260813821 125:-19.377244264705894 126:10.140387058823421 127:21.87018621312656 128:-83.6237010925625 129:-9.695114264705865 130:14.27663705882344 131:17.257392801784224 132:-111.81998586416445 133:0.634425735294144 134:15.737037058823432 135:15.749820043555596 136:31.691417785364237 137:11.032945735294106 138:13.83477705882342 139:17.695393408039596 140:-4.571629039217477 141:20.350165735294127 142:8.968307058823427 143:22.238699983481077 144:-32.2169383203107 145:-56.92362426470589 146:-46.75029294117658 147:73.66063324134024 148:-16.604387232503413 149:-48.19843426470587 150:-52.25014294117656 151:71.0856279633412 152:-8.690161121134459 153:-38.223084264705875 154:-54.23268294117656 155:66.34898695311774 156:-1.176103162920647 157:-29.091044264705886 158:-50.180392941176564 159:58.003109331672555 160:3.8978738314623627 161:-37.84739426470588 162:-46.41939294117657 163:59.89311557813173 164:-5.191594103150685 165:-47.40952426470588 166:-46.15955294117657 167:66.16923241760492 168:-11.765357783554826 169:24.7644857352941 170:-54.006862941176564 171:59.41397982361235 172:-121.36649374981067 173:35.58714573529414 174:-56.422552941176576 175:66.70794122130391 176:-113.75932258081443 177:46.4992657352941 178:-54.993432941176565 179:72.01707700661822 180:-105.78407202018113 181:56.45213573529412 182:-50.28658294117656 183:75.60148181732882 184:-97.69409516749046 185:45.571835735294144 186:-49.52708294117656 187:67.30322545723061 188:-103.38160898007516 189:34.80205573529412 190:-50.18379294117656 191:61.070419659319526 192:-111.25900381208874 193:-33.18956426470589 194:42.392607058823444 195:53.83939365673475 196:-107.94227943636032 197:-22.6690742647059 198:36.66756705882341 199:43.1091336265537 200:-114.27430446997747 201:-10.615474264705881 202:35.771727058823444 203:37.31360007605262 204:-129.47142884101953 205:1.2893157352941103 206:37.529287058823456 207:37.55142769867546 208:32.032381812542155 209:12.712955735294145 210:36.176307058823454 211:38.345070555963616 212:14.637676934245121 213:24.027545735294098 214:37.631147058823444 215:44.64780154749443 216:1.4417056117889686 217:34.87006573529413 218:41.306407058823424 219:54.056828879365014 220:-6.170406824584006 221:24.83489573529414 222:48.04985705882342 223:54.088453569651016 224:6.66751049967263 225:13.842215735294133 226:52.94599705882342 227:54.7255474254517 228:19.348514812017868 229:1.9801257352941093 230:53.507047058823446 231:53.5436736027957 232:31.880632460975434 233:-10.32702426470587 234:51.95908705882346 235:52.97541088231614 236:-134.7587839906151 237:-21.75769426470589 238:46.93126705882344 239:51.72949919980882 240:-121.12720036506683 241:-27.42784426470587 242:41.761937058823435 243:49.96344691786275 244:-112.70442902310006 245:-12.877364264705875 246:40.40701705882344 247:42.409356727000386 248:-128.32337282377927 249:1.563825735294131 250:41.399087058823454 251:41.42861282054242 252:31.836714765040966 253:15.840335735294104 254:40.40995705882341 255:43.403696452062555 256:12.595272148055443 257:30.013085735294112 258:41.76081705882342 259:51.42714416312296 260:-1.7044283229805188 261:15.660965735294099 262:42.29220705882341 263:45.0987430608487 264:13.680216452901718 265:1.4724157352941347 266:43.10936705882341 267:43.134505170569774 268:32.04380276704629 269:-13.021794264705875 270:42.388427058823424 271:44.34349867109631 272:-128.9229564040608 
1.0 1.0 1.0 1.0 1:-94.50211808823508 2:-47.43319941176472 3:105.73816117939144 4:-36.346672902810525 5:-93.8428180882351 6:-22.724519411764703 7:96.55505315226779 8:-49.387569406638775 9:-89.9632280882351 10:1.7021905882352826 11:89.97933018674061 12:-64.08396177788322 13:-84.38007808823511 14:25.88804058823527 15:88.26204293848387 16:-80.05615783137674 17:-77.57270808823512 18:49.56061058823528 19:92.05313227707809 20:-95.57419839061296 21:-64.94218808823513 22:70.5382905882353 23:95.88085435997132 24:-110.36529199559925 25:-44.123678088235124 26:83.69536058823527 27:94.6140177353701 28:-125.20207823479436 29:-21.907938088235085 30:94.42577058823528 31:96.93391513015443 32:-139.93778139852185 33:2.2780219117648812 34:98.02095058823531 35:98.04741780410001 36:25.668676954592314 37:27.170811911764872 38:94.22504058823526 39:98.06432222678689 40:10.914510148817413 41:49.761771911764924 42:83.18968058823529 43:96.93687069516494 44:-3.886699547752535 45:70.89758191176492 46:69.3161205882353 47:99.15236605516881 48:-18.64620800703247 49:86.5578219117649 50:49.733360588235286 51:99.82817082120779 52:-33.1197002810271 53:92.02707191176489 54:25.147760588235286 55:95.4012150198117 56:-47.71621865035266 57:95.23317191176488 58:0.35636058823527605 59:95.23383865645977 60:-62.78560136156985 61:98.33454191176492 62:-24.745739411764703 63:101.40036366814282 64:-77.12510470986243 65:100.13184191176492 66:-49.85384941176471 67:111.8561221650992 68:-89.46789051322168 69:-76.93434808823508 70:-61.8787994117647 71:98.73135131458058 72:-24.190052230210753 73:-64.7782280882351 74:-66.56816941176473 75:92.88455206914021 76:-17.219242115331134 77:-52.06150808823509 78:-68.82398941176473 79:86.29682579893695 80:-10.105472180532779 81:-39.1972880882351 82:-67.02491941176473 83:77.64513645828471 84:-3.3198063251614016 85:-26.472438088235094 86:-65.28082941176473 87:70.44413862787569 88:4.926645466800153 89:14.751951911764877 90:-67.4957394117647 91:69.08903620653476 92:-140.6712348681063 93:28.565411911764897 94:-67.8347494117647 95:73.60391284059368 96:-130.16389782901993 97:42.161721911764914 98:-70.26523941176472 99:81.94397271402951 100:-122.03469763103777 101:55.92738191176488 102:-69.1517194117647 103:88.93723823634193 104:-114.03533464418679 105:69.02296191176492 106:-64.79037941176472 107:94.66764249411399 108:-106.18831004472035 109:-1.0171380882351286 110:-49.257659411764706 111:49.26815990694143 112:25.817048163895734 113:-0.7854380882350824 114:-38.68988941176471 115:38.69786112545542 116:25.837006061580524 117:-0.3708680882351132 118:-28.19060941176471 119:28.193048826715216 120:26.246275589834212 121:-0.413288088235106 122:-17.75032941176471 123:17.755140136592455 124:25.666200216767493 125:-19.221598088235112 126:10.201460588235278 127:21.76096576898556 128:-90.9561911443711 129:-10.40075808823508 130:6.690950588235268 131:12.367076800286853 132:-95.75373353749325 133:-0.999628088235113 134:7.258610588235257 135:7.3271197606173715 136:-145.15876773854802 137:7.475781911764898 138:6.3040305882352925 139:9.778962974143907 140:-22.86039182539904 141:15.186661911764872 142:9.904150588235296 143:18.130827308666625 144:-29.88917191180645 145:-57.104448088235074 146:-43.33847941176472 147:71.687807814062 148:-25.803918927141268 149:-47.44317808823513 150:-50.26043941176471 151:69.11560545184905 152:-16.348347035554468 153:-35.78226808823513 154:-51.63117941176472 155:62.81838422777337 156:-7.723354216596029 157:-26.745298088235074 158:-44.52348941176473 159:51.938926435074464 160:-3.9932738326830943 161:-36.7196880882351 162:-41.00527941176472 163:55.04333232040163 164:-14.844026819815483 165:-47.26240808823508 166:-40.036309411764705 167:61.94062713287158 168:-22.731836374520064 169:26.25367191176491 170:-46.76685941176473 171:53.63202800650336 172:-123.6913036742956 173:35.52372191176488 174:-53.07360941176472 175:63.865036087494424 176:-119.20444533452266 177:46.8533919117649 178:-51.00261941176473 179:69.25682291658171 180:-110.4279643399762 181:56.2769119117649 182:-44.540009411764714 183:71.76979345605389 184:-101.35963262107784 185:46.1071519117649 186:-41.75393941176472 187:62.20338345955054 188:-105.16351228557846 189:35.692791911764914 190:-42.33702941176472 191:55.37507971885171 192:-112.86699422723457 193:-35.76286808823511 194:40.83148058823528 195:54.27884063724961 196:-111.78601434819805 197:-25.10357808823511 198:33.64390058823531 199:41.977394864655174 200:-116.27134151288656 201:-13.074748088235083 202:29.716040588235302 203:32.465244582668014 204:-129.2510059041698 205:-0.5721480882351102 206:31.11148058823531 207:31.11674111835964 208:-151.94643471674053 209:13.853301911764902 210:28.6532705882353 211:31.826465233530715 212:1.197131655388759 213:28.01390191176489 214:32.13655058823528 215:42.63257655868561 216:-14.079139460219793 217:39.304211911764924 218:41.151520588235286 219:56.90578811271202 220:-16.684687920694074 221:26.43946191176491 222:38.56519058823531 223:46.758090971409224 224:-7.433693584108411 225:13.336921911764875 226:37.517290588235284 227:39.817340181918254 228:7.430343951320921 229:0.36632191176488504 230:38.12718058823529 231:38.128940338684274 232:26.449525158546308 233:-11.719048088235127 234:38.62760058823531 235:40.366169192760964 236:-136.12297133231598 237:-23.715368088235095 238:40.23846058823531 239:46.70709147518657 240:-122.48615016685423 241:-26.250078088235114 242:37.1454805882353 243:45.48464936403717 244:-117.75180241558263 245:-13.279538088235086 246:35.17329058823529 247:37.596628873362135 248:-132.31616733059258 249:-0.39254808823511667 250:34.777200588235274 251:34.779415963410436 252:-152.35330063339575 253:13.78396191176489 254:34.18429058823526 255:36.85869407624062 256:5.039473793255823 257:27.70068191176489 258:35.699840588235276 259:45.18635188198079 260:-10.809064277466312 261:13.64335191176491 262:34.29218058823531 263:36.90656717827333 264:5.304564102757496 265:-0.39247808823512287 266:34.97278058823528 267:34.97498278945382 268:-152.35703156377377 269:-13.42729808823509 270:35.30580058823526 271:37.77289887110275 272:-132.1774787141928 
1.0 1.0 1.0 1.0 1:-118.15812705882354 2:-47.27931764705886 3:127.26616544557544 4:-39.19187451340052 5:-114.08196705882352 6:-19.200497647058853 7:115.68644828978546 8:-51.44640268066693 9:-110.38126705882354 10:8.87616235294115 11:110.73757436221497 12:-65.59747108200983 13:-108.53288705882352 14:37.32850235294114 15:114.77283938823189 16:-79.98000195407414 17:-97.56685705882353 18:63.09106235294115 19:116.18852673633319 20:-93.88850288064128 21:-79.10846705882352 22:84.55186235294116 23:115.78932156182483 24:-107.90497383820403 25:-56.415067058823524 26:101.46539235294114 27:116.09429631376315 28:-121.92580738311102 29:-30.884487058823538 30:113.65478235294114 31:117.77631804646069 32:-135.79757470379627 33:-3.4850570588235428 34:120.04331235294114 35:120.09389019999746 36:-149.33707529163468 37:21.427242941176473 38:114.17219235294112 39:116.16546925286009 40:18.37067007599039 41:44.58093294117646 42:104.2302423529411 43:113.36402869895949 44:5.842833741759279 45:64.37311294117649 46:88.22418235294111 47:109.21265504318842 48:-7.116503248613128 49:82.43203294117649 50:70.38949235294115 51:108.39612856795193 52:-20.505673231545806 53:91.40326294117648 54:46.75076235294114 55:102.66542873272883 56:-33.91125298897589 57:95.43685294117648 58:21.73656235294112 59:97.88090233666138 60:-48.1692665186109 61:101.08602294117645 62:-3.0884476470588993 63:101.13319209306447 64:-62.74999451583356 65:105.60490294117648 66:-27.894687647058845 67:109.22686997319974 68:-75.79628191584688 69:-83.90702705882353 70:-85.35195764705887 71:119.68853689487341 72:-15.510889105810634 73:-67.69891705882355 74:-88.65838764705887 75:111.55022667441618 76:-8.365097082575232 77:-51.53483705882354 78:-91.26444764705886 79:104.80953599268646 80:-0.45237160900212103 81:-35.09575705882355 82:-91.02720764705887 83:97.55851933866533 84:7.9157357881780115 85:-19.035327058823555 86:-88.37995764705886 87:90.40664018716932 88:16.84527894058536 89:30.482702941176456 90:-85.55166764705888 91:90.82005844411701 92:-131.38863404380024 93:46.378982941176446 94:-87.57014764705886 95:99.09359624913017 96:-123.09336912662187 97:62.29601294117646 98:-86.90346764705887 99:106.92523517603613 100:-115.36547480312657 101:77.9852529411765 102:-83.33208764705887 103:114.13122494705986 104:-107.89836350839562 105:92.8653629411765 106:-77.74205764705886 107:121.11070622118864 108:-100.93431984284854 109:5.191012941176496 110:-65.10718764705888 111:65.31380021607072 112:-146.4414358003619 113:5.742822941176485 114:-46.170777647058856 115:46.526559338380615 116:-143.90983900434293 117:5.356832941176492 118:-27.23227764705888 119:27.754145726470778 120:-139.87149218106265 121:4.764502941176488 122:-8.500017647058883 123:9.744269509654986 124:-121.72812297550735 125:-18.63753705882351 126:5.717932352941148 127:19.494936214613038 128:-78.05583358897273 129:-7.642127058823519 130:7.977692352941119 131:11.047428717189256 132:-107.23071320715005 133:3.366672941176489 134:8.934202352941156 135:9.54748440041403 136:8.35209994077556 137:13.860392941176485 138:7.9460523529411375 139:15.976552834685469 140:-31.17469784068605 141:24.126652941176474 142:6.0042023529411495 143:24.862538648316736 144:-47.02515072045823 145:-66.20374705882352 146:-55.52618764705886 147:86.40656016324847 148:-21.01287785995958 149:-54.7597270588235 150:-67.32627764705887 151:86.78395801855149 152:-10.123130462423518 153:-38.79309705882355 154:-68.90610764705886 155:79.07563499892598 156:-0.37885347478395204 157:-27.892917058823514 158:-57.46517764705888 159:63.87692434720416 160:3.108612583046096 161:-40.882237058823534 162:-55.810047647058866 163:69.18178029872334 164:-7.223696494295702 165:-53.60664705882351 166:-53.02912764705886 167:75.40398522556572 168:-16.31030019205385 169:30.38201294117647 170:-54.86802764705888 171:62.71815660744688 172:-122.02543341154723 173:41.82640294117647 174:-68.16731764705887 175:79.97644139490502 176:-119.46737086592535 177:59.31010294117647 178:-65.37120764705887 179:88.26711222266104 180:-108.78311595806618 181:69.55980294117649 182:-50.88465764705887 183:86.1847699368844 184:-97.18636183455338 185:56.41751294117648 186:-50.028257647058865 187:75.40399412278052 188:-102.56502395134368 189:43.570212941176464 190:-53.524467647058884 191:69.01617268901916 192:-111.85357608661083 193:-41.48524705882352 194:38.267432352941114 195:56.439543782870444 196:-103.68951643747631 197:-27.178287058823514 198:33.87646235294113 199:43.431255899433204 200:-112.26074985375718 201:-12.56521705882352 202:30.73996235294112 203:33.208883829415086 204:-128.7672995813577 205:1.9284029411765005 206:33.378882352941105 207:33.434540897625936 208:25.69351819322435 209:14.845302941176499 210:30.151032352941115 211:33.60755527204271 212:2.78599456500541 213:27.6347929411765 214:33.98766235294113 215:43.804599908220034 216:-10.113976315062203 217:37.97752294117646 218:42.2677523529411 219:56.823015915359 220:-12.939654961881907 221:25.506402941176475 222:47.035112352941155 223:53.50587243519587 224:0.5297182682655688 225:12.991872941176496 226:51.63732235294111 227:53.246613247240674 228:14.877589093795748 229:-0.14063705882352906 230:53.16234235294115 231:53.16252837510303 232:-150.84842859136768 233:-14.340197058823549 234:48.99631235294112 235:51.0517372463745 236:-134.6863490432896 237:-27.972437058823516 238:43.5881323529411 239:51.79172247596477 240:-118.3099113303553 241:-23.135517058823552 242:39.40195235294112 243:45.69207807489782 244:-120.57995999789408 245:-10.395947058823538 246:37.56873235294114 247:38.980576776861426 248:-135.5322719077559 249:2.3023029411764924 250:39.301322352941156 251:39.36869997247486 252:25.647398894618178 253:12.307352941176475 254:38.91990235294111 255:40.8194774045572 256:11.451868164988483 257:22.179252941176458 258:40.193802352941134 259:45.90709104937908 260:0.10974427938303677 261:12.21167294117646 262:39.40060235294112 263:41.24963541410822 264:11.779898887814824 265:2.279932941176469 266:39.7867323529411 267:39.852003281401444 268:25.720317974047646 269:-10.474857058823545 270:38.40541235294114 271:39.80826959819064 272:-135.743973597484 
1.0 1.0 1.0 1.0 1:-122.83770529411774 2:-70.74861249999992 3:141.75495762970573 4:-25.060125913878263 5:-124.80765529411772 6:-36.20894249999992 7:129.95398546017591 8:-38.821606810787884 9:-120.12671529411773 10:-2.087062499999945 11:120.14484407261482 12:-54.00465235419855 13:-115.18816529411774 14:31.98518750000011 15:119.54649992047092 16:-70.51878881659037 17:-103.03605529411772 18:63.926487500000064 19:121.25602869408246 20:-86.81663651226675 21:-83.71739529411772 22:92.7222875000001 23:124.92407643870833 24:-102.9216502981719 25:-60.81502529411773 26:118.36506750000007 27:133.07425185137714 28:-117.80626360669973 29:-30.586665294117722 30:133.8187875000001 31:137.26985095710043 32:-132.12519624911897 33:3.2651347058822466 34:139.9243375000001 35:139.96242827795425 36:33.66324546185655 37:35.91648470588228 38:132.27665750000006 39:137.0660716333557 40:19.808990691018025 41:64.02704470588225 42:113.77136750000011 43:130.55032177895666 44:5.630522152358054 45:83.01035470588226 46:85.97904750000009 47:119.5119893458546 48:-8.993569589548486 49:97.38120470588228 50:55.6499275000001 51:112.16065914893785 52:-25.253555342081743 53:108.33740470588225 54:23.95931750000011 55:110.95513576879588 56:-42.529496042688045 57:114.66949470588224 58:-9.16533249999992 59:115.0351960746706 60:-59.56983663560979 61:116.8054847058823 62:-42.64555249999992 63:124.34695173347174 64:-75.05708172350798 65:116.69495470588225 66:-76.21207249999992 67:139.37715899154048 68:-88.1480705578565 69:-95.69822529411772 70:-84.59328249999993 71:127.72695004801652 72:-13.524644902127804 73:-78.69820529411774 74:-90.80509249999992 75:120.16227503026332 76:-5.9145484161408675 77:-60.578975294117754 78:-91.23517249999992 79:109.51561052557791 80:1.416353490719402 81:-42.649645294117704 82:-89.33363249999991 83:98.99237414750237 84:9.479266523212587 85:-28.12477529411774 86:-79.28217249999992 87:84.12292114319592 88:15.468228831612166 89:19.23171470588227 90:-81.40437249999991 91:83.64526712640225 92:-131.70764173765187 93:35.48308470588228 94:-90.45323249999993 95:97.16396744649664 96:-123.58086615328043 97:53.39970470588224 98:-94.86841249999992 99:108.86479758372568 100:-115.62563067786478 101:71.81527470588225 102:-96.00595249999992 103:119.89402235521824 104:-108.20243138096836 105:88.56182470588226 106:-89.13196249999993 107:125.64912866525104 108:-100.18383522440809 109:-1.2568952941177258 110:-70.80226249999993 111:70.8134179439128 112:33.982981198493206 113:0.03524470588229178 114:-48.996532499999915 115:48.996545176296266 116:-144.95878539876395 117:0.7204847058822565 118:-27.148542499999905 119:27.1581011502224 120:-143.47980621314554 121:1.7507647058822613 122:-5.618622499999901 123:5.885073988733544 124:-127.69294786998202 125:-22.577055294117713 126:17.213297500000067 127:28.390509621652747 128:-92.3227807869899 129:-9.960175294117732 130:20.81308750000011 131:23.0735715304808 132:-119.4263923275191 133:2.9562047058822714 134:21.11170750000008 135:21.31767669866114 136:27.028883969106417 137:16.26142470588229 138:20.315127500000074 139:26.021881922842134 140:-3.6758371642688417 141:28.48709470588227 142:15.705847500000061 143:32.52980495599634 144:-26.130644829788285 145:-79.65687529411773 146:-64.18835249999992 147:102.30035375445614 148:-16.137765477429312 149:-63.69608529411772 150:-71.83968249999992 151:96.01109968902718 152:-6.561546223743413 153:-46.108135294117744 154:-72.40679249999991 155:85.84115411874836 156:2.5113030575348105 157:-31.294765294117724 158:-63.59184249999993 159:70.87513504296632 160:8.797316554889626 161:-47.680785294117754 162:-61.764322499999906 163:78.02748759346126 164:-2.6674014224984575 165:-63.92846529411776 166:-60.57326249999991 167:88.06797831649773 168:-11.543692969323402 169:26.168254705882248 170:-64.07498249999992 171:69.21257787950991 172:-122.78487112902646 173:39.57060470588226 174:-73.68745249999992 175:83.64014235239522 176:-116.76393434726526 177:56.17725470588226 178:-74.4443824999999 179:93.26226478107779 180:-107.96104848320925 181:71.43608470588225 182:-68.10091249999991 183:98.69573689597048 184:-98.63079385375318 185:57.165414705882256 186:-62.078912499999916 187:84.39002319989102 188:-102.35955474542727 189:41.53667470588226 190:-62.28805249999991 191:74.86719461730233 192:-111.30273294736686 193:-46.01443529411773 194:48.16061750000006 195:66.60910848688683 196:-101.30550392820632 197:-29.121305294117747 198:43.7943375000001 199:52.592722111496805 200:-111.3778438807592 201:-11.49846529411775 202:43.64431750000006 203:45.13359230286064 204:-130.2403318333749 205:5.923904705882251 206:43.08960750000006 207:43.494906845151824 208:27.1721193127254 209:21.285274705882273 210:41.506927500000074 211:46.64641411507571 212:7.850678040217552 213:36.68768470588225 214:42.8118075000001 215:56.38117656182151 216:-5.595006097336579 217:51.90575470588226 218:43.04575750000009 219:67.43251893809123 220:-15.330876355813679 221:38.5666047058823 222:54.25903750000009 223:66.56895784798046 224:-0.40471028210586013 225:21.853014705882288 226:58.644467500000076 227:62.583766426239265 228:14.562816743957114 229:4.432884705882259 230:58.967207500000086 231:59.133594742444934 232:30.70085208412914 233:-13.002305294117718 234:58.76261750000009 235:60.18392774165507 236:-132.52328572463847 237:-29.629215294117728 238:53.92226750000009 239:61.52642790936872 240:-116.21207927865876 241:-33.37214529411773 242:50.0755175000001 243:60.17688538321438 244:-111.31906910902164 245:-20.72984529411775 246:49.940317500000106 247:54.07182073796732 248:-122.45703473152959 249:4.4512847058822445 250:51.154137500000104 251:51.3474412108504 252:30.026814450612818 253:28.48398470588228 254:48.24592750000011 255:56.02684093414693 256:4.442759511358098 257:40.194874705882285 258:48.36796750000008 259:62.88949222805539 260:-4.727347751797737 261:28.238784705882267 262:48.490007500000104 263:56.113365511393425 264:4.785062663418628 265:4.444274705882265 266:51.15466750000007 267:51.347362003289994 268:30.034658356203906 269:-20.940835294117733 270:50.2107175000001 271:54.40252507632512 272:-122.36098041664766 
1.0 1.0 1.0 1.0 1:-104.60465220588236 2:-61.09240544117645 3:121.13800091508318 4:-24.713728503397856 5:-108.48715220588235 6:-31.304245441176448 7:112.91332063305772 8:-38.90436926217563 9:-103.53366220588234 10:-1.577725441176426 11:103.54568280391744 12:-54.12695049391406 13:-101.51057220588234 14:28.38012455882358 15:105.40316759727855 16:-70.61982393348572 17:-94.85167220588235 18:57.851244558823566 19:111.10178314166235 20:-86.37954769481752 21:-78.40959220588235 22:82.85434455882358 23:114.07412748807253 24:-101.57878505682041 25:-55.485102205882356 26:102.63071455882357 27:116.66901961382864 28:-116.60307498655688 29:-28.330262205882377 30:115.67958455882354 31:119.09815296786114 32:-131.23894946450906 33:0.8156277941176313 34:122.29526455882353 35:122.2979843750958 36:34.617881055628885 37:30.221047794117624 38:116.37194455882354 39:120.23203071634548 40:20.44222951131613 41:56.477977794117635 42:102.11076455882358 43:116.68920350443886 44:6.052797817720688 45:79.82515779411767 46:83.15301455882354 47:115.26699287773455 48:-8.830238111665054 49:94.13558779411767 50:56.868314558823556 51:109.97960761025354 52:-23.86337735830723 53:101.31453779411765 54:27.905554558823553 55:105.08737099990262 56:-39.60058796504168 57:104.05437779411767 58:-1.896245441176461 59:104.0716545697922 60:-56.04401985005689 61:108.71802779411763 62:-31.631635441176456 63:113.22618923255355 64:-71.22241556479938 65:109.84064779411767 66:-61.43782544117644 67:125.85537057579972 68:-84.2198549586578 69:-87.66866220588236 70:-80.42286544117644 71:118.96903638652654 72:-12.468278602758907 73:-71.70842220588236 74:-85.26998544117643 75:111.41394990034023 76:-5.062404601485156 77:-54.93327220588236 78:-85.71862544117644 79:101.81034889818554 80:2.345987761105441 81:-38.31397220588235 82:-83.95931544117644 83:92.28828265573098 84:10.470901427633251 85:-22.992352205882355 86:-77.53159544117645 87:80.8690085979394 88:18.48203365843922 89:20.77315779411765 90:-77.84442544117644 91:80.56847185472857 92:-130.05852022341264 93:35.93582779411764 94:-84.45593544117645 95:91.783379489386 96:-121.95034656103809 97:52.647967794117676 98:-86.00818544117644 99:100.84253306881104 100:-113.5280571452177 101:69.17239779411767 102:-87.04675544117646 103:111.18434354451007 104:-106.52731033007268 105:84.48486779411763 106:-81.38010544117645 107:117.30479294473237 108:-98.92762767577449 109:2.0949677941176787 110:-61.78816544117643 111:61.82367086031514 112:-143.05809336837376 113:1.5206877941176344 114:-41.83771544117644 115:41.86534276348436 116:-142.91836976345036 117:2.085507794117632 118:-22.264745441176444 119:22.362205444001106 120:-139.6487975731538 121:2.79144779411763 122:-2.510595441176463 123:3.7543668249839706 124:-96.9678426544753 125:-24.599062205882376 126:17.076054558823557 127:29.945041337503437 128:-89.76741567394669 129:-12.035602205882356 130:19.565534558823572 131:22.97097871294908 132:-113.40253862669866 133:0.6989577941176321 134:19.805634558823556 135:19.817964130445482 136:32.97882171469347 137:12.889677794117631 138:18.44505455882353 139:22.502529442579245 140:0.05357889938392901 141:24.62573779411764 142:15.468894558823536 143:29.081156455282763 144:-22.86461988771434 145:-74.79374220588232 146:-57.25160544117645 147:94.19049951429352 148:-17.56739502617635 149:-59.54940220588236 150:-63.31094544117644 151:86.91609238647102 152:-8.246356506767071 153:-43.28293220588233 154:-63.616375441176444 155:76.94449586950144 156:0.7696446673918089 157:-29.287362205882346 158:-55.860885441176436 159:63.07287933217242 160:7.332379634565093 161:-44.732112205882345 162:-54.058985441176446 163:70.16648608366373 164:-4.60668823137641 165:-60.02045220588235 166:-53.389035441176446 167:80.32959472285295 168:-13.346457631556014 169:26.851957794117652 170:-54.81395544117643 171:61.03767155195512 172:-118.90094572716474 173:41.22745779411764 174:-63.38158544117644 175:75.61037395227522 176:-111.95743574659842 177:58.08982779411764 178:-64.52369544117644 179:86.8201322651373 180:-103.00371182440708 181:74.27408779411763 182:-60.39229544117646 183:95.7281017585883 184:-94.11457626897442 185:59.42478779411766 186:-54.23720544117646 187:80.4548311690746 188:-97.38680939305713 189:43.12099779411767 190:-54.973025441176446 191:69.86740282074706 192:-106.88926167804723 193:-32.65819220588236 194:46.68917455882354 195:56.97750906402148 196:-110.0279406591442 197:-22.626572205882326 198:41.77966455882358 199:47.51317859747783 200:-116.56139692381707 201:-12.051742205882363 202:38.73526455882353 203:40.56679936400081 204:-127.7174618276802 205:-1.0447922058823451 206:38.63495455882355 207:38.649078960769984 208:-143.4509468581792 209:11.238987794117634 210:38.30582455882353 211:39.920559136461165 212:18.648230350316155 213:23.387957794117654 214:39.253604558823554 215:45.69291017915057 216:4.212803040177228 217:33.96225779411765 218:45.085304558823566 219:56.445722970265706 220:-1.9903076706665388 221:22.55254779411763 222:45.11254455882357 223:50.43569260531476 224:8.438733213050178 225:11.085737794117676 226:45.125204558823555 227:46.46695243843305 228:21.197695536899687 229:-0.15552220588233467 230:46.06155455882356 231:46.061817110617795 232:-144.80654729867297 233:-11.00472220588233 234:44.75514455882353 235:46.08825094652466 236:-131.18574873569122 237:-21.926842205882338 238:45.19062455882357 239:50.22926395178622 240:-119.11697813091433 241:-24.634342205882376 242:43.63355455882356 243:50.10726393801951 244:-115.55208497900551 245:-16.610492205882338 246:43.42861455882354 247:46.49680649055952 248:-124.0692441382401 249:-0.4745622058823642 250:43.14647455882357 251:43.14908430247925 252:-144.36983692369677 253:16.97655779411764 254:42.56895455882358 255:45.82924183060639 256:13.257818340046825 257:25.46940779411767 258:42.694094558823565 259:49.713946167859476 260:4.181567456117527 261:16.733477794117675 262:42.81923455882355 263:45.97277593630581 264:13.654765825142803 265:-0.4747722058823456 266:43.468354558823535 267:43.47094727170174 268:-144.37422609457633 269:-16.727672205882357 270:43.83850455882356 271:46.92152490468999 272:-124.11440186151196 
