svm_type c_svc
kernel_type linear
nr_class 5
total_sv 193
rho 79.72891549752505 7.768655124844862 17.08002057949348 0.12058732684063386 1.1195680061886404 20.25578128395156 26.538600844798978 8.17817443262297 -20.89774127720181 -15.127308495049958
label 1 0 2 3 4
nr_sv 28 86 32 23 24
SV
0.6560911941366968 0.0017077455661361953 0.0 0.0013320634606220816 1:-0.898104226936799 2:-0.43978267082532324 3:1.0 4:-24.909984494361325 5:-0.8733744180631541 6:-0.20740026709759102 7:0.8976623780237786 8:-37.64140592633748 9:-0.8345963410330481 10:0.02119107061235583 11:0.8348653268278962 12:-52.45447329541394 13:-0.771671353777572 14:0.24603327130299904 15:0.8099438553560153 16:-68.68392897301146 17:-0.6731357258344038 18:0.4563089956437062 19:0.8132217439911316 20:-85.13277884170859 21:-0.5330141470730391 22:0.6403006288078824 23:0.833120025105488 24:-101.22452814274469 25:-0.35838312003511646 26:0.7934839462900136 27:0.870663674300288 28:-116.69331975395946 29:-0.1651090911622609 30:0.9211271983951952 31:0.9358078475882798 32:-130.83783329065716 33:0.05945346877932707 34:0.9636196712744353 35:0.965452011141385 36:35.4694366271554 37:0.26568869234597814 38:0.9016574251657198 39:0.9399875497031817 40:22.581494165586932 41:0.4386625826806588 42:0.7747711198372019 43:0.8903342909142936 44:9.482179057766977 45:0.5832365932338128 46:0.6130517428193593 47:0.846166273885244 48:-4.572310192644764 49:0.6959491001185792 50:0.43058658190805543 51:0.8183825233197021 52:-19.254750152360995 53:0.7515151202936672 54:0.22224797729718357 55:0.7836894406859738 56:-34.52530196446993 57:0.7906114298653076 58:0.009830365689160308 59:0.7906725422848886 60:-50.28762800451084 61:0.8120642735841785 62:-0.20497565858337252 63:0.8375341217189225 64:-65.16629673976443 65:0.8244818459772565 66:-0.4186043336924275 67:0.9246620477407654 68:-77.91772830054794 69:-0.681378282380747 70:-0.6505049817845483 71:0.9420366739287026 72:-7.32788897448237 73:-0.5709131698145772 74:-0.6954832452880354 75:0.8997993064812319 76:-0.38212843146109776 77:-0.4508619757935858 78:-0.6864835708262592 79:0.821301536727448 80:5.704282437130814 81:-0.3345644539692849 82:-0.6553318652035903 83:0.7357942833503006 84:11.954472135607872 85:-0.2197852753063148 86:-0.6199710015497089 87:0.6577762613564142 88:19.480127211494334 89:0.09882625303279002 90:-0.6601435172721638 91:0.6674998814119479 92:-132.48581060809448 93:0.22761236983943314 94:-0.7048166403499686 95:0.7406577397274262 96:-123.10273857689991 97:0.3573557513522189 98:-0.7420696142373565 99:0.8236324698546604 100:-115.28609913014716 101:0.4911013841241204 102:-0.7660958716303623 103:0.9099909087555279 104:-108.33832996761892 105:0.6223084299614419 106:-0.7417850104639917 107:0.9682524380295352 108:-101.00558009482195 109:-0.008770573759721125 110:-0.5746655207192986 111:0.574732445288812 112:38.12561684916811 113:-0.011564842015652254 114:-0.39824823277668847 115:0.3984161147350876 116:37.3366392595815 117:-0.004693449289032002 118:-0.22345787554453697 119:0.2235071600846525 120:37.79675173274933 121:0.001300343828559283 122:-0.04856235353864355 123:0.04857975993440764 124:-139.46616959219418 125:-0.155534304866214 126:0.06269316343359067 127:0.16769422390627325 128:-72.95350333712253 129:-0.07760369917874867 130:0.0762696875724452 131:0.10880900407881748 132:-95.50328434545094 133:7.349869041394961E-4 134:0.07949907614935067 135:0.07950247363667066 136:38.470302676634645 137:0.08014859559707202 138:0.06778411397368007 139:0.10496896438176306 140:-10.777779110594423 141:0.1545937035393576 142:0.04080725305897729 143:0.15988885225754235 144:-36.21322269906693 145:-0.5369898718229109 146:-0.43770786995557703 147:0.6927815686502021 148:-11.816047276430297 149:-0.4414021091811312 150:-0.5064514897982548 151:0.6718101915782634 152:-2.0740559438916293 153:-0.3230196892996952 154:-0.5052600216863091 155:0.5996910948060853 156:6.40865869752448 157:-0.23980029665481653 158:-0.42526240194310133 159:0.488213368090381 160:9.58187745227766 161:-0.34067248221539204 162:-0.3979321394697703 163:0.5238394102793196 164:-1.567062801968092 165:-0.4435526389562979 166:-0.39608007570828296 167:0.5946581958555478 168:-9.236039599868427 169:0.18925195697583158 170:-0.46042927980196835 171:0.4978066139758905 172:-118.65568514537833 173:0.2704695394360752 174:-0.5522878430910689 175:0.6149598632341365 176:-114.90782165402105 177:0.3948163165667818 178:-0.5568652061844551 179:0.6826263851377391 180:-105.66343552478007 181:0.5013549067792561 182:-0.49373416785072777 183:0.7036548664330314 184:-95.56121753064443 185:0.4094141968808862 186:-0.43277778985864007 187:0.5957487725564781 188:-97.58905814018365 189:0.297540441104515 190:-0.4328050864923451 191:0.5252147722468549 192:-106.49265066734334 193:-0.2843003984368476 194:0.4019026973388563 195:0.49229309834650203 196:-105.72494093423764 197:-0.18948900682204892 198:0.34487857484923545 199:0.3935064359021923 200:-112.21398344774823 201:-0.08477997562289732 202:0.31176972626072214 203:0.32309132838766297 204:-125.78733351131464 205:0.023533409196720773 206:0.31984756174160267 207:0.3207121514699258 208:34.7919337114721 209:0.13533092265136415 210:0.3052852782915151 211:0.3339364606735798 212:15.09261031508872 213:0.2462853209589953 214:0.3241145646768429 215:0.40707089106878513 216:1.7698443591004178 217:0.35058370468118405 218:0.36510914547768486 219:0.5061754854785333 220:-4.837305402355973 221:0.25640621106791495 222:0.42676753470148804 223:0.4978701374348435 224:8.002130127122498 225:0.15116314133912676 226:0.4646318162728561 227:0.48860313137814204 228:20.97824002758479 229:0.04090775933474816 230:0.48384787627682735 231:0.48557410572577453 232:34.16732181221839 233:-0.0729633570182561 234:0.47395656882693904 235:0.4795398634123951 236:-132.24829195174283 237:-0.18540443781489457 238:0.4560395376514253 239:0.49228738097048846 240:-118.87563081377051 241:-0.15252970706279909 242:0.4003360074751956 243:0.42840895230823917 244:-120.14294841302781 245:-0.059252831223030565 246:0.3708106335772925 247:0.37551487850941145 248:-131.9213045630016 249:0.03535730119905785 250:0.38728915782736 251:0.38889976924486175 252:33.78368063980223 253:0.12201007983386072 254:0.3622190395109396 255:0.3822160281376132 256:20.38438527423949 257:0.21003453570469466 258:0.37540596624145645 259:0.43016757859974547 260:9.773580088521577 261:0.11860416161641074 262:0.3704057192491022 263:0.3889310273109827 264:21.24489912476055 265:0.030947568530212327 266:0.3912671073812331 267:0.39248910980613155 268:34.47756219320503 269:-0.0624411464953014 270:0.37882780036445257 271:0.38393931695597056 272:-131.64025040439418 
0.0 0.004544271513470064 8.216734108567763E-4 0.0 1:-0.9351030108633362 2:-0.35437601368366234 3:1.0 4:-33.24479344598018 5:-0.8998455644762836 6:-0.14449428212070797 7:0.9113729409375836 8:-44.87750512058288 9:-0.8303087092622747 10:0.05478189742825838 11:0.8321139398920229 12:-57.77477547392532 13:-0.7514730595058665 14:0.25086003925972394 15:0.7922389276351534 16:-72.46026726334046 17:-0.6591371695420678 18:0.4405441133846868 19:0.7928057291101196 20:-87.75737528117033 21:-0.5246556817532257 22:0.604205927175738 23:0.8002052154480345 24:-103.03093784214676 25:-0.37329303022532473 26:0.7504347256717063 27:0.8381527091817901 28:-117.55260775918097 29:-0.1955756567761802 30:0.8669467696147298 31:0.8887331089077585 32:-131.28737357752226 33:0.008603669548123622 34:0.9023758767884338 35:0.9024168915414803 36:35.45373205397166 37:0.2144064268845159 38:0.8633325845356505 39:0.8895579055971519 40:22.052906796455588 41:0.39277977999046504 42:0.7497259062512278 43:0.8463834178867063 44:8.350054270335207 45:0.5576542617948178 46:0.6179964666719843 47:0.832404894577741 48:-6.061778360856721 49:0.6663527739826557 50:0.4356248135209721 51:0.7961124277070181 52:-20.825547351355667 53:0.7489620407130285 54:0.24160523222352656 55:0.7869671064706634 56:-36.1209864769883 57:0.8055381871235184 58:0.03678014740568519 59:0.8063774241367553 60:-51.38574204681942 61:0.8366849919299592 62:-0.17291148877258294 63:0.8543653543247098 64:-65.676513909714 65:0.8485721135489144 66:-0.3826293166817226 67:0.9308489812408851 68:-78.27107071794362 69:-0.767439520392929 70:-0.5852762898594766 71:0.9651485652129432 72:-16.669586245091544 73:-0.6303410497662292 74:-0.5885457844594588 75:0.8623896911636825 76:-10.963885697508125 77:-0.4949774390833034 78:-0.6085318090615945 79:0.7844192933892195 80:-3.1247739836414326 81:-0.3603112402725675 82:-0.5899343112371823 83:0.6912645524266702 84:4.584874390436681 85:-0.22989814050547538 86:-0.5500227676690352 87:0.5961360582636994 88:13.31608126820558 89:0.2054410065333114 90:-0.6022035400936224 91:0.6362822572307916 92:-125.16298728626046 93:0.3272353841567953 94:-0.6402222519892905 95:0.7190045400318998 96:-116.92716211644509 97:0.44712926423534943 98:-0.681143226690425 99:0.8147887297955764 100:-110.71752673523359 101:0.5726801931405581 102:-0.6940731807437575 103:0.8998334200524358 104:-104.47393948081432 105:0.6977043670959787 106:-0.680160534850627 107:0.9743765889188283 108:-98.27051394676658 109:-0.0037062614406110916 110:-0.41691000315408727 111:0.41692647685630047 112:35.49066334953244 113:0.00505847732109561 114:-0.2962540075894486 115:0.2962971906812772 116:-143.02178120025633 117:0.008450078317962274 118:-0.17683468151971177 119:0.17703646068467813 120:-141.26419153431672 121:0.015308296349242778 122:-0.05787485149505176 123:0.05986520168420495 124:-129.18417598139274 125:-0.16154821787582885 126:0.06772015617674515 127:0.1751680514576189 128:-76.74317268965343 129:-0.07717780821042375 130:0.10137789925214975 131:0.12741229350790284 132:-106.71840629148477 133:0.012979148769810243 134:0.09916410480101479 135:0.10000988942987343 136:28.543198269125355 137:0.10639428406212423 138:0.09520103126506804 139:0.14276897434325303 140:-12.177992123175834 141:0.19441072868143125 142:0.06868559980353012 143:0.206187397885554 144:-34.54160965450641 145:-0.5557173406192384 146:-0.4132362250427468 147:0.6925214367458226 148:-17.365188331985912 149:-0.45716269415104077 150:-0.44213720300245707 151:0.6359898074672847 152:-9.957208085552026 153:-0.3556375221084164 154:-0.44508984154116715 155:0.5697218744041304 156:-2.625698484184312 157:-0.2580404708737812 158:-0.418320523684912 159:0.4915047763193983 160:4.331693289196728 161:-0.35719606698583756 162:-0.3923375053171136 163:0.530582461403133 164:-6.315686944399246 165:-0.4583053654480422 166:-0.38670746956480767 167:0.5996552968295037 168:-13.843100874554047 169:0.26125704518621573 170:-0.4462378972009611 171:0.5170913889804856 172:-113.65248454271301 173:0.3501174658581282 174:-0.5063653502843617 175:0.6156201002789966 176:-109.33875781294508 177:0.4558874322492417 178:-0.512985561228143 179:0.6862853174237081 180:-102.37268390366333 181:0.5510225520423614 182:-0.46630915900391146 183:0.7218518439612189 184:-94.23995188574699 185:0.4601340518054571 186:-0.4199801850703661 187:0.6229821036616108 188:-96.38777908273477 189:0.358412396151105 190:-0.4157620387546797 191:0.5489239643012723 192:-103.23664418496975 193:-0.33249370561914315 194:0.31603592565346955 195:0.45872733794705844 196:-97.5463131614284 197:-0.220509545742946 198:0.2760876041496388 199:0.35333953207764346 200:-105.38584366724083 201:-0.10658026199291402 202:0.24573138806981143 203:0.2678493369959957 204:-120.55233517508752 205:0.008475722486515281 206:0.2622215923139133 207:0.2623585358765988 208:34.148687495289465 209:0.130163325458015 210:0.24356349759299073 211:0.2761623954379378 212:7.8794053249703495 213:0.24808123565216117 214:0.27751418650845416 215:0.3722343659526243 216:-5.794826753056576 217:0.36051412284785017 218:0.328250763319668 219:0.487564351027328 220:-11.681908024817375 221:0.24338680138031735 222:0.34814917795094474 223:0.42478816508238626 224:1.0430767463293762 225:0.129034890781278 226:0.3782035959332416 227:0.3996097634139725 228:17.161468364682847 229:0.011468059293270891 230:0.3778339913686815 231:0.37800799120857603 232:34.261485871157376 233:-0.10427155674001493 234:0.359956446731878 235:0.3747548546567816 236:-127.84484679359258 237:-0.21732693103073225 238:0.3249611001743108 239:0.39093568726548245 240:-110.22625352236629 241:-0.25676364680890235 242:0.3048724076375749 243:0.3985909623427737 244:-103.895905170638 245:-0.12126351058805535 246:0.30974352201731764 247:0.33263476732270775 248:-122.61982982943356 249:0.014073543322453547 250:0.31434806480864524 251:0.31466294740656897 252:33.436546876480804 253:0.14189238408787946 254:0.31290961859960925 255:0.34357805237572325 256:11.607549951034002 257:0.2683122031311559 258:0.31673297248411364 259:0.4151038595432678 260:-4.268746464430421 261:0.14006726762204322 262:0.31567216175363316 263:0.3453516369807981 264:12.072603520616653 265:0.014055473765963916 266:0.31623843245069366 267:0.31655063181370785 268:33.45511744660837 269:-0.12264126864019463 270:0.311477560617615 271:0.33475237346727865 272:-122.5084410609677 
0.028822206301976443 0.0 0.0 0.0 1:-0.8706696777649621 2:-0.49186818581877934 3:1.0 4:-25.536553862986704 5:-0.8706736863863653 6:-0.26865277970358165 7:0.9111788980261143 8:-37.85200446635244 9:-0.8315794391252443 10:-0.04693517827312022 11:0.8329029202346366 12:-51.76959602660204 13:-0.7976906372950855 14:0.1750996053258732 15:0.8166824502911252 16:-67.38053644931773 17:-0.709057262141937 18:0.3776354522640912 19:0.8033496970827363 20:-83.03923320872384 21:-0.5500769240348774 22:0.5349271586050302 23:0.7672885294131037 24:-99.2000387554342 25:-0.37616847982210233 26:0.6773496354671137 27:0.774793684718134 28:-115.9542438906114 29:-0.17802416114409433 30:0.7784571723236196 31:0.7985537997487359 32:-132.1186268782515 33:0.042456112479896044 34:0.8004759451010695 35:0.8016010604860475 36:31.96395761078159 37:0.2465107258522719 38:0.7513882881945834 39:0.7907919433050644 40:16.836697772782884 41:0.42208483577104483 42:0.63752297967044 43:0.7645856120773828 44:1.4926525140851368 45:0.5647033175171581 46:0.48502124185460527 47:0.7444027417098004 48:-14.340860791896795 49:0.7043792206144456 50:0.33064179896312956 51:0.7781221534277176 52:-29.8542266749873 53:0.7622905213330597 54:0.12953986930603362 55:0.7732188672387995 56:-45.35557218177023 57:0.7769006936537303 58:-0.07894443774282855 59:0.7809013459139243 60:-60.802171116711804 61:0.8048379453942461 62:-0.28717979269996 63:0.8545386776978696 64:-74.63725980499326 65:0.8144491162862213 66:-0.49498179898081046 67:0.9530657607645374 68:-86.28916008163911 69:-0.7015123685574468 70:-0.5442546040883594 71:0.887881004026134 72:-17.19460363294656 73:-0.5604127367584372 74:-0.5797890285174994 75:0.8063608082678293 76:-9.0264241609082 77:-0.4175320243621942 78:-0.5894724381076795 79:0.7223646908983052 80:-0.31050453509424614 81:-0.27406538513750917 82:-0.5719727178588306 83:0.6342433486489146 84:9.398209643862174 85:-0.15610501931110451 86:-0.49397170990013656 87:0.518050989030795 88:17.46241356700709 89:0.14299033296279087 90:-0.5015107575784136 91:0.5214971479190315 92:-129.08613305285292 93:0.2568206495626021 94:-0.5705000505708103 95:0.6256413938855501 96:-120.764268590846 97:0.38848440414308283 98:-0.5886363900062633 99:0.7052750753443736 100:-111.57624743958525 101:0.5226497055050854 102:-0.5817050660353087 103:0.7820124669822694 104:-103.0609757705114 105:0.6532485865123807 106:-0.5542860956370551 107:0.8567186186823501 108:-95.31484304292337 109:-2.5825396014668656E-4 110:-0.3858935144751566 111:0.38589360089161345 112:34.96165558840758 113:0.0066410010395822885 114:-0.23885001577752657 115:0.238942321349175 116:-143.4073548220146 117:0.006589139500177614 118:-0.09365816611641654 119:0.09388966311390769 120:-140.97569678531568 121:0.009769228967146033 122:0.05142970992704705 123:0.052349335218250165 124:24.244630635526477 125:-0.16959586761786194 126:0.12120068409307823 127:0.2084523066259654 128:-90.55127185169066 129:-0.08520428201292288 130:0.1452913295453888 131:0.1684320044243506 132:-114.61104213011778 133:0.0022450465932393336 134:0.14947708190689862 135:0.1494939405113381 136:34.139520105658335 137:0.09964352298343931 138:0.1440736272812048 139:0.17517431818196044 140:0.3316733918966719 141:0.19076082368652433 142:0.1117858521369159 143:0.22110126320656256 144:-24.629695206672643 145:-0.5255701335731418 146:-0.3808707118568798 147:0.6490658398455864 148:-19.069868620264238 149:-0.4218326905372639 150:-0.433698746584385 151:0.6050102656937101 152:-9.205369539562376 153:-0.307716592636579 154:-0.43690831612125663 155:0.534395338751919 156:-0.15721768668409908 157:-0.21391176182145047 158:-0.3733347541576011 159:0.43027558669703003 160:5.188337068577944 161:-0.31859657571563027 162:-0.36841375382037805 163:0.48706516202839584 164:-5.852570383578566 165:-0.4227536713046613 166:-0.37384693905481264 167:0.5643422724218189 168:-13.513224288607347 169:0.18567146125036485 170:-0.38181348950315763 171:0.42456499183213825 172:-119.06688388852629 173:0.28296688266532244 174:-0.4422511403482262 175:0.5250298351757134 176:-112.3875446577043 177:0.39913046746066466 178:-0.44060693746932517 179:0.5945078665597845 180:-102.82766611249633 181:0.5074647135777776 182:-0.400965429873714 183:0.6467562999154999 184:-93.3134838370749 185:0.4017843418555105 186:-0.3805911105140029 187:0.5534259216575852 188:-98.44833342738167 189:0.29350771967106914 190:-0.38401631047719126 191:0.48333767514960546 192:-107.60893868924364 193:-0.27925563121231745 194:0.31286907489413024 195:0.41936948576273253 196:-103.24905150922339 197:-0.18219037147626327 198:0.2977746945131252 199:0.3490889573605041 200:-113.54005123545831 201:-0.08463948395979358 202:0.30632708827696664 203:0.3178051718541167 204:-129.55429658097518 205:0.01229875258554478 206:0.3103443950265939 207:0.3105879953243251 208:32.73059193260569 209:0.11162220237876548 210:0.29295357565919977 211:0.31349850646437943 212:14.141982672494436 213:0.2118812477049159 214:0.2804923584624572 215:0.351524716463613 216:-2.067050617859273 217:0.31140888665086486 218:0.2852437440065551 219:0.4223026026204531 220:-12.510995954723782 221:0.21332151196992652 222:0.3187699326256109 223:0.38356269033271734 224:1.2094783942371805 225:0.11446581818669808 226:0.3508941059088791 227:0.3690922609521119 228:16.933059798184942 229:0.012342095804467688 230:0.3556231934964217 231:0.35583729860912566 232:33.01231667922855 233:-0.08681975643843409 234:0.35297650121492374 235:0.36349701583088423 236:-131.1815680448258 237:-0.18608098908695841 238:0.3426046944116809 239:0.38987704617289537 240:-116.49201628283643 241:-0.20689951380591728 242:0.3216635726881387 243:0.3824589687896238 244:-112.25018251512434 245:-0.1345434799124633 246:0.3204948090102526 247:0.3475900898896195 248:-122.22737244737137 249:0.009797289316968693 250:0.3304647515178195 251:0.3306099497499955 252:33.301849291421064 253:0.16209725985550644 254:0.3087569809509053 255:0.3487210847347509 256:7.300549761194198 257:0.23675307325318565 258:0.3087566468991216 259:0.38907927816733845 260:-2.4808126087596634 261:0.15959020121955533 262:0.30875639636028407 263:0.3475622888327889 264:7.666433271450231 265:0.009798625524103535 266:0.33046416692719827 267:0.33060940501602304 268:33.30161482143191 269:-0.1349206243761528 270:0.3228322528530791 271:0.34989175235241726 272:-122.31858627770737 
0.0 0.0 0.0 0.0019363173633975684 1:-0.8542531314326235 2:-0.4308725880460185 3:0.9567651747905109 4:-31.234301432236485 5:-0.8693293408904553 6:-0.21108062049127427 7:0.8945884703482462 8:-44.35220851817371 9:-0.8282849784301705 10:0.002903772621215237 11:0.8282900683869774 12:-58.200864724821585 13:-0.7736800420134569 14:0.2166489023671699 15:0.8034410708364639 16:-73.64351624090932 17:-0.6941224004014886 18:0.41930641788625267 19:0.8109400587094742 20:-89.13539246744946 21:-0.5716171198775243 22:0.6020413546556055 23:0.8301806577201329 24:-104.48492085437287 25:-0.40357039059967625 26:0.7423922887724907 27:0.8449943021095659 28:-119.47114298584022 29:-0.20775178203487904 30:0.8379610810772719 31:0.8633305139625601 32:-134.0756882331698 33:0.008312875632594079 34:0.8664824296194851 35:0.866522304814232 36:31.45033152316239 37:0.23077582020326867 38:0.8402201388156222 39:0.8713365370864663 40:16.64180057766339 41:0.4301295878792707 42:0.7368411259576695 43:0.8531976953038243 44:1.7258362264059528 45:0.59896486639643 46:0.5910521172938874 47:0.8414876805603755 48:-13.38096972796356 49:0.7234593451846069 50:0.40388634067040563 51:0.8285635765076034 52:-28.826645581101225 53:0.8039366751047569 54:0.1935927045732725 55:0.826917355509295 56:-44.46061417766806 57:0.8560106184668739 58:-0.024470447520900558 59:0.8563603106928257 60:-59.637446552432216 61:0.8803408417915167 62:-0.24761444881125544 63:0.9145014559782276 64:-73.70975886024303 65:0.8815736212421013 66:-0.47204655525709344 67:1.0 68:-86.1672250749585 69:-0.7057335781097902 70:-0.551508978894073 71:0.8956684861445279 72:-19.993473143735706 73:-0.5921761698685984 74:-0.6065917200118185 75:0.8477181907610215 76:-12.311033954114215 77:-0.46569402713428915 78:-0.6233323035708457 79:0.7780835993538798 80:-4.763553873213098 81:-0.3392249712306657 82:-0.6207328979806648 83:0.7073774888572015 84:3.343790559725335 85:-0.22318747319354415 86:-0.5747186084960091 87:0.6165339626834097 88:10.776709021494042 89:0.17821279038952925 90:-0.579335642361892 91:0.6061267071902443 92:-130.90127617126024 93:0.29487529740939467 94:-0.6413373457361171 95:0.7058789075033526 96:-123.30788487310534 97:0.4251592095848758 98:-0.6697023743421406 99:0.7932601236002835 100:-115.59065968980099 101:0.5568225639686252 102:-0.6630745715049147 103:0.8658633004816754 104:-107.9778514813807 105:0.6770138220653594 106:-0.6118183294256367 107:0.9125071964038001 108:-100.10416493294771 109:-0.01973716649692787 110:-0.44524274042486073 111:0.44567999017497667 112:29.461796957810847 113:-0.018232812746115473 114:-0.3075879641912251 115:0.30812788120508877 116:28.607662334200313 117:-0.01984312469847872 118:-0.16979464806033162 119:0.1709502035907862 120:25.33433978996736 121:-0.01668955951926589 122:-0.0341299726309561 123:0.0379920574427989 124:5.941362859269503 125:-0.2347874594052591 126:0.054050175576738885 127:0.24092856321709238 128:-70.96413469913801 129:-0.12326031500043153 130:0.06662400249947291 131:0.14011375008561927 132:-86.3918701486716 133:-0.012050052406205448 134:0.07259872735848451 135:0.07359197630899623 136:-138.57587300711654 137:0.10670634752335778 138:0.06443868228298526 139:0.12465387429255106 140:-26.872726071540395 141:0.22229167299679045 142:0.04708319818974393 143:0.22722327221366814 144:-46.041030937933485 145:-0.5688699684816032 146:-0.39838737387014134 147:0.694496609566532 148:-22.995922660966016 149:-0.4670339380884861 150:-0.4241828709615491 151:0.6309134705675749 152:-15.752748709381358 153:-0.3627318072701719 154:-0.42425227629118517 155:0.5581795033353851 156:-8.530139111418904 157:-0.26495034778547116 158:-0.3914344761078841 159:0.4726728634875243 160:-2.092901863942757 161:-0.36694937691112756 162:-0.3869213246014432 163:0.5332541201404825 164:-11.48244439127582 165:-0.4677789848975188 166:-0.39273223844187294 167:0.6107829318369312 168:-17.98425791705722 169:0.25241782799707846 170:-0.42624445293755386 171:0.4953777281537769 172:-117.36639439193539 173:0.35204777975262047 174:-0.4621271888674249 175:0.5809467943962323 176:-110.69990562728042 177:0.4573677049822558 178:-0.46507632872592825 179:0.6522892066422098 180:-103.47879471194715 181:0.5610057468337789 182:-0.4471151500069549 183:0.7173837225267017 184:-96.55444379908396 185:0.4584304458879321 186:-0.42793888162232374 187:0.6271285036746245 188:-101.02977242987785 189:0.35536678052250026 190:-0.42065114150252425 191:0.550665898296148 192:-107.80882093977739 193:-0.25932571821080086 194:0.35668900169177103 195:0.44099531976362283 196:-111.9815016775355 197:-0.20484948400482964 198:0.27321487779862114 199:0.3414815962062383 200:-111.13838081993521 201:-0.10261128176664366 202:0.25115959691716067 203:0.27131203119173347 204:-125.77752454794108 205:6.167799411663601E-6 206:0.26544770840570464 207:0.2654477084773605 208:31.99866870625017 209:0.10400378160577224 210:0.23785922525636372 211:0.25960315411770085 212:8.38267938683417 213:0.20656653724496177 214:0.276671606179717 215:0.3452780212747961 216:-4.745485954346137 217:0.30249571379062296 218:0.3278619628355432 219:0.4460909363975843 220:-10.69560152596695 221:0.20539621356564955 222:0.37163623817684627 223:0.42461876792405623 224:3.071413816980794 225:0.10678513926948575 226:0.4085830688224641 227:0.4223069856125824 228:17.35309955594957 229:0.00418546974236217 230:0.4275253085728345 231:0.4275457959415127 232:31.439092643850074 233:-0.08837939852304508 234:0.41915677674641333 235:0.428372876797467 236:-136.09355932053563 237:-0.17942827027103062 238:0.4006488392667955 239:0.438992023365214 240:-123.87505402382496 241:-0.1950639643041736 242:0.352178196789453 243:0.4025908996288051 244:-119.01886996663174 245:-0.13080212014354137 246:0.3510252018790485 247:0.37460363984920414 248:-127.56315453214926 249:-0.0027715797041125904 250:0.3556350154245534 251:0.3556458151730153 252:-147.55348433672776 253:0.14966003345367093 254:0.33507668746551733 255:0.36698026118064975 256:7.932353492039439 257:0.2260779187491492 258:0.33655820695313315 259:0.4054413052631107 260:-1.8906386107631334 261:0.14961860686550055 262:0.3380397264407489 263:0.36967091334389507 264:8.125503520609684 265:-4.520517825941331E-4 266:0.3556345641545299 267:0.3556348514589038 268:-147.92717061859238 269:-0.13079363626709678 270:0.35333119169985755 271:0.37676240034803243 272:-127.68681260177968 
0.0 0.0 0.0 0.002539717327860087 1:-0.8827102246201625 2:-0.3309868197413366 3:0.942724570323412 4:-39.44563436416698 5:-0.85513239278962 6:-0.10651931115202609 7:0.8617411286728766 8:-52.899542034605105 9:-0.8139625252369335 10:0.11602804653639606 11:0.8221906713610521 12:-68.11269611905622 13:-0.7425315271136567 14:0.33101657045169475 15:0.8129729630629428 16:-84.02705632196395 17:-0.6615656857259292 18:0.54326394547386 19:0.856040227432008 20:-99.39212639846066 21:-0.5307496087330466 22:0.725839597632701 23:0.8991875603353748 24:-113.82492134692905 25:-0.3502834955992148 26:0.8611536662825331 27:0.9296688465475508 28:-127.86543870302266 29:-0.13999145575137284 30:0.9382996905128547 31:0.9486853624357802 32:-141.51423835961822 33:0.08451180612927149 34:0.9430196939868126 35:0.9467990222968194 36:24.878931204430174 37:0.3042087634879109 38:0.9255742690512092 39:0.9742847116282406 40:11.805842035856017 41:0.4912098575215518 42:0.8096033948671673 43:0.946966092902373 44:-1.2464028345216462 45:0.6539932652558095 46:0.6585260130281175 47:0.9280968165200568 48:-14.802131451483021 49:0.7672742969939633 50:0.4688359300754375 51:0.899175720400235 52:-28.57336598736981 53:0.828639937498091 54:0.25518127895220605 55:0.867041885461437 56:-42.88368257951558 57:0.8653667236211021 58:0.03511000265220216 59:0.8660786792416486 60:-57.67664714092953 61:0.8980639146545326 62:-0.18272484363126829 63:0.9164644910113513 64:-71.50071525802088 65:0.9146867293805093 66:-0.40416356477939336 67:1.0 68:-83.83872242218908 69:-0.7162790328066941 70:-0.5601600115208083 71:0.909304619665756 72:-21.97311297507359 73:-0.5889752187966933 74:-0.630521161157251 75:0.8628144313951297 76:-13.048795466744217 77:-0.44385573887133567 78:-0.6512569320950434 79:0.7881265815405971 80:-4.275880249079236 81:-0.29717800342898837 82:-0.6641357038805262 83:0.72759260502765 84:5.893117465036724 85:-0.15511623602135918 86:-0.634581862558656 87:0.6532650204670742 88:16.26405330312795 89:0.06471908752310512 90:-0.639101476895775 91:0.6423700320377533 92:-144.21761205944102 93:0.21412488444690497 94:-0.689534291993406 95:0.7220159319393501 96:-132.74857554852395 97:0.36810425757193227 98:-0.7118040403511555 99:0.8013524420021523 100:-122.65458530414189 101:0.5225756415071441 102:-0.6916225876835114 103:0.8668489516003578 104:-112.9260642836706 105:0.6641773579432607 106:-0.6286269954070929 107:0.9144962887617639 108:-103.42484089195095 109:-0.03886265477772579 110:-0.47129904678152373 111:0.4728986122135966 112:25.286135363075047 113:-0.03052749091744497 114:-0.34459412411044293 115:0.34594369205574194 116:24.937400326949586 117:-0.025517762496472435 118:-0.21926034490382793 119:0.22074024338613915 120:23.361716926553015 121:-0.018372984081342178 122:-0.09403135982698475 123:0.09580951505443044 124:18.944150339221892 125:-0.2053198317419249 126:0.023229003752986418 127:0.2066296685422706 128:-66.4547521345931 129:-0.10675881887478486 130:0.054668001374944014 131:0.11994180164508952 132:-87.11562955429659 133:-0.004883940598955357 134:0.06070784186612239 135:0.06090398131334475 136:-145.40046547032165 137:0.08813910556411042 138:0.04903112039272366 139:0.10085907344709825 140:-30.913142118006398 141:0.17421046005251148 142:0.01231960291667431 143:0.17464551814384538 144:-55.95496084644568 145:-0.5957876907586841 146:-0.41722717254580344 147:0.7273523808788496 148:-24.996635536304176 149:-0.501516408997382 150:-0.48267921509311706 151:0.6960588575519581 152:-16.096489274801634 153:-0.38493573729801867 154:-0.4901890184905913 155:0.6232662317966043 156:-8.141846011514538 157:-0.27411931175398213 158:-0.4584173350702285 159:0.5341234409472843 160:-0.8781113312468136 161:-0.3796141870682775 162:-0.43120699396626 163:0.5744966515732945 164:-11.359159924089305 165:-0.4884645609342226 166:-0.4236028284338331 167:0.646557795982545 168:-19.067745019177494 169:0.21633836407483661 170:-0.470650935394322 171:0.5179909176405768 172:-125.31375524133436 173:0.3232211688816253 174:-0.5146634266988354 175:0.6077420232258023 176:-117.87017810979144 177:0.43870496374394297 178:-0.5099910310557781 179:0.6727205192135215 180:-109.29719286026791 181:0.5391230613614748 182:-0.4557720656931116 183:0.7059616499201176 184:-100.21101901152764 185:0.4305390827086776 186:-0.45189970921634554 187:0.6241612363239544 188:-106.38665117612591 189:0.3230407902075757 190:-0.45395756244884333 191:0.5571649851187981 192:-114.56396079728879 193:-0.24087614804625837 194:0.3409843415011293 195:0.4174825024435895 196:-114.76207728095173 197:-0.16962021776330624 198:0.28856830935211386 199:0.334727781094442 200:-119.55302227798923 201:-0.08413884000007071 202:0.2673177668881679 203:0.2802465573216456 204:-132.5284928399579 205:0.004226035967417772 206:0.27241246864875657 207:0.2724452467107982 208:29.111220552285587 209:0.09399714483649102 210:0.2702049637087661 211:0.28608772369723917 212:10.818568934087239 213:0.18162798771399735 214:0.28645791680025556 215:0.33918558934391374 216:-2.3766473664055 217:0.2566632400471944 218:0.3334724517046908 219:0.4208086202033664 220:-7.584345177006746 221:0.177106381814231 222:0.3591962335469699 223:0.40048546125128875 224:3.753797748831218 225:0.09594062547124717 226:0.3770760088123044 227:0.38908986113445726 228:15.724949058542578 229:0.01329504324504816 230:0.38144834234984387 231:0.3816799654898478 232:28.003814550346007 233:-0.07273723868094038 234:0.37509269692460323 235:0.3820801449658178 236:-139.0255242554873 237:-0.1576476069823175 238:0.35952986770854106 239:0.3925741888634201 240:-126.32338310841159 241:-0.21375722915143025 242:0.3411522017813965 243:0.4025878510273152 244:-117.92979595221321 245:-0.10665563696239468 246:0.30536732995421284 247:0.3234573095467456 248:-130.7472253909056 249:0.005535630662452932 250:0.29806019176517395 251:0.2981115917268622 252:28.936014188901794 253:0.09605717930426902 254:0.2991268158172459 255:0.3141716626891372 256:12.196863107668591 257:0.1833167380025399 258:0.31727497785837455 259:0.3664265792855697 260:-0.01867968397058206 261:0.0948993227156904 262:0.30805812076326655 263:0.3223440510077579 264:12.878208228506523 265:0.006663613811322913 266:0.3081648116193688 267:0.3082368486560741 268:28.76125552482597 269:-0.10585702034085175 270:0.3148082852652938 271:0.33212944047030535 272:-131.4143344703368 
0.5839249588165832 2.070501989807299E-4 9.989146369265955E-4 0.0 1:-0.923212894133413 2:-0.384288891468134 3:1.0 4:-35.40039912860456 5:-0.9097246503299476 6:-0.1547026303454714 7:0.9227848304202627 8:-48.34892838225376 9:-0.875708117763407 10:0.07157145361174053 11:0.8786280103028964 12:-62.67238786977582 13:-0.8267332602927446 14:0.293172423063376 15:0.8771761244579804 16:-77.52529502423633 17:-0.7198309421321973 18:0.4949568082403207 19:0.8735781746783584 20:-92.51247032568446 21:-0.570422032542078 22:0.6697310183434824 23:0.8797277602422431 24:-107.57836233253724 25:-0.40118264600225856 26:0.8237237842722882 27:0.9162250750930324 28:-122.03227825743728 29:-0.20099982292867252 30:0.9319481766036544 31:0.9533773296508754 32:-135.82904744353567 33:0.021889351623334125 34:0.9635439332502757 35:0.9637925373325432 36:30.698604459314154 37:0.2358206564518671 38:0.9270165493807484 39:0.9565411987129353 40:17.7274484739102 41:0.42548300166972397 42:0.8259260910675521 43:0.9290800248719185 44:4.744346831723242 45:0.5666629075644702 46:0.660183572549189 47:0.8700282755596106 48:-8.640859059730566 49:0.7046119947042784 50:0.4923546103291036 51:0.8595877647997705 52:-23.05569364335495 53:0.8125149486726846 54:0.30526604205986313 55:0.8679676827229625 56:-37.40854249086879 57:0.8427355120969808 58:0.09218273521768211 59:0.8477622308298323 60:-51.75751199593534 61:0.8653565098858021 62:-0.12527476661288206 63:0.8743772963381702 64:-66.2372923749766 65:0.8813353561914232 66:-0.33946785302345234 67:0.9444524515873814 68:-79.06540958157389 69:-0.7152838605214766 70:-0.6263349752363844 71:0.9507504942553906 72:-16.793139972956915 73:-0.5665130151620128 74:-0.6841194230952914 75:0.8882321663868007 76:-7.627843648374707 77:-0.41274598250165895 78:-0.7178527448555969 79:0.8280530232829142 80:2.102258602538747 81:-0.25611070266356945 82:-0.704766934618414 83:0.7498594029218165 84:12.028970403745092 85:-0.11131279914957319 86:-0.644458105988701 87:0.6540006036916611 88:22.200383721004414 89:0.1173115985327402 90:-0.6373195410788615 91:0.6480263949803876 92:-137.57029558348574 93:0.25604684763483854 94:-0.707842209894327 95:0.7527287574497354 96:-128.1134881791687 97:0.40646965009524355 98:-0.7286868521197054 99:0.8343872631462415 100:-118.84673468210221 101:0.5535724664356176 102:-0.681816507908457 103:0.8782461079060334 104:-108.92656872564976 105:0.7007486506283285 106:-0.6397134396667369 107:0.9488318904040224 108:-100.39295407438422 109:0.014237665756125504 110:-0.46805282319801056 111:0.4682693204020644 112:-146.25766100095288 113:0.01715185864336867 114:-0.3322334922173069 115:0.33267593782212357 116:-145.04467653179307 117:0.01687128108925917 118:-0.1967891726600565 119:0.19751105944180017 120:-143.0998561394768 121:0.017788016036277894 122:-0.06189910727441874 123:0.06440429330313996 124:-131.96687723338027 125:-0.19324834588607043 126:0.08278039069570758 127:0.2102320533872899 128:-81.18848810636491 129:-0.09240114558823245 130:0.11992268433754154 131:0.15139161774926432 132:-110.3855334174153 133:0.011780659919024524 134:0.13640548061898983 135:0.13691325389101422 136:27.063898093696707 137:0.11036925630718206 138:0.12581154410912673 139:0.16736163649093297 140:-9.259135641257949 141:0.20232005969841613 142:0.09174043966232069 143:0.22214795705971857 144:-33.60845799957468 145:-0.5102396000144105 146:-0.47646597293860465 147:0.6981147991492493 148:-14.96039341104074 149:-0.4263280245618863 150:-0.529390072985601 151:0.6797127583785229 152:-6.8451629006736425 153:-0.3274107256669729 154:-0.5297616339407515 155:0.6227721670702285 156:0.28252324416306607 157:-0.2445642552984943 158:-0.47753570891432 159:0.5365184323562512 160:4.881282448102759 161:-0.3336411818005518 162:-0.4652581254762068 163:0.5725221056997735 164:-3.644679674573986 165:-0.422623038820683 166:-0.46546333753843566 167:0.6287021166931508 168:-10.238256199083004 169:0.2178629665744975 170:-0.46737762103219965 171:0.5156608506046965 172:-123.00793498059242 173:0.31173667963025287 174:-0.5249530431533852 175:0.6105370217627223 176:-117.29658088324643 177:0.42057879658964675 178:-0.520272664504013 179:0.669006853156902 180:-109.04856675405492 181:0.515005764997243 182:-0.46379312927620747 183:0.6930620497071042 184:-100.00490602260888 185:0.41571817637234365 186:-0.4487303823050225 187:0.6117029983333077 188:-105.18699119544986 189:0.3157905258772454 190:-0.45040013655826355 191:0.5500763031121497 192:-112.96442429787653 193:-0.34032964220044987 194:0.3314805209826238 195:0.47508273084926794 196:-102.24534041608887 197:-0.22507246905326872 198:0.3036157193912755 199:0.37794195505026473 200:-111.45019957438407 201:-0.10628810008428487 202:0.3036788266405009 203:0.32174211718281204 204:-128.7098679311643 205:0.012346445918912945 206:0.30461671840632437 207:0.304866823153105 208:29.6790103191548 209:0.12100941093194531 210:0.3015472544454477 211:0.3249215662243489 212:10.134654374355065 213:0.22936029016715384 214:0.30178851482126257 215:0.3790546799389033 216:-5.234956599837524 217:0.3339133842241694 218:0.32420048687236264 219:0.46540746003079353 220:-13.845549150135987 221:0.22805583154504 222:0.354884502670825 223:0.4218441329894473 224:-0.7256056928208494 225:0.11972556431785138 226:0.3709605977015113 227:0.3898024830581387 228:14.11279043565321 229:0.01157826271251663 230:0.3717002691435092 231:0.37188055373842444 232:30.215844300239766 233:-0.1079554934907921 234:0.3699840243699758 235:0.38541220383356223 236:-131.73358914995686 237:-0.2250948062954409 238:0.3571576348680968 239:0.42217205966969773 240:-115.779254843151 241:-0.24711478698696476 242:0.32687487221255 243:0.40977176578137237 244:-110.91101128446681 245:-0.11756486611094395 246:0.31281375986899596 247:0.3341765193831877 248:-127.40226231786879 249:0.012031000474584337 250:0.3174040631353009 251:0.3176319950307549 252:29.82927886762299 253:0.12015532922516484 254:0.31187723013013435 255:0.3342225453419511 256:10.930080526850304 257:0.22758838389178596 258:0.3187664533041858 259:0.3916740025002995 260:-3.5255432256475245 261:0.12004763829339335 262:0.3180038090074342 263:0.33990860242579635 264:11.318289020031173 265:0.0136116781645304 266:0.326582762830165 267:0.3268663010471385 268:29.613344383237234 269:-0.11753717156272306 270:0.31884554166976165 271:0.33981975537282805 272:-127.76441998275237 
0.8263112285035209 0.004903166107596364 8.156034155877062E-5 0.0 1:-0.8650962207790674 2:-0.5016059497192741 3:1.0 4:-29.893694223071588 5:-0.8436851468106717 6:-0.2647741012233586 7:0.8842567226928965 8:-42.576553739184305 9:-0.8196393457908954 10:-0.03010408230213078 11:0.8201919976077433 12:-57.89656034881768 13:-0.7716100594915897 14:0.19994772588624274 15:0.7970954629125012 16:-74.52754390824106 17:-0.6939513940777114 18:0.4245182942236623 19:0.8135012719553467 20:-91.45582144571512 21:-0.5915066868648388 22:0.6377785557062178 23:0.8698515084337828 24:-107.15566871130879 25:-0.4373922253611494 26:0.8140271293024669 27:0.9240953013876836 28:-121.75001795809263 29:-0.2373354404758974 30:0.9389111201978139 31:0.9684431851879602 32:-135.81408626080602 33:-0.006487307342083875 34:0.9614791604872495 35:0.9615010458693306 36:-149.6134188799219 37:0.22181755367181105 38:0.9296409078025346 39:0.9557380627435884 40:16.579831022427598 41:0.4237829555815913 42:0.8210261523873565 43:0.9239458514141702 44:2.698911178548336 45:0.5949362958418264 46:0.6671821060888805 47:0.8939133955787817 48:-11.72386693103234 49:0.6896891342606385 50:0.4594172152096447 51:0.8286949254992299 52:-26.33153650834879 53:0.7556771147499974 54:0.23656945766843906 55:0.7918415309002301 56:-42.61694370386783 57:0.7948346583170132 58:0.009976173063784337 59:0.7948972626012256 60:-59.28090377790045 61:0.8321031572680567 62:-0.21876463482589562 63:0.8603799333933676 64:-74.73004634813348 65:0.8614130585030522 66:-0.4458879542972445 67:0.9699734662076919 68:-87.36716222354141 69:-0.6811782471627064 70:-0.6187250483052288 71:0.920230672064328 72:-17.750631755072725 73:-0.5411214267409484 74:-0.6554471874210064 75:0.8499549482038842 76:-9.542260578091003 77:-0.39724026300962584 78:-0.651865085580572 79:0.7633661744896241 80:-1.3577246569298467 81:-0.2593099891659649 82:-0.6084878009436911 83:0.6614371280617244 84:6.918489438834044 85:-0.12082826490544085 86:-0.6273566560159465 87:0.6388864088768597 88:19.098378332453393 89:0.19407353288998455 90:-0.604659771350901 91:0.6350417114320316 92:-132.20528152850096 93:0.3228677926015182 94:-0.6164738702466369 95:0.6959049103119221 96:-122.3574591818317 97:0.44867800604169406 98:-0.6509273653428241 99:0.7905810445853738 100:-115.42187585647828 101:0.5777440852568132 102:-0.6562164796227903 103:0.8743044642330039 104:-108.63876344591063 105:0.7017225670083149 106:-0.6211940681487408 107:0.9371748136564071 108:-101.51659310552373 109:-0.01042241468572141 110:-0.47339219113209163 111:0.47350690950895735 112:28.73875419350773 113:-0.01133573523925929 114:-0.3351906243967348 115:0.33538224994308735 116:28.063065311993128 117:-0.013967478156600419 118:-0.19728097618540952 119:0.19777480630940641 120:25.95022081368667 121:-0.016587547843725764 122:-0.06070927324778541 123:0.06293458986711652 124:14.718115877973972 125:-0.218637909804998 126:0.07415594386219626 127:0.2308714785632726 128:-78.73551786314063 129:-0.11809339382642349 130:0.08944348701185079 131:0.14814245520539301 132:-97.14014943955732 133:-0.017628747317743162 134:0.09685037100509114 135:0.0984416938894117 136:-139.683936124584 137:0.08226531520875859 138:0.0958659578464819 139:0.12632443928321968 140:-10.633835502630625 141:0.18026647129876547 142:0.07609949280872236 143:0.19567098272419806 144:-37.112959856539476 145:-0.5110242407312808 146:-0.44565440192428984 147:0.6780513406590083 148:-18.90894379812226 149:-0.4121525951880741 150:-0.49089624372428514 151:0.6409749478902255 152:-10.016553152358327 153:-0.30381518870131985 154:-0.48801014726435793 155:0.5748543926235573 156:-1.9047068126888291 157:-0.21253912974505978 158:-0.4331325366491829 159:0.4824693523706382 160:3.862707180725984 161:-0.31333562951271826 162:-0.4320670252596043 163:0.5337238340554176 164:-5.949676403255786 165:-0.4125893319816938 166:-0.43441194023451135 167:0.5991190955756734 168:-13.524126423848983 169:0.21650465408817274 170:-0.42853275733245816 171:0.48011934906729054 172:-123.19603944271559 173:0.3192970129167063 174:-0.47594187036333196 175:0.5731241108368047 176:-116.14336811929994 177:0.4324318537160117 178:-0.47351322409800833 179:0.6412582018999499 180:-107.59638009031838 181:0.5322090961717116 182:-0.4215419845005028 183:0.6789286904709009 184:-98.38136607206721 185:0.42433054417793237 186:-0.4227944431108229 187:0.599008807821497 188:-104.89610504599955 189:0.32001206409388094 190:-0.42210431822974737 191:0.5296978163385478 192:-112.83295997583585 193:-0.36986355402066495 194:0.34444748305032874 195:0.5054138078569914 196:-102.96220491244264 197:-0.25923994978467324 198:0.27313624627683997 199:0.3765750397922869 200:-106.49521784303494 201:-0.13697357105430077 202:0.2267145305386151 203:0.26487966612164143 204:-118.86098889539706 205:-0.010353340759559869 206:0.24506686711600484 207:0.2452854684300257 208:-147.5808635581825 209:0.12403186961322205 210:0.23306178364170824 211:0.26401079461644317 212:1.978783866387083 213:0.25345270970450884 214:0.2731271183374236 215:0.3726079693563505 216:-12.860274133719088 217:0.37165496117833713 218:0.33648045954404987 219:0.5013447016010504 220:-17.843658690394015 221:0.2507841917235576 222:0.4008907985813765 223:0.4728701124047193 224:-2.028752609766414 225:0.12823870869179654 226:0.4567293003574335 227:0.4743909992948118 228:14.316523085222514 229:-0.004232179694321224 230:0.47026068062454446 231:0.4702797242986612 232:-149.48437218265065 233:-0.13327719443386418 234:0.45765622505144793 235:0.47666763146295504 236:-133.76355131950024 237:-0.251099758735426 238:0.404360468783421 239:0.47598159371107734 240:-118.1605465156011 241:-0.2923385602580494 242:0.32185530638262794 243:0.4348018767903428 244:-107.75138668127988 245:-0.14895109517305166 246:0.3066085756544027 247:0.34087423988631504 248:-124.08942037733291 249:-0.008017202649476352 250:0.33863210795554277 251:0.338726999332408 252:-148.64376097717195 253:0.1364639475611838 254:0.30794257133893377 255:0.33682493409309205 256:6.099598242176242 257:0.2818357740141379 258:0.31427911666694225 259:0.42214069536956716 260:-11.884770798141197 261:0.13545908430753595 262:0.30966740081405747 263:0.33799861338231885 264:6.373790986564131 265:-0.007022959402264622 266:0.3440153979950653 267:0.3440870762125033 268:-148.8304882557691 269:-0.14869744377965094 270:0.30984232372999065 271:0.3436760034698419 272:-124.36303289771159 
0.12447452558174375 0.0 0.0 0.0 1:-0.9284331514596714 2:-0.37149950642048346 3:1.0 4:-39.19187451340052 5:-0.8964045287245647 6:-0.15086883131769868 7:0.9090118169644864 8:-51.44640268066693 9:-0.8673261009504319 10:0.06974487148146995 11:0.870125802679041 12:-65.59747108200983 13:-0.8528023664328671 14:0.29331049790216585 15:0.9018330911943265 16:-79.98000195407414 17:-0.7666362596628039 18:0.4957410489429859 19:0.912956922443149 20:-93.88850288064128 21:-0.6215985747810855 22:0.6643703144265726 23:0.9098201486344099 24:-107.90497383820403 25:-0.44328409566915933 26:0.7972691877507079 27:0.912216502377532 28:-121.92580738311102 29:-0.24267633860651747 30:0.8930479044058641 31:0.9254330688294916 32:-135.79757470379627 33:-0.02738400301935635 34:0.9432460853413306 35:0.9436435032008161 36:-149.33707529163468 37:0.16836558928413456 38:0.8971134783012389 39:0.912775747160682 40:18.37067007599039 41:0.3502968191513652 42:0.818994129256723 43:0.8907632936221284 44:5.842833741759279 45:0.50581482294055 46:0.6932257449893044 47:0.85814367597877 48:-7.116503248613128 49:0.6477136531345248 50:0.5530888127767373 51:0.8517277800304814 52:-20.505673231545806 53:0.7182055232131944 54:0.36734635784193403 55:0.8066985311711387 56:-33.91125298897589 57:0.7498996501312004 58:0.17079608140025734 59:0.7691038854982986 60:-48.1692665186109 61:0.7942882743992569 62:-0.02426762554089566 63:0.794658908272941 64:-62.74999451583356 65:0.8297955907718281 66:-0.2191838463066433 67:0.8582553704732301 68:-75.79628191584688 69:-0.6593034901700235 70:-0.6706571015810097 71:0.9404584201608357 72:-15.510889105810634 73:-0.5319474883351818 74:-0.696637533916845 75:0.8765112572054347 76:-8.365097082575232 77:-0.40493745433747735 78:-0.7171147753806373 79:0.8235459568199813 80:-0.45237160900212103 81:-0.27576659464790765 82:-0.715250650700135 83:0.7665707456266969 84:7.9157357881780115 85:-0.14957099549733735 86:-0.694449756835441 87:0.7103745121151712 88:16.84527894058536 89:0.2395193006283527 90:-0.6722263324861822 91:0.7136229659009851 92:-131.38863404380024 93:0.3644250832795785 94:-0.6880866359135153 95:0.7786326860889583 96:-123.09336912662187 97:0.4894939100511907 98:-0.6828481658325959 99:0.8401701646441294 100:-115.36547480312657 101:0.6127728659706212 102:-0.6547858761619977 103:0.8967915749443033 104:-107.89836350839562 105:0.7296940441007456 106:-0.6108619472809115 107:0.9516331838644172 108:-100.93431984284854 109:0.040788633200364625 110:-0.5115828501558928 111:0.513206318328195 112:-146.4414358003619 113:0.04512450674592192 114:-0.36278910019335414 115:0.365584671899912 116:-143.90983900434293 117:0.04209157180481962 118:-0.21397892795555776 119:0.21807953142376763 120:-139.87149218106265 121:0.03743731041550079 122:-0.06678929641118056 123:0.07656606510881371 124:-121.72812297550735 125:-0.1464453414901837 126:0.04492892775485079 127:0.1531823964865974 128:-78.05583358897273 129:-0.06004837996074947 130:0.06268510035648657 131:0.08680570109510856 132:-107.23071320715005 133:0.026453794136008797 134:0.07020092356567316 135:0.07501981667308857 136:8.35209994077556 137:0.1089087024241631 138:0.06243648753870262 139:0.12553653030048853 140:-31.17469784068605 141:0.18957633285096565 142:0.04717830801234291 143:0.1953585900955666 144:-47.02515072045823 145:-0.5201991183362489 146:-0.4362996830512999 147:0.678943691441695 148:-21.01287785995958 149:-0.43027718221180433 150:-0.5290194562815718 151:0.681909113193672 152:-10.123130462423518 153:-0.3048186210608598 154:-0.5414330462916801 155:0.6213405952954728 156:-0.37885347478395204 157:-0.21916993382464833 158:-0.4515353899904645 159:0.5019159972610373 160:3.108612583046096 161:-0.3212341388277826 162:-0.43853012661818336 163:0.5435991573762665 164:-7.223696494295702 165:-0.4212168007980727 166:-0.41667891431628323 167:0.5924904310707134 168:-16.31030019205385 169:0.23872812412321123 170:-0.43112815927908854 171:0.49281092415931943 172:-122.02543341154723 173:0.32865296754040463 174:-0.5356279684266136 175:0.6284187247639392 176:-119.46737086592535 177:0.4660319789908344 178:-0.513657399971043 179:0.6935630684999927 180:-108.78311595806618 181:0.546569488423247 182:-0.3998286384201571 183:0.6772009640986689 184:-97.18636183455338 185:0.4433033143070777 186:-0.3930994343382895 187:0.5924905009810054 188:-102.56502395134368 189:0.34235503826670244 190:-0.42057107212795125 191:0.5422978876387494 192:-111.85357608661083 193:-0.3259723188294254 194:0.30068818541803194 195:0.44347642270251675 196:-103.68951643747631 197:-0.21355469431854718 198:0.26618592800635754 199:0.34126317664537714 200:-112.26074985375718 201:-0.09873179579844382 202:0.24154072879713553 203:0.26094039773372957 204:-128.7672995813577 205:0.015152518616593108 206:0.2622761692872358 207:0.26271350897206064 208:25.69351819322435 209:0.11664767999570945 210:0.23691318307091613 211:0.2640729777186126 212:2.78599456500541 213:0.21714171118791462 214:0.2670596873406682 215:0.34419674510388854 216:-10.113976315062203 217:0.29841020830801496 218:0.3321208917150618 219:0.4464895733788648 220:-12.939654961881907 221:0.20041778466315247 222:0.36958065160732306 223:0.4204249593587175 224:0.5297182682655688 225:0.10208426486089413 226:0.40574273745226874 227:0.41838781785258744 228:14.877589093795748 229:-0.0011050624361246398 230:0.4177256552581188 231:0.41772711693617925 232:-150.84842859136768 233:-0.11267878629497989 234:0.38499087468691023 235:0.40114147438665815 236:-134.6863490432896 237:-0.21979476603925613 238:0.3424958409042448 239:0.4069559438255658 240:-118.3099113303553 241:-0.18178843511017317 242:0.30960273074143274 243:0.3590276953416794 244:-120.57995999789408 245:-0.08168665271265126 246:0.29519811665109974 247:0.3062917519388232 248:-135.5322719077559 249:0.01809045580273303 250:0.30881202568916966 251:0.3093414485667884 252:25.647398894618178 253:0.09670561612418216 254:0.3058149997422917 255:0.3207410018337779 256:11.451868164988483 257:0.17427454393336989 258:0.3158247301018098 259:0.36071717010292853 260:0.10974427938303677 261:0.09595380593437226 262:0.30959212305167266 263:0.3241209890286854 264:11.779898887814824 265:0.017914682454634557 266:0.31262615804949073 267:0.3131390275009417 268:25.720317974047646 269:-0.08230669182299714 270:0.3017723698869907 271:0.3127953879871897 272:-135.743973597484 
1.0 0.0 8.023077720047342E-4 0.0015385235163414537 1:-0.8665496244229857 2:-0.4990909219895535 3:1.0 4:-25.060125913878263 5:-0.8804464928848698 6:-0.2554333414890887 7:0.9167509033415503 8:-38.821606810787884 9:-0.8474251433795663 10:-0.014723030043519174 11:0.847553031524011 12:-54.00465235419855 13:-0.8125865029356777 14:0.22563717019021134 15:0.84333205638389 16:-70.51878881659037 17:-0.7268603300864435 18:0.4509647392156098 19:0.8553918023158608 20:-86.81663651226675 21:-0.5905782534449727 22:0.654102608123312 23:0.8812677773502408 24:-102.9216502981719 25:-0.42901515623164016 26:0.8349977276223026 27:0.9387625948081164 28:-117.80626360669973 29:-0.21577139738573825 30:0.9440148671876676 31:0.968360142406297 32:-132.12519624911897 33:0.023033654416598798 34:0.9870860239365482 35:0.9873547325488682 36:33.66324546185655 37:0.2533702193309092 38:0.9331360236834537 39:0.9669225960435303 40:19.808990691018025 41:0.4516741126834843 42:0.8025918063281797 43:0.9209577143677897 44:5.630522152358054 45:0.585590487231657 46:0.6065329138229913 47:0.8430886040546496 48:-8.993569589548486 49:0.6869685994352509 50:0.39257835091291565 51:0.7912291818528526 52:-25.253555342081743 53:0.7642583124950221 54:0.1690192561912859 55:0.7827249051749882 56:-42.529496042688045 57:0.8089275791357047 58:-0.06465616902049895 59:0.8115073927443662 60:-59.56983663560979 61:0.823995764656099 62:-0.3008399368394524 63:0.8771964932492349 64:-75.05708172350798 65:0.8232160388401684 66:-0.5376325017082094 67:0.9832259930945303 68:-88.1480705578565 69:-0.675096144038235 70:-0.5967571357960946 71:0.9010404446077056 72:-13.524644902127804 73:-0.5551707440080811 74:-0.6405778959576303 75:0.8476759969422225 76:-5.9145484161408675 77:-0.427349958739101 78:-0.6436118639203131 79:0.7725698794369937 80:1.416353490719402 81:-0.3008688091567683 82:-0.6301975888092638 83:0.6983344766402572 84:9.479266523212587 85:-0.19840417410716363 86:-0.5592902980303652 87:0.5934390059425152 88:15.468228831612166 89:0.13566872741142233 90:-0.5742612030024766 91:0.5900694305514279 92:-131.70764173765187 93:0.2503128306705977 94:-0.6380957252746188 95:0.685436115047981 96:-123.58086615328043 97:0.3767043184858035 98:-0.6692422902613149 99:0.7679787670502771 100:-115.62563067786478 101:0.5066156126509459 102:-0.6772669831469881 103:0.8457836280294836 104:-108.20243138096836 105:0.6247529270702806 106:-0.6287749225168666 107:0.8863826053510837 108:-100.18383522440809 109:-0.008866676094680266 110:-0.4994693919979193 111:0.4995480872626169 112:33.982981198493206 113:2.4863120466205133E-4 114:-0.3456424616061001 115:0.3456425510301073 116:-144.95878539876395 117:0.005082606759788372 118:-0.19151741112940618 119:0.19158484192958647 120:-143.47980621314554 121:0.012350641805809947 122:-0.039636162247509855 123:0.04151582482290754 124:-127.69294786998202 125:-0.15926818836977688 126:0.12142995058391455 127:0.2002787775212408 128:-92.3227807869899 129:-0.07026332948534922 130:0.14682440634188149 131:0.16277082591180975 132:-119.4263923275191 133:0.020854330284549978 134:0.1489309993315957 135:0.15038399400709124 136:27.028883969106417 137:0.11471503344779384 138:0.14331158387467147 139:0.18356946633793828 140:-3.6758371642688417 141:0.20096012994689508 142:0.11079575460794179 143:0.229479134274592 144:-26.130644829788285 145:-0.5619336115368785 146:-0.45281204674106446 147:0.72167037728364 148:-16.137765477429312 149:-0.44933938367436516 150:-0.5067877956526963 151:0.6773032936162184 152:-6.561546223743413 153:-0.3252664743801205 154:-0.5107884317467184 155:0.6055601550316414 156:2.5113030575348105 157:-0.2207666371420063 158:-0.4486040104933432 159:0.4999834660323298 160:8.797316554889626 161:-0.33636061899626934 162:-0.43571190406857957 163:0.5504392149534957 164:-2.6674014224984575 165:-0.4509786914198273 166:-0.4273096582500503 167:0.6212691237688499 168:-11.543692969323402 169:0.1846020424501789 170:-0.4520122863524638 171:0.4882550778951094 172:-122.78487112902646 173:0.27914794210759913 174:-0.5198227542241401 175:0.5900332782073214 176:-116.76393434726526 177:0.39629834219011423 178:-0.5251624616506504 179:0.6579118384324785 180:-107.96104848320925 181:0.5039406444781183 182:-0.48041291563074684 183:0.6962418708048635 184:-98.63079385375318 185:0.40326924477104037 186:-0.43793115625742923 187:0.5953232579021033 188:-102.35955474542727 189:0.2930174393927367 190:-0.43940651911949086 191:0.5281451588654237 192:-111.30273294736686 193:-0.32460547457054223 194:0.3397455602632671 195:0.46988909312705707 196:-101.30550392820632 197:-0.20543412224205115 198:0.30894395675670316 199:0.37101151868621235 200:-111.3778438807592 201:-0.08111508398989616 202:0.30788565161867815 203:0.31839163199328263 204:-130.2403318333749 205:0.041789753282257376 206:0.30397249041941327 207:0.3068316450615422 208:27.1721193127254 209:0.1501554165144895 210:0.29280758990048905 211:0.32906372302636583 212:7.850678040217552 213:0.2588105934306603 214:0.30201277059976767 215:0.3977368940358418 216:-5.595006097336579 217:0.3661653572742845 218:0.3036631537956141 219:0.47569778204328766 220:-15.330876355813679 221:0.2720652974030476 222:0.3827664189476625 223:0.4696058533760266 224:-0.40471028210586013 225:0.1541604968975197 226:0.4137031147312108 227:0.4414926114240142 228:14.562816743957114 229:0.03127146154183829 230:0.41597986050008245 231:0.4171536271550695 232:30.70085208412914 233:-0.09172381348441104 234:0.4145365952808551 235:0.4245631246200811 236:-132.52328572463847 237:-0.2090171362578766 238:0.3803906995680291 239:0.43403369404609404 240:-116.21207927865876 241:-0.23542136269613168 242:0.35325408251899076 243:0.42451344481657766 244:-111.31906910902164 245:-0.14623718027745133 246:0.3523003239890551 247:0.381445711967369 248:-122.45703473152959 249:0.03140126299857499 250:0.36086312856602626 251:0.36222677548238486 252:30.026814450612818 253:0.2009381906789358 254:0.34034737343034444 255:0.39523725921812924 256:4.442759511358098 257:0.28355180924874523 258:0.3412082957010051 259:0.4436493317738925 260:-4.727347751797737 261:0.19920844517937789 262:0.3420692179716661 263:0.39584764053172333 264:4.785062663418628 265:0.03135181146532921 266:0.3608668674123342 267:0.3622262167184324 268:30.034658356203906 269:-0.14772559382945655 270:0.3542078410489264 271:0.38377864157976155 272:-122.36098041664766 
0.3872096841092803 0.0 0.0 0.0 1:-0.8580405239589294 2:-0.43253292055913284 3:0.9608945145660512 4:-29.24760963847777 5:-0.8535653629428764 6:-0.20169694836335536 7:0.8770721109435041 8:-42.704917661992866 9:-0.8194588829608328 10:0.027722991906486767 11:0.8199276950705244 12:-57.93762602116378 13:-0.7642615772158468 14:0.2516448970601817 15:0.8046247029670933 16:-74.22492579602103 17:-0.6800213771739346 18:0.4641705507238312 19:0.8233367315824064 20:-90.3167530618033 21:-0.5495292538626337 22:0.653884329084208 23:0.8541353034927943 24:-105.95605650936602 25:-0.3787893153984917 26:0.8089151657818952 27:0.8932105523850516 28:-120.90779763455463 29:-0.17602877904912476 30:0.9182463833722905 31:0.9349666045532412 32:-135.1479961800828 33:0.04922703790355362 34:0.9503129036969296 35:0.9515870512957012 36:31.034679026700232 37:0.27160872759346855 38:0.9019250081405039 39:0.9419341915517193 40:17.24067404032708 41:0.4710675563198127 42:0.7942246160035896 43:0.9234161484851612 44:3.3271299874560682 45:0.6366335408831021 46:0.6406938608730512 47:0.9032114308055302 48:-10.817870958524992 49:0.7579367770190552 50:0.44932787804118035 51:0.8811150321853684 52:-25.339253679607314 53:0.8429233131771605 54:0.23894035772054045 55:0.8761348106571164 56:-40.17375370010522 57:0.8941404940849214 58:0.0183759617422988 59:0.8943293012824647 60:-54.822649387329875 61:0.9100911710368661 62:-0.20826833367266645 63:0.9336175011266891 64:-68.88980835001257 65:0.9011981169880298 66:-0.4334073764222631 67:1.0 68:-81.68399598913699 69:-0.7171862916209615 70:-0.6879885685596924 71:0.9938231469219466 72:-12.190361179058918 73:-0.6033840035847469 74:-0.7148907053742136 75:0.9354896987206212 76:-6.165126298070227 77:-0.488134271130426 78:-0.7335576753223633 79:0.8811253768201106 80:0.35885276269726774 81:-0.3720334685258193 82:-0.7176465148224862 83:0.8083473399103958 84:6.597429498050133 85:-0.25851119159917535 86:-0.6928063341279458 87:0.7394651126252194 88:13.537629354711427 89:0.16361149898262692 90:-0.6860182257768281 91:0.7052586253973285 92:-132.5858613352743 93:0.2783935171800576 94:-0.7333322308760966 95:0.7843972917148527 96:-125.21183120599392 97:0.3984591628689412 98:-0.7593261839182036 99:0.857523153074014 100:-118.31159473428684 101:0.5215884141210284 102:-0.7558267396737035 103:0.9183292079374749 104:-111.39083430188305 105:0.6421279485124384 106:-0.7332498020268624 107:0.9746710083065082 108:-104.7904342153016 109:-0.013428612266285946 110:-0.5199014806628505 111:0.520074876554158 112:32.52042780489299 113:-0.01961023569485498 114:-0.3974974952312256 115:0.39798092926559425 116:31.175646307775594 117:-0.020414765961162984 118:-0.2753871818701401 119:0.27614283008549523 120:29.760353373273958 121:-0.027014708081538195 122:-0.15437947013841716 123:0.15672528593991833 124:24.074366386869386 125:-0.1481281571947696 126:0.09324126943409287 127:0.17503109803574757 128:-88.18891743256421 129:-0.08068136875347962 130:0.08378062947021174 131:0.11631284167433907 132:-102.0796022455049 133:-0.013536819426048521 134:0.08197599337209092 135:0.08308615389771355 136:-136.62327989058983 137:0.04888312128165536 138:0.08005936826625569 139:0.09380331547141058 140:2.5923495383991977 141:0.10929690742180864 142:0.09084133959613762 143:0.14211953754354892 144:-16.268578631832625 145:-0.5585171628325453 146:-0.4745183018943789 147:0.7328772339288763 148:-15.648644984626195 149:-0.4650780421411274 150:-0.5520218730256594 151:0.7218211229803277 152:-6.1141143658662855 153:-0.34306790916047847 154:-0.5519118135322062 155:0.6498478592810405 156:2.13495136674932 157:-0.26074309933527406 158:-0.46558619447689803 159:0.5336267125420583 160:4.7497843277640115 161:-0.36022468688675086 162:-0.41817108283034815 163:0.551931951927195 164:-6.742562753264075 165:-0.4691241563660824 166:-0.4142923732626862 167:0.6258719075256672 168:-14.55167087801037 169:0.23879672013891123 170:-0.4859435732789115 171:0.541447162667031 172:-119.83011374300247 173:0.3228664283007127 174:-0.5752881103471358 175:0.6596962486102506 176:-116.69774312948552 177:0.44587504632119573 178:-0.5777325733742373 179:0.7297804349731136 180:-108.34021813397227 181:0.552214590640042 182:-0.5132276767365602 183:0.7538856692391468 184:-98.9043543843503 185:0.46027686358547065 186:-0.4423286785598819 187:0.6383646693141855 188:-99.86083156354273 189:0.344981826136299 190:-0.4382419673548735 191:0.5577351363464611 192:-107.79036046351416 193:-0.2893010681081006 194:0.37441865460480356 195:0.47316428111656844 196:-108.30790945377603 197:-0.1958626420418167 198:0.35378728477771426 199:0.40438548121561974 200:-117.03034243052886 201:-0.10186612327065278 202:0.3375532779516699 203:0.35258888599345994 204:-129.20734574969026 205:-0.011186362333747544 206:0.3626436780555897 207:0.36281616823943785 208:-144.23317427429802 209:0.10432030423958107 210:0.3431291110828243 211:0.35863674205124035 212:17.089344186945027 213:0.22063921913626233 214:0.35678482377261717 215:0.4194962163065563 216:2.266948654852655 217:0.3334220290174828 218:0.38574436305346366 219:0.5098715162289982 220:-6.838826295403628 221:0.22453815001338065 222:0.4460414521711059 223:0.49936996091709435 224:7.279225854272532 225:0.11411011933640604 226:0.5043098499946278 227:0.5170585500081908 228:21.25038360143003 229:-0.007085295542636576 230:0.5153076181994716 231:0.5153563260379549 232:-145.21225315266236 233:-0.11438836210290544 234:0.4976704686027557 235:0.5106472292139378 236:-133.05552900700542 237:-0.21193657636476038 238:0.4495009940606865 239:0.496959008433051 240:-120.75645012513363 241:-0.22955373619373085 242:0.39077468391271974 243:0.4532105155306825 244:-115.56864088734474 245:-0.12002647995440792 246:0.409427452635908 247:0.426658170977862 248:-129.66113724648142 249:-0.009821269584304942 250:0.4212373148029626 251:0.421351792115161 252:-144.6643743437819 253:0.11212580687029165 254:0.4059412834495239 255:0.42114192640363013 256:18.559214804186155 257:0.23292790956235154 258:0.3977034152631867 259:0.4608941500660317 260:3.643242804291198 261:0.1115889388222832 262:0.40807478595830665 263:0.42305687821190313 264:18.706229858360047 265:-0.007241431836644936 266:0.42632907139629234 267:0.42639056679606513 268:-145.02689350664596 269:-0.11908788703723897 270:0.41231531804021004 271:0.42916878536258174 272:-129.88984302306326 
0.998089867296892 0.0 0.0 0.0 1:-0.8908996319196935 2:-0.4542002266020513 3:1.0 4:-35.98651279813435 5:-0.8798515367646217 6:-0.22748343365673726 7:0.9087834942027312 8:-48.50376274059793 9:-0.8520002912211931 10:-0.0013029985618568632 11:0.8520012875848546 12:-62.912375311521345 13:-0.8396205632468899 14:0.2240518126078418 15:0.8690005206902262 16:-77.94116403705452 17:-0.7678410639678926 18:0.43902802494641413 19:0.8844916654235329 20:-92.7596003009146 21:-0.6405131338356734 22:0.6268615199658126 23:0.8962212002791745 24:-107.38285840986751 25:-0.471413710544075 26:0.7738911325578579 27:0.9061668563463448 28:-121.6524283583164 29:-0.25586715283170625 30:0.8435570378961774 31:0.8815080692100197 32:-136.12643536201654 33:-0.03179890586753516 34:0.8744653412587292 35:0.8750433152005208 36:-150.91742384602696 37:0.18624337801290133 38:0.8763968414611004 39:0.8959676442688372 40:15.002534648328535 41:0.39400075616189423 42:0.8116971665741836 43:0.9022687438234255 44:1.107895118407626 45:0.5694811509016922 46:0.6855812927191471 47:0.8912522034524082 48:-12.71486813183018 49:0.6930016514702861 50:0.5069830595527536 51:0.8586519152800015 52:-26.811710362498573 53:0.775938981776623 54:0.30497188830371247 55:0.8337200705848904 56:-41.5433907753384 57:0.8431933441555917 58:0.09878157479636611 59:0.8489598430712375 60:-56.31815654708845 61:0.908687797843082 62:-0.11034663346157511 63:0.9153632576552398 64:-69.92382001567282 65:0.9457700878096088 66:-0.32238098170375834 67:0.9992049621372354 68:-81.8225043618478 69:-0.68335957545293 70:-0.7012542108077752 71:0.9791515600451466 72:-17.25955525368643 73:-0.5671482116907317 74:-0.7537837887951422 75:0.9433170698521015 76:-9.957865189169986 77:-0.4425210078979075 78:-0.7700555430153078 79:0.8881499770644484 80:-2.8843092816370515 81:-0.32244159935402006 82:-0.7342762735004127 83:0.8019540079204239 84:3.292355684480313 85:-0.20159594168245448 86:-0.6968546871631905 87:0.7254290997224634 88:10.86515614994164 89:0.23406597344604577 90:-0.657430731262231 91:0.6978553190549146 92:-133.4026745824994 93:0.37113368582064604 94:-0.6872669804815477 95:0.7810736938413955 96:-124.63033946757153 97:0.5085207651422666 98:-0.7002295407299575 99:0.8653986239252772 100:-117.01209319386909 101:0.6433438951649828 102:-0.6675392491899472 103:0.9270922374042029 104:-109.05740491375411 105:0.770113470655492 106:-0.6125587655641044 107:0.9840238812927594 108:-101.49921855618479 109:0.03505695073264289 110:-0.45142333844023147 111:0.4527825308944623 112:-148.55939670047314 113:0.02780338476736447 114:-0.3352454660331713 115:0.33639641897665956 116:-148.25905807668101 117:0.018491134144894183 118:-0.21819475102491967 119:0.21897687415978692 120:-148.15598566360325 121:-0.001676863751040032 122:-0.10491094517531091 123:0.10492434555248198 124:26.084280148592384 125:-0.1658218819339145 126:0.054349958397277534 127:0.1745016174878929 128:-81.14712993932011 129:-0.08155721893295724 130:0.05689480521954815 131:0.0994414341260656 132:-97.89985881731938 133:1.4605830492063062E-4 134:0.0631188221194701 135:0.06311899111026525 136:26.867416576912206 137:0.0790298596083958 138:0.06767521761762745 139:0.10404640209692974 140:-22.42574080517862 141:0.15851667069376432 142:0.07488942090378033 143:0.1753167426435333 144:-37.712133618511984 145:-0.5572101275480515 146:-0.48241698273735717 147:0.7370273207117437 148:-22.114899641707567 149:-0.44154562386370105 150:-0.525085961519734 151:0.6860596219996398 152:-13.0605329579221 153:-0.319301846830852 154:-0.51294563471364 155:0.6042076576487356 156:-4.901715509476361 157:-0.2164390621955445 158:-0.4460463633938388 159:0.4957854636240914 160:1.1155328534711373 161:-0.3353379211444902 162:-0.41507934679141545 163:0.5336125799588092 164:-11.934353444487364 165:-0.4561399987070242 166:-0.42053455102783405 167:0.6204135774051258 168:-20.325744823266483 169:0.2811213274150642 170:-0.4152994800935822 171:0.5015006070720228 172:-118.90544537898487 173:0.38607537842095707 174:-0.4744256146225926 175:0.611664827853384 176:-113.8621890986262 177:0.5038533106565776 178:-0.47779815273764625 179:0.6943768669959425 180:-106.47960276878757 181:0.6050822960240746 182:-0.4161533856075475 183:0.7343760789366643 184:-97.51876507624897 185:0.5037439055631268 186:-0.36903940109336186 187:0.6244581666944067 188:-99.22625457066883 189:0.39052815745494673 190:-0.3833303690675455 191:0.5472242809073956 192:-107.46709767955402 193:-0.3651234785102277 194:0.37010910086972965 195:0.5198998952740888 196:-108.3885175238857 197:-0.2551637516791023 198:0.33133851582542684 199:0.41820300362425805 200:-115.40013635120707 201:-0.14222205382012634 202:0.31202582925342665 203:0.34290994548730064 204:-128.49639795353042 205:-0.028352107908249307 206:0.3298485226479504 207:0.33106478205311485 208:-148.0872202721777 209:0.09989340266004981 210:0.31593737144944395 211:0.3313534586712304 212:9.45403390304294 213:0.224504315596177 214:0.3506519466497634 215:0.4163639938930555 216:-5.629334874388967 217:0.3493236191864971 218:0.3855190108843417 219:0.5202421538810499 220:-15.180119413217348 221:0.2221195657209367 222:0.3912337937967569 223:0.44988996753057386 224:-2.585365085830013 225:0.10033796938899357 226:0.4228347480003867 227:0.4345767276530776 228:13.650721231934114 229:-0.024837748375758903 230:0.4266399448070021 231:0.42736232432129456 232:-149.6681655191864 233:-0.1404895997703906 234:0.414915903141069 235:0.4380554009745954 236:-134.2940142283411 237:-0.2489667759474031 238:0.377936485386374 239:0.4525709253938539 240:-119.62498783936417 241:-0.2052735405607292 242:0.3496395980828487 243:0.40544429333987836 244:-122.58278873042809 245:-0.11596689875946431 246:0.3282504474922869 247:0.3481331324174337 248:-133.5423037595732 249:-0.02800065541605931 250:0.34697823442257936 251:0.3481062077394474 252:-148.38630904874142 253:0.06480231847221461 254:0.3359770271647005 255:0.34216940725582734 256:16.08300791442055 257:0.1556768518621663 258:0.35225051797365137 259:0.3851177866814522 260:3.157003960784209 261:0.06574123414193779 262:0.34003336778749965 263:0.34633019082288236 264:16.057579117048803 265:-0.0242812130175379 266:0.34730214957832195 267:0.3481499108248143 268:-149.00074190365353 269:-0.11476195422682937 270:0.3322763564639978 271:0.35153646070208794 272:-133.94605800861137 
0.003216615988056457 0.0 0.0 0.0 1:-0.8918837109281619 2:-0.45226479653076135 3:1.0 4:-40.110915947297286 5:-0.8964556486566779 6:-0.2191233455975727 7:0.9228476421351136 8:-53.26435031997332 9:-0.8624718623768616 10:0.008850190247999414 11:0.8625172689629106 12:-67.58791570417385 13:-0.8056836759407112 14:0.23458576199954104 15:0.8391404324725643 16:-83.23363745153794 17:-0.7227607711178372 18:0.45117373174166886 19:0.8520216361575299 20:-98.97391952787578 21:-0.6000640339462592 22:0.6476795817201348 23:0.8829301701794011 24:-114.18542232228216 25:-0.4332573835854813 26:0.8086139308376336 27:0.917370399334983 28:-128.81748181734997 29:-0.23149452003972434 30:0.9219018685555805 31:0.9505223658887219 32:-142.90416389136206 33:-0.005333511517173999 34:0.9566544764695164 35:0.9566693439711905 36:-156.68056958771598 37:0.2155061834706246 38:0.931509259373414 39:0.9561131812774473 40:9.9737055525772 41:0.3956580244437036 42:0.7958226414202667 43:0.8887513425609126 44:-3.4351221981615296 45:0.5448697238559473 46:0.6258198287148448 47:0.8297791718207526 48:-18.044443768493508 49:0.666218804175262 50:0.4345907091535448 51:0.7954348367523874 52:-33.88261352331819 53:0.7338705006039121 54:0.21897008465424067 55:0.7658418959746991 56:-50.38610626764939 57:0.7900622353924766 58:-4.949190376511796E-4 59:0.7900623904086378 60:-67.03589181595902 61:0.8323887561227309 62:-0.2238732770189442 63:0.8619688425243386 64:-82.05363645096571 65:0.8240072655275219 66:-0.44848803732502873 67:0.938152169568349 68:-95.55842714227386 69:-0.6991539426004499 70:-0.5693571376975644 71:0.9016561349544051 72:-27.842295765765968 73:-0.5609243930574437 74:-0.6700135534620787 75:0.8738159626315735 76:-16.935519074068722 77:-0.3925005544739496 78:-0.6996647144317899 79:0.8022389905030022 80:-6.2917181281992285 81:-0.22241094697577982 82:-0.68475538815159 83:0.7199698402970071 84:5.0060219998536155 85:-0.07093011594049402 86:-0.6085612140648367 87:0.6126808570629573 88:16.35195554816434 89:0.15946195240088223 90:-0.60557577131851 91:0.6262189146548591 92:-142.24759713435935 93:0.31400343478510934 94:-0.6393094043002594 95:0.7122602554429097 96:-130.84155915942918 97:0.4670968466692575 98:-0.6656376323888464 99:0.8131745949183318 100:-121.94156973339116 101:0.6158854129974194 102:-0.6194849586949261 103:0.8735424752078494 104:-112.1669444222669 105:0.7145693984639825 106:-0.5014628088311088 107:0.8729687129914582 108:-102.05999641386177 109:0.050974559461201746 110:-0.5388136368211508 111:0.54121949423196 112:-151.59560769269797 113:0.053022672650252574 114:-0.37611479902860717 115:0.379833839808021 116:-148.97562404688375 117:0.056680182179766656 118:-0.21281673161306613 119:0.2202353384595655 120:-142.0864167830995 121:0.059459783723620686 122:-0.05173230406782662 123:0.07881432080926548 124:-108.02452621758982 125:-0.1577715244706057 126:0.05009472343306534 127:0.165533486792293 128:-84.61539032836735 129:-0.05914906099609157 130:0.07951172140220228 131:0.09909957243631677 132:-120.35430560009794 133:0.04079571877448995 134:0.09591519192102028 135:0.10423058433863559 136:-0.04156076112553819 137:0.12580095331282973 138:0.09119093983333436 139:0.15537589054323575 140:-31.06229211474988 141:0.20708309099973488 142:0.07025638815120454 143:0.21867639711239345 144:-48.259638707664124 145:-0.5278143816779184 146:-0.42855518292313344 147:0.6798879071702362 148:-27.925370322216374 149:-0.4137631782766757 150:-0.5048614246033329 151:0.6527518868223385 152:-16.336603801007456 153:-0.27763499774403133 154:-0.5033510190452306 155:0.5748421003599166 156:-5.8799571033877385 157:-0.17129436999827338 158:-0.42009597677188937 159:0.45367652671593356 160:0.816793808441787 161:-0.29172983518455997 162:-0.40735089660405743 163:0.5010399681671514 164:-12.608855229054527 165:-0.4121552048016672 166:-0.39951978391789533 167:0.5740104272458001 168:-22.891856750216412 169:0.18993654593598105 170:-0.39318146036039425 171:0.4366549578937852 172:-131.21592448540173 173:0.2979112330234203 174:-0.47818046139293163 175:0.563389435842998 176:-125.07667898504522 177:0.4336249531757079 178:-0.4822365765163053 179:0.6485234889707551 180:-115.03826466144412 181:0.5346645262805717 182:-0.3930987308975179 183:0.6636209519718823 184:-103.32425575643637 185:0.42157890647920837 186:-0.36422540304314005 187:0.5571255860307827 188:-107.82555469331204 189:0.30603193270739915 190:-0.38229437145464235 191:0.48969840747395343 192:-118.32224473623091 193:-0.34289519612051966 194:0.3296548561447387 195:0.4756568507888203 196:-110.87217670289539 197:-0.2410169454632518 198:0.27647322710371863 199:0.366778697998644 200:-115.91954365066935 201:-0.13224931578445812 202:0.24593690831007708 203:0.27923976148567486 204:-128.73144680882012 205:-0.02042435477611753 206:0.2571286259341689 207:0.25793852861256394 208:-152.4583920521315 209:0.10333953148661959 210:0.2503116775398457 211:0.2708043476029987 212:0.5670387845556775 213:0.2183487298719827 214:0.29915133101205726 215:0.3703615621024859 216:-13.125477977029426 217:0.33760545266214925 218:0.3332119520264372 219:0.4743497092235679 220:-22.375251808750768 221:0.20958353989244166 222:0.3609749705375248 223:0.4174065039603643 224:-7.139625127004642 225:0.09175185073308467 226:0.4222850233892789 227:0.43213775939141225 228:10.741606011703169 229:-0.03646770482385584 230:0.4310758927025055 231:0.43261567096486686 232:-152.1644653940367 233:-0.14531928356448723 234:0.4251951220219949 235:0.4493423927997391 236:-138.13106911072663 237:-0.24151088304258822 238:0.3708365122277987 239:0.4425462974981138 240:-123.92542236591922 241:-0.26473103093373795 242:0.30138651713067593 243:0.4011438039499039 244:-115.70466706667642 245:-0.18656686574695647 246:0.29962988809338176 247:0.3529663797495384 248:-125.09122337049772 249:-0.0306578741495952 250:0.3249545895032921 251:0.3263975957120786 252:-151.6103770205051 253:0.15479915454974755 254:0.31832728874745514 255:0.3539703956697824 256:-2.933159007283848 257:0.24620233748369724 258:0.32008635698267235 259:0.40382033989 260:-14.566574803888727 261:0.15348727260034947 262:0.3218453574623912 263:0.3565708582741842 264:-2.4963613949851293 265:-0.03057317977728108 266:0.3297454452453661 267:0.33115974692247646 268:-151.7028219315626 269:-0.18723120840338905 270:0.3031431461679701 271:0.3563022487563173 272:-125.29915373680922 
0.13727033023576862 0.004702335941825656 0.0 0.001951440650124945 1:-0.9234287974562246 2:-0.38376979561782965 3:1.0 4:-33.43261111725104 5:-0.8697601495598949 6:-0.16484347499750762 7:0.8852435196101153 8:-45.26816364821134 9:-0.8286177793480751 10:0.05533365119031599 11:0.8304632666203767 12:-59.82044016318875 13:-0.7690331987301906 14:0.2700948887966933 15:0.81508484816201 16:-75.35196660798682 17:-0.6593845617812024 18:0.46345814505905925 19:0.8059661609130823 20:-91.1020306219429 21:-0.5212413855489734 22:0.6419063572354187 23:0.8268835186822012 24:-106.92267941476317 25:-0.3648950804569598 26:0.8010165533099615 27:0.8802135754566964 28:-121.50883708120497 29:-0.18320071608289265 30:0.928081406395393 31:0.9459902744056808 32:-134.83353006364155 33:0.034785524481255624 34:0.959704276851086 35:0.9603344894981655 36:31.924160951057473 37:0.25049555065436935 38:0.9122648485142743 39:0.9460312757686226 40:18.64578073384871 41:0.43322191012046246 42:0.793315083200069 43:0.9038971427331511 44:5.361460995965778 45:0.5696731471577096 46:0.6194648182391388 47:0.841584312846086 48:-8.602307580372816 49:0.6719016208421994 50:0.4251543833867792 51:0.7951151097818272 52:-23.675891418996677 53:0.7397687999933048 54:0.21637881976721685 55:0.7707643421224076 56:-39.696055579369315 57:0.7816781045807044 58:6.724526321548528E-4 59:0.7816783938253795 60:-55.95071028852589 61:0.7976557333168469 62:-0.22052327656842619 63:0.8275779023159762 64:-71.45421767957951 65:0.7947008405480329 66:-0.43911164843431805 67:0.9079473915147585 68:-84.9228284793694 69:-0.6562763553180333 70:-0.5897758333362633 71:0.8823458438373273 72:-14.054918555036465 73:-0.5484374785892834 74:-0.6291736473859215 75:0.834651512001431 76:-7.077980017014582 77:-0.432685127085941 78:-0.6209384699858472 79:0.7568229665580596 80:-0.8697279847517265 81:-0.31646200374690164 82:-0.6128006961787021 83:0.6896904327686487 84:6.687304225461872 85:-0.2036802788759948 86:-0.5868016208465376 87:0.6211455531766502 88:14.857986991081972 89:0.1566955247598302 90:-0.6118705687060284 91:0.6316162445095892 92:-131.63568430248844 93:0.2654602112963532 94:-0.6282607905728503 95:0.6820416004561066 96:-123.09439242447911 97:0.3757062227976184 98:-0.6313872190455156 99:0.7347142207844377 100:-115.24528845672336 101:0.485303340490842 102:-0.6287298792510438 103:0.7942421503260844 104:-108.33620642433661 105:0.5920510188918943 106:-0.6090770395152824 107:0.8494111189733926 108:-101.81211473432448 109:0.013743128455082295 110:-0.505147771763726 111:0.5053346860226303 112:-144.4415865791077 113:0.027856477304020442 114:-0.3608951728777824 115:0.36196865766841446 116:-141.58625250043156 117:0.03169473503921134 118:-0.21674612476869448 119:0.21905122421810905 120:-137.68061539449008 121:0.03959050006963462 122:-0.07348834514817408 123:0.0834742149911031 124:-117.68724635197242 125:-0.12324452356050443 126:0.05602791707019474 127:0.13538220000753554 128:-80.4469133853387 129:-0.04151749371666433 130:0.06513833637217122 131:0.07724445060874849 132:-113.48761548519656 133:0.0395702289988297 134:0.07680313013785238 135:0.08639747578483825 136:6.741735649364784 137:0.10631627889097615 138:0.06219595751349309 139:0.12317259552450804 140:-25.67199072549251 141:0.17361733167476398 142:0.05055041028796253 143:0.1808267730125889 144:-39.76655650578773 145:-0.5173210189999085 146:-0.4357884368952469 147:0.6764115599475709 148:-15.889394096779455 149:-0.41693648095105706 150:-0.48482452307618124 151:0.6394457344637603 152:-6.694674452948128 153:-0.304957036763307 154:-0.48803898800436385 155:0.5754831431795205 156:2.0003013720596954 157:-0.20146282863606596 158:-0.4461656883513901 159:0.4895417171029601 160:9.698795069368657 161:-0.304254135553627 162:-0.40862454338978943 163:0.5094551957356003 164:-2.670675109530251 165:-0.4129587406853458 166:-0.4055099702004108 167:0.578768742625554 168:-11.521426565719999 169:0.21157977827760668 170:-0.4357063280813727 171:0.4843614424230669 172:-120.09870682569085 173:0.3019542859291564 174:-0.49622432930617744 175:0.5808743201298817 176:-114.67933719094732 177:0.4099357919611512 178:-0.500067124248552 179:0.6466177250006631 180:-106.65641814504417 181:0.49966996795370056 182:-0.44261583599541326 183:0.6675169324809452 184:-97.53504818376761 185:0.40647046338416243 186:-0.40865366933267894 187:0.5763818691308724 188:-101.1534590653418 189:0.30736080737319077 190:-0.40974172088765254 191:0.51220986299082 192:-109.12522376437569 193:-0.32861608408082 194:0.36668215033652973 195:0.492386362617847 196:-104.13369092858711 197:-0.23103744277132865 198:0.28480005046007006 199:0.36672792190447323 200:-106.95010842340795 201:-0.10504878595758417 202:0.26039251031875615 203:0.28078373681761887 204:-124.02963166668076 205:0.02084093046724941 206:0.28063372337318787 207:0.28140652280471334 208:29.752793414189938 209:0.12084522128179617 210:0.2550862465173308 211:0.282263282537681 212:8.651091800738513 213:0.22241382404409085 214:0.268650300573988 215:0.3487705450929162 216:-5.6211345915586435 217:0.30328156539193285 218:0.33060044929212334 219:0.4486383454172582 220:-8.532208391824042 221:0.20405840602060576 222:0.3687102819476775 223:0.42141085069277257 224:5.038176508257621 225:0.1056165244540204 226:0.40822211162301814 227:0.4216635420044073 228:19.494329038418883 229:0.0013976804310738655 230:0.42183819720076676 231:0.42184051266821254 232:33.81016205431935 233:-0.1092859520211421 234:0.39466420475028724 235:0.40951587737271433 236:-130.52212688436484 237:-0.21705047709668693 238:0.36245361960277345 239:0.42247311863721154 240:-115.08528367069923 241:-0.1731019174224634 242:0.3139982959413622 243:0.35855153558367675 244:-117.13279956441541 245:-0.07516717852980645 246:0.29459134356265715 247:0.30402987423965966 248:-131.68597758290485 249:0.01808896794876792 250:0.32779389392591424 251:0.3282926250413875 252:30.84139517160672 253:0.09937684004567536 254:0.2971741121616404 255:0.3133499788998285 256:15.509749765225422 257:0.18452719270967374 258:0.30562531916827135 259:0.3570113731606051 260:2.877708665514497 261:0.09802848452372263 262:0.3020610502023717 263:0.3175696172926142 264:16.020093124691414 265:0.0181337545745171 266:0.33336814567422624 267:0.3338609794588774 268:30.886431153097845 269:-0.07600370780912469 270:0.30039509017755495 271:0.30986089427921715 272:-131.8014225332633 
0.0 0.011198732581771958 0.0 6.302982443363562E-4 1:-0.8183828510566497 2:-0.3805410370689279 3:0.9025308702737572 4:-30.061974642926447 5:-0.787549687374932 6:-0.15781097532485014 7:0.8032053373934549 8:-43.6690103323728 9:-0.7518569524075788 10:0.061495612665318285 11:0.7543676737909009 12:-59.675907194713176 13:-0.703986063105222 14:0.28018916110573955 15:0.7576954157493152 16:-76.70274584141973 17:-0.6348655781530825 18:0.49223230967090686 19:0.8033348921885588 20:-92.78760671634564 21:-0.516669394482776 22:0.6826705800921569 23:0.8561462399138131 24:-107.88026720733035 25:-0.36228268647029566 26:0.842422762755536 27:0.9170195505684732 28:-121.72994766393124 29:-0.17081669644405928 30:0.9532092188430569 31:0.9683935969797883 32:-134.840337148512 33:0.04672387758745634 34:0.9989078432283892 35:1.0 36:32.32194398841173 37:0.26765105792116145 38:0.9430500301493376 39:0.9802961022930692 40:19.15530123465237 41:0.45168250573364654 42:0.808625392934279 43:0.9262246552991035 44:5.813118998485024 45:0.616561706260841 46:0.6470641055086344 47:0.8937786606677117 48:-8.617217690851618 49:0.7262358366682753 50:0.448276696475206 51:0.8534462414610505 52:-23.31460518161645 53:0.7951880547894895 54:0.2285280929474339 55:0.8273748435540467 56:-38.96594492471375 57:0.8252319556533042 58:7.881541530172447E-4 59:0.8252323320243494 60:-54.94527854558484 61:0.8422333652584677 62:-0.22734724320471597 63:0.8723782496987117 64:-70.10603919672741 65:0.8507562850640085 66:-0.4550548048139682 67:0.9648114489164146 68:-83.1415550175773 69:-0.7184546472666077 70:-0.657466567947214 71:0.9738785181670628 72:-12.537989610510898 73:-0.5937278041625297 74:-0.6810540169403343 75:0.9035193851967008 76:-6.081196887309808 77:-0.467069752556517 78:-0.6861009189956049 79:0.8299931474414831 80:0.7545497722852588 81:-0.34039310967143205 82:-0.6764618134562718 83:0.7572767355308991 84:8.288626718967542 85:-0.21892816950186836 86:-0.645889951777447 87:0.68198487755119 88:16.275610677217784 89:0.1467436985705536 90:-0.6552784689323357 91:0.6715084399443327 92:-132.37738351801022 93:0.27714482062198464 94:-0.7000367369689999 95:0.7529015106265872 96:-123.40136776444187 97:0.413451352183473 98:-0.7226884774332204 99:0.8325987365094236 100:-115.22605049941197 101:0.5501386898595174 102:-0.7066231702399881 103:0.8955271535807039 104:-107.09759889053316 105:0.6856600549866275 106:-0.7007440721164149 107:0.9803937808914132 108:-100.62335101556971 109:-0.0190092920730376 110:-0.5062909519582242 111:0.5066476894449267 112:32.84977227576209 113:-0.01992286437558459 114:-0.35316498475198327 115:0.3537264861157509 116:31.771232937383417 117:-0.019708985889647233 118:-0.19914852678882344 119:0.20012141276474402 120:29.34805507126167 121:-0.023195244598728376 122:-0.0476684392167222 123:0.053012257727370726 124:9.05265737130668 125:-0.2084792404504045 126:0.027298057684370457 127:0.21025883489669772 128:-62.45981087046579 129:-0.12279707690912446 130:0.09883162763880507 131:0.15762871793921576 132:-93.82839664244784 133:-0.015115364426672426 134:0.12733284622265284 135:0.12822686133924074 136:-138.23024099665855 137:0.11282871527618245 138:0.10746105341598047 139:0.15581462380709346 140:-11.395813926651513 141:0.21689930812866542 142:0.033369607056984316 143:0.21945122588363752 144:-46.25371316879439 145:-0.6040021642545695 146:-0.42669538412134955 147:0.7395184685014093 148:-19.76082834547806 149:-0.5035515140119544 150:-0.432826331055067 151:0.6640050904310313 152:-14.31938337210233 153:-0.40331379693600167 154:-0.447649882604163 155:0.6025383275729895 156:-7.017527480884425 157:-0.30561796461354396 158:-0.46427907274484975 159:0.5558393632006849 160:1.6445493009880536 161:-0.40291487220201017 162:-0.4366974922622292 163:0.5941759789739753 164:-7.695891450687114 165:-0.5039698177910804 166:-0.42294672053688803 167:0.6579281918699663 168:-14.995608254575274 169:0.2547632839171622 170:-0.47719733329546327 171:0.5409451226663923 172:-116.90339747072366 173:0.3594526670116481 174:-0.4583807531293543 175:0.5825110596900464 176:-106.8971944531402 177:0.46663060309720555 178:-0.452196316880001 179:0.6497889109139214 180:-99.09998756068268 181:0.5739541183510918 182:-0.4525527022466237 183:0.7309085293543237 184:-93.25515627288398 185:0.46683030179401996 186:-0.4392328385574066 187:0.6409805122936988 188:-98.25538708134039 189:0.3584010780949714 190:-0.4484761704269979 191:0.5740925084169828 192:-106.36979506506688 193:-0.2539333422499727 194:0.3455173402335615 195:0.42879409360241477 196:-108.68647178249736 197:-0.18155410542756845 198:0.2978216501034789 199:0.3487974031840886 200:-113.63323062495579 201:-0.09726376696530928 202:0.2798606626577254 203:0.29628066232459915 204:-125.83543451992418 205:-0.011097206072269458 206:0.283590498633296 207:0.28380753847932205 208:-142.75909686627898 209:0.08554467403532462 210:0.28043888294751534 211:0.2931959384518485 212:18.036272651519155 213:0.1803909201803198 214:0.29687262832812455 215:0.34738198216653565 216:3.7155682369293004 217:0.2658925277401012 218:0.33810131052227677 219:0.43012943689650146 220:-3.182521635096194 221:0.1814158826040879 222:0.3813410019204831 223:0.42229454437245345 224:9.55810069019222 225:0.08685677718883178 226:0.3968217866954261 227:0.40621623569200266 228:22.653746114609376 229:-0.0073497241369011946 230:0.40456820549327493 231:0.4046349606014504 232:-143.95923147092742 233:-0.09538203017209197 234:0.4112954913362173 235:0.4222105077721897 236:-131.94354150856384 237:-0.18058436540477377 238:0.3921609687873299 239:0.43174174974035345 240:-120.2746239908347 241:-0.17556070244834326 242:0.3405633157970459 243:0.38315131777254025 244:-117.72885303241804 245:-0.09342088655978667 246:0.32337772648649726 247:0.3366015686731011 248:-128.88647474165998 249:-0.010074764499900895 250:0.32957358534375497 251:0.3297275375762021 252:-143.24906543777965 253:0.08376960076695442 254:0.3184834934941166 255:0.32931608166148213 256:20.263477802367404 257:0.1772828679577891 258:0.32947684767129437 259:0.3741446356995543 260:6.716468195406982 261:0.08195001871605904 262:0.3239323137944158 263:0.3341376205813501 264:20.80290211011051 265:-0.011210723161859006 266:0.3340669241869884 267:0.33425497774837537 268:-143.07797145535753 269:-0.09425339773451435 270:0.328884368815775 271:0.34212370721107777 272:-129.00848019860257 
0.46132830617147125 0.0 0.0 1.933111673121777E-4 1:-0.7519702972617461 2:-0.39694687471569484 3:0.8503094432678473 4:-26.17151394459179 5:-0.7551569228709634 6:-0.17980148674917446 7:0.7762670628058076 8:-40.607342888500554 9:-0.7372919157047464 10:0.03658179890295329 11:0.7381988871398757 12:-56.84048314988903 13:-0.680456946933275 14:0.24436424771920753 15:0.7230045243241068 16:-73.75412009464546 17:-0.6011828572030797 18:0.4459243358756333 19:0.7485114168274143 20:-90.565988608127 21:-0.4900061386565931 22:0.6313458838388433 23:0.7991893648950757 24:-106.18390785483757 25:-0.3664757430937043 26:0.8076092298411482 27:0.8868692904823662 28:-119.59247222105995 29:-0.19719078544571622 30:0.9426564297845107 31:0.9630604085304195 32:-132.18488205541027 33:0.008103169078451222 34:0.9999671687864987 35:1.0 36:35.53571753012709 37:0.2205244526375485 38:0.9470114822839306 39:0.9723485906755344 40:22.89150732838843 41:0.39271750332285316 42:0.813454439099768 43:0.9032912940504039 44:10.229794964034838 45:0.5490254979541517 46:0.6587157212770381 47:0.8575169962521634 48:-3.8104848676571947 49:0.6730858103595418 50:0.47821979011239235 51:0.8256746791336778 52:-18.606640457959017 53:0.7509187152663078 54:0.27146747683938754 55:0.7984820022509873 56:-34.12437756930173 57:0.7897412360970991 58:0.0563186889433336 59:0.7917468122553257 60:-49.92098064312016 61:0.808618004956238 62:-0.1636813954015933 63:0.8250179859494091 64:-65.4432569920425 65:0.8160148671261734 66:-0.38227576770351873 67:0.9011187635069313 68:-79.10152422698815 69:-0.6303878298147833 70:-0.6361215342856784 71:0.8955665370928939 72:-8.74061398032454 73:-0.5479625122604911 74:-0.6870723712339591 75:0.8788238493326659 76:-2.573497024259524 77:-0.45195599449731666 78:-0.7001898004615185 79:0.8333846516659636 80:3.158711655468913 81:-0.35571901615432233 82:-0.6898035503409814 83:0.7761217407835075 84:8.72067368960635 85:-0.27177721848791303 86:-0.6446602000116688 87:0.6996067680977018 88:13.140581360542157 89:0.25301834445784255 90:-0.6914156494701085 91:0.7362566692155389 92:-123.90028155211898 93:0.34134616768565273 94:-0.723958213244943 95:0.8003953402653543 96:-118.75613084308466 97:0.4337196877696172 98:-0.7433160770014282 99:0.8605995339806822 100:-113.7367399884606 101:0.5249223811135398 102:-0.7250090474930511 103:0.8950874958017734 104:-108.09464078409458 105:0.6003173385654461 106:-0.6708558359209865 107:0.9002380016259844 108:-102.17613494076562 109:-0.024897091057802342 110:-0.5262633082396189 111:0.5268519096885277 112:33.29140261005 113:-0.02501580862950904 114:-0.36694822676515865 115:0.3677999344854244 116:32.10003291789684 117:-0.01966346853150631 118:-0.21057341131491472 119:0.21148951167254085 120:30.665157135842747 121:-0.014313303297419505 122:-0.05288122829385553 123:0.05478407576249496 124:20.854710415286462 125:-0.17557878773295219 126:0.08726955231266985 127:0.1960711234797896 128:-80.42918061008915 129:-0.09181315404376265 130:0.08126055330256066 131:0.12260886092979574 132:-95.5108974263712 133:-0.009313516139779002 134:0.07861651874280531 135:0.0791662718720781 136:-137.2437916939839 137:0.07445954208484894 138:0.07572042495468202 139:0.10619701579047795 140:-8.51896667092403 141:0.1569660795571184 142:0.07570617584626486 143:0.1742692606078226 144:-28.251561543103573 145:-0.5226641952049138 146:-0.4287642338674062 147:0.6760300505104074 148:-14.636477334979844 149:-0.44098568092229323 150:-0.47275933104422224 151:0.646505804976165 152:-7.0084566240375 153:-0.348378100483751 154:-0.4706450633363534 155:0.5855545034747378 156:-0.5093658890097572 157:-0.2630199414406812 158:-0.4347031872603491 159:0.5080810472845504 160:4.823696646735719 161:-0.3505314407468057 162:-0.42305146632175794 163:0.5494040717987272 164:-3.6444225273311446 165:-0.4376128419646563 166:-0.4115333120257505 167:0.6007201231515946 168:-10.759152333526629 169:0.21814822632072728 170:-0.43174994704794245 171:0.48373201819063044 172:-117.1941181470222 173:0.31454936939174805 174:-0.4734945850385452 175:0.5684526610418588 176:-110.40333128918259 177:0.41954324980543706 178:-0.48093276962289006 179:0.6382106763087337 180:-102.90007748542297 181:0.5126526238461835 182:-0.43762102968763544 183:0.6740362589365967 184:-94.48541294063068 185:0.4154425813889156 186:-0.4172115067346603 187:0.5887766807397277 188:-99.12172137932811 189:0.3163248083005196 190:-0.42644117922357305 191:0.530955236987029 192:-107.43277841347125 193:-0.2807402826588105 194:0.355870870623204 195:0.45327605591456743 196:-105.7307114981326 197:-0.20201013389361197 198:0.2851490207696493 199:0.3494539429475721 200:-108.68482927325554 201:-0.10259350450499362 202:0.24677879663814004 203:0.2672549375349025 204:-121.42584762962534 205:0.002314206300425298 206:0.24487136598824166 207:0.2448823011810946 208:35.45853078399948 209:0.10268087624392715 210:0.24154277426200543 211:0.26246194799324113 212:12.969445640163215 213:0.1978926687339642 214:0.2710820759543585 215:0.3356292601105796 216:-0.12982377053855743 217:0.27075638456853257 218:0.3383943391496217 219:0.4333817584452907 220:-2.664031963669764 221:0.18981409921923156 222:0.3949360762689306 223:0.4381824923489149 224:10.330138913182566 225:0.0999372479158669 226:0.43359533231538466 227:0.4449633307663524 228:23.020842502378258 229:0.003589651494371401 230:0.4498982622225494 231:0.44991258256323624 232:35.5428577224323 233:-0.09757961822955113 234:0.43963290453763565 235:0.450331958277472 236:-131.48567191597164 237:-0.19264884464010937 238:0.4048888535123578 239:0.44838438982609613 240:-118.55458012398795 241:-0.21084300621076163 242:0.3303210193064111 243:0.3918759358057314 244:-111.45002086080953 245:-0.14094572976271313 246:0.32969353356890607 247:0.358557561369852 248:-120.85303588506397 249:-4.638448737584297E-4 250:0.33209488331372594 251:0.3320952072451877 252:-143.91997366515284 253:0.13625515046346792 254:0.33452548122845455 255:0.36121013775772043 256:13.838503081218562 257:0.20350576751600025 258:0.33514104271207373 259:0.39208942337483726 260:4.732861110359423 261:0.1348834112947453 262:0.33575652920038523 263:0.36183695436369756 264:14.113200477219081 265:-4.6264494883913976E-4 266:0.33335007977465825 267:0.3333504008188976 268:-143.92048123708238 269:-0.14218000253286447 270:0.3309484300486084 271:0.3601971910938285 272:-120.7509739651518 
